1
0.6
1
784
2
10
10
10
-0.729046
0.670017
0.937736
-0.557932
-0.383666
0.0944412
-0.623236
0.985763
0.992923
0.93539
0.451678
0.962219
-0.780276
0.596212
-0.405941
-0.990433
-0.775071
0.279527
0.756861
0.00732535
0.595857
-0.277412
-0.576151
0.362719
-0.202523
0.481294
-0.0504826
-0.155825
-0.65227
-0.396174
0.59456
-0.366899
0.744858
-0.701772
0.988137
0.643807
-0.749634
0.5275
-0.0188219
0.327211
-0.748207
-0.579582
-0.897567
-0.927117
-0.182538
-0.0840217
-0.0248621
0.58795
0.84175
0.615062
0.411549
-0.994363
0.421408
0.287922
-0.0879344
0.547834
0.147509
0.753515
0.616351
-0.964452
0.642492
0.641682
0.880148
-0.174667
-0.15367
0.161913
-0.683885
0.523462
-0.539688
0.619469
0.977043
-0.335103
-0.400337
-0.972922
-0.565524
0.814729
0.696936
0.910035
0.557795
0.974919
-0.864809
0.587195
0.189007
0.465597
0.390466
0.35964
-0.215359
0.123115
-0.583864
0.0547429
-0.191583
-0.294475
0.185648
-0.28731
0.929933
-0.691123
-0.210184
-0.225408
0.453909
-0.22286
0.854986
-0.127765
0.725356
0.24072
-0.760906
-0.0560864
-0.319561
0.059684
0.432201
0.976759
0.440987
0.825155
0.010997
0.116538
0.00638004
-0.0750516
0.0931839
-0.104831
0.708902
0.208463
-0.00291163
0.942507
-0.93568
1.02999
-0.272332
0.359033
-0.285285
0.711757
-0.910253
0.305259
0.51482
-0.734008
0.967634
-0.861711
-0.434017
0.645971
-0.830848
0.282986
-0.967758
0.40392
0.00718886
-0.149897
-0.600898
-0.825473
-0.371493
0.602886
-0.807635
-0.416385
0.133709
0.688376
1.02445
0.42155
-0.411449
-0.904111
-0.518737
0.0313765
0.852074
-0.269278
-0.919431
-0.62379
0.770789
-0.536423
-0.530151
-0.0274095
-0.55316
-0.103528
0.778042
0.305996
0.625135
-0.0517995
0.20768
-0.850535
-0.293599
-0.400418
0.786826
0.618274
-0.563637
-0.872152
-0.0112886
-0.173011
0.522875
-0.317392
0.329663
0.685219
-0.585116
-0.244081
-0.31214
0.629565
0.312368
-0.240845
-0.0874361
-0.370829
0.892796
0.00877167
0.533322
-0.813159
-0.211053
0.740374
-0.27635
0.808033
0.0879282
-0.764281
-0.570085
0.974596
1.05139
-0.498014
-0.995992
-0.206463
0.559379
-0.0413653
0.0540654
-0.962781
0.781101
-0.595765
0.791185
-0.0698934
-0.682577
-0.551084
0.60023
-0.0539699
-0.827213
0.289117
0.266126
0.118157
0.483158
-0.17561
0.407832
0.414782
-0.673231
-0.701762
-0.100888
-0.915892
0.594728
-0.664888
0.662429
-0.350073
0.31156
-0.15962
0.563818
-0.773615
0.987069
-0.636854
0.525863
-0.468159
-0.511723
-0.798523
-0.311344
-0.436745
0.937281
-0.572455
0.211856
-0.546897
-0.620189
-0.196857
-0.173419
-0.659695
-0.401896
0.272937
-0.696852
0.538486
0.767937
0.918443
-0.963867
0.165693
0.533708
-0.344404
-0.741868
-0.416078
0.694219
-0.538471
0.00394877
-0.996804
-0.974922
-0.426827
-0.802602
-0.23049
-0.289303
0.439942
-0.86911
0.0277184
-0.152043
0.379603
-0.492114
-0.196961
-0.471047
0.868501
-0.0549495
0.221832
-0.0231962
0.0290391
-0.509962
-0.33399
0.00472475
0.192116
-0.379688
0.925995
-0.535199
0.493808
-0.354934
-0.363536
0.904944
0.0694421
0.74361
0.869205
0.334228
-0.420621
-0.868951
-0.536223
0.409447
-0.609785
-0.155563
0.87211
-0.715566
0.286362
-0.0545357
-0.126134
-0.511361
0.0118388
0.813888
-0.846992
0.427808
0.23441
-0.621832
-0.206036
-0.444672
0.716199
0.817873
0.234558
-0.638363
0.0300474
0.649263
-0.281351
0.632234
-0.413224
-0.655764
-0.0144208
-0.60935
0.728615
-0.591606
0.232545
0.756101
-0.215062
0.893155
-0.666603
0.943755
0.12793
0.196738
-0.737556
0.133555
0.108761
-0.37902
-0.758702
0.475582
-0.514553
0.645718
-0.629048
-0.374646
0.763451
0.348426
0.478595
-0.874914
-0.736877
-0.820094
-0.983371
-0.0869792
0.268607
0.059526
-0.00426114
-0.328404
-0.494353
-0.532649
-0.653674
0.191962
0.453786
0.703112
0.401376
-0.302515
-0.0401233
-0.963596
0.561408
0.309468
-0.844983
-0.0994008
1.03776
0.064195
0.764183
0.537173
-0.440511
0.816807
-0.250388
0.740675
-0.346588
-0.347272
0.288462
0.203405
-0.902034
0.522587
-0.02081
0.0523527
-0.140452
-0.210551
0.575156
0.949516
0.496638
0.254024
-0.840702
0.266727
0.0578413
-0.407665
-0.349344
0.26224
0.989011
0.0320957
0.448908
-0.508851
-0.335322
0.497218
0.365933
0.32931
-0.877155
0.0701602
0.419758
-0.857224
-0.803114
0.0621266
-0.454974
-0.0935477
-0.722129
-0.811118
-1.02733
0.890309
0.893738
-0.424782
0.542026
0.019625
-0.0364531
-0.963276
0.0048764
0.118384
0.80895
0.641539
0.710702
-0.237042
0.614067
-0.436995
0.0806248
0.143742
-0.527454
0.137489
0.929185
0.310426
-1.0529
-0.127354
-0.609477
-0.10908
1.14151
-0.0946366
-0.482092
-0.701762
0.206014
0.158715
-0.184996
-0.860376
0.0727716
0.827718
-0.524536
0.176084
0.748329
-0.229126
0.505396
0.535683
-0.881663
0.769885
-0.100854
-0.85647
0.789409
0.764226
1.29758
1.11095
1.09955
0.783232
-1.47146
0.579069
-0.948082
-0.302536
0.282714
-0.34006
-0.974463
-0.553119
1.19459
0.35002
0.0379666
0.157521
-0.635304
-0.588089
-0.338132
-0.95553
-0.859408
-0.528576
-0.287061
1.35311
-0.174428
0.5656
-0.362461
0.359372
0.689713
-0.560043
0.815052
0.425977
0.756673
0.602305
-0.236775
0.0809782
-0.571107
0.571829
0.90883
0.53474
0.683514
-0.205647
-0.332962
0.581214
0.132181
-0.440574
-0.288963
-0.0528209
-0.228323
0.624064
-0.285872
0.531783
0.93691
0.692639
0.52346
-0.175744
-0.591774
1.11633
0.707291
0.714111
-0.771167
-0.935248
0.199198
0.471383
0.23109
0.268631
0.962665
-0.26399
0.88772
-0.762999
-0.372295
0.82911
-0.532713
0.579363
0.11306
0.887257
0.0459713
0.363559
-0.630941
0.9033
0.267533
-0.645888
-0.774251
-0.0100504
0.553583
-0.0706424
0.7661
0.31402
0.821844
-0.956489
0.365545
0.170179
-0.790871
1.01937
-0.540016
-0.334184
0.378766
0.922841
-0.546802
0.848483
0.752492
-0.136511
-0.0582252
0.124205
0.675231
-0.703382
0.278556
0.991187
0.278788
-0.120963
-0.943223
-0.833698
0.0607344
0.564003
0.47329
-0.619678
-0.476345
-0.0955105
-0.0799462
0.347274
-0.646094
-0.624338
-0.807026
-0.352251
-0.659347
-0.950532
0.661286
-0.510343
-0.71593
-0.689116
-0.393979
-0.932855
-0.181421
0.566247
-0.113256
-0.965024
-0.428431
0.902793
-0.65737
-0.8117
-0.452177
-0.597272
0.506233
0.601759
0.172168
-0.00601096
0.181946
0.137583
-0.629804
0.803313
-0.951076
-0.471247
0.565031
0.199404
0.112431
-0.806935
0.853574
-0.203217
-0.920194
0.170234
-0.17357
-0.740933
0.217878
-0.889187
0.696592
-0.0958722
-0.0299712
-0.865106
-0.557988
0.288729
0.951664
0.898685
0.472945
-0.158293
0.371468
0.372432
-0.537467
0.98955
-0.128814
0.487585
-0.323899
-0.274168
0.979767
0.450157
0.675013
-0.203929
0.703391
-0.656794
0.894789
-0.298207
-0.230243
-0.20054
0.436733
0.671835
0.849714
-0.88498
0.557005
-0.643492
-0.258104
-0.596454
-0.773574
-0.69597
-0.253905
-0.162237
-0.944071
-0.186659
-0.824484
1.21196
-0.0608907
0.498225
0.569902
0.472649
0.311234
-0.643292
-0.822326
-0.882603
-0.24391
0.599249
0.0135615
0.774659
-0.181817
-0.485623
-0.948966
-0.868981
0.277895
-0.763161
-0.341177
-0.347564
0.572143
-0.267106
-0.808104
-0.880804
-0.314943
0.432007
-0.0147784
0.735351
-0.116206
-0.865247
-0.278732
0.631136
-0.11194
-0.760372
-0.12461
0.87991
1.06551
0.110169
-0.256298
-0.281631
-0.913936
0.174835
-0.810453
0.056521
-0.0474296
-0.0871317
-0.0919595
-0.649629
-0.947326
0.411528
-0.183609
0.156318
-0.775221
-0.451909
0.762745
-0.2861
-0.416735
-0.796385
-0.0955368
0.489819
0.6536
0.418504
0.275906
-0.338239
0.842018
0.860163
-1.31943
0.537719
0.401383
-0.413829
-0.0420832
-0.58798
-0.226899
0.895866
-0.278022
0.0912474
-0.524785
0.0100346
0.863236
1.26553
0.714934
-0.437752
0.33444
0.0976137
-0.459124
0.2439
-0.132337
0.913655
-0.857296
0.492515
0.82789
0.0973486
0.91474
0.101804
-0.387696
0.560251
-0.0825342
0.785291
-0.263284
-0.737622
-0.479644
-0.620337
0.180166
-0.666619
0.436804
0.0696077
0.558114
-0.205155
-0.156555
0.584105
-0.904225
-0.7638
0.155085
-0.329452
0.608755
0.509677
-0.596553
0.365154
-0.692579
0.52733
0.930037
0.565434
-0.94656
1.10075
0.958202
-0.203799
0.976571
-0.209261
0.674553
-1.17342
0.367964
-0.799853
0.440637
-0.721357
0.836771
-0.678522
-0.606831
-0.485952
-0.850711
0.0383651
0.868853
-0.718067
0.838748
-0.319913
-0.0269643
0.90642
0.0119993
-1.24415
-0.874281
-0.793641
-0.213236
-0.689005
0.648344
0.560238
-0.85005
-0.492395
-0.164347
0.391155
0.668269
-0.455268
-0.366508
-0.830732
-0.447604
-0.877485
0.221949
0.0482105
-0.161453
0.499584
1.03963
0.708215
0.806111
-0.602832
0.231636
0.565369
0.97566
0.291418
0.571772
0.606481
0.548664
-0.00432994
0.460576
0.55257
0.186334
0.187517
0.842462
-0.843254
-0.92948
-0.159166
-0.767361
0.726193
-0.153654
-0.118698
-0.444383
0.227268
-0.264279
-0.782594
0.197248
-0.966798
-0.0451635
-0.771621
-0.290978
-0.847795
-0.589685
0.0339643
-0.00771004
-0.92962
0.706278
0.901228
0.705871
0.960601
0.724615
0.642614
0.837248
0.196464
0.653549
0.0752123
0.826277
-0.664435
-0.962223
0.713
0.682753
0.576374
0.459037
0.469095
0.172927
0.12646
0.848465
0.210474
-0.797356
0.238029
0.46764
-0.418072
-0.36275
0.147786
0.282527
-0.889157
0.95983
0.585033
0.27836
-0.351347
0.945358
0.0104699
0.842887
0.139224
-0.107307
0.928931
-0.759607
0.969848
-0.54006
0.193992
0.140695
0.529287
-0.175635
-0.88823
0.0120034
-0.655917
0.0580519
0.0690341
0.36537
-0.0551445
-0.338371
-0.25097
-0.724148
0.458779
-0.341401
0.321014
-0.872513
0.814771
-0.790684
-0.801497
-0.21496
0.331339
-0.00880319
-0.0752157
-0.577427
-0.180994
-0.784551
-0.0213578
-0.776354
-0.282802
-0.418675
-0.344393
-0.481943
0.0904144
-0.860736
-0.965317
-0.730162
0.79308
0.484645
0.207326
0.905771
0.828326
-0.515297
0.804135
-0.11452
0.115078
-0.297723
-0.926645
0.127641
-0.305609
0.559671
0.26034
0.767531
0.747842
-0.324776
0.274742
0.345493
0.0281191
-0.959332
-0.991773
-0.152644
1.01613
-0.601027
0.19346
0.907634
0.705565
0.60176
0.818709
-0.272137
0.253996
-0.157576
1.26503
-0.154134
0.349927
1.01553
0.260536
-0.123315
-0.373944
0.748992
1.05895
-0.587066
-0.908892
-0.0792735
0.891385
-0.734168
-0.334069
0.18571
-0.76125
0.24842
-0.551703
-0.367691
-0.468202
0.0239085
-0.012464
0.136392
-0.579165
0.755704
-0.652792
0.95295
0.171937
-0.268985
-0.391216
-0.965994
0.146433
0.717557
0.610172
-1.07407
0.0543814
-0.597182
-0.193815
0.466976
-0.133297
0.456939
-0.0721768
0.698372
0.187254
0.742457
0.0483076
-0.422323
-1.12327
0.414974
0.138361
1.0395
1.54966
-1.37527
0.409631
-0.504431
0.451572
-1.07921
0.413379
-0.643876
0.748007
0.614055
0.158298
0.103827
-0.649377
-0.649817
-0.0704225
0.722188
-0.656676
0.308894
-0.551081
0.628286
0.0747451
-0.451928
0.0488555
-0.324859
0.239951
1.41164
1.00813
-0.0150838
0.775182
-0.15633
0.274989
0.98844
0.735533
0.0505691
0.324413
0.388511
0.604437
0.155986
-0.273501
-0.375334
1.09399
-0.78243
0.538933
-0.133204
-1.14472
-0.0301583
-0.739056
1.06237
1.3473
-1.39964
-0.749602
0.284943
0.734173
0.207198
0.96302
1.21501
0.612632
-0.214432
0.949632
0.0628523
0.269282
0.524247
0.210098
0.561762
-0.380039
0.645009
-0.468432
0.0694188
0.163648
0.710171
0.451331
0.235205
0.45714
0.69504
-0.945784
0.444612
-0.656647
-0.443554
-0.681674
0.528375
1.01571
-0.629868
0.0393628
0.774705
0.560546
-0.0797436
0.507213
0.0681596
-0.232442
-0.0430378
-0.138132
0.438083
0.765775
0.355556
0.228852
-1.0522
-0.498338
-0.349279
-0.561617
0.190235
0.39173
-0.284981
-0.0775957
1.07547
-0.140841
0.189819
-0.907124
-0.682086
0.34461
-0.598395
-0.710789
-0.764783
-0.341795
-0.25809
-1.00293
-0.709219
0.480958
-0.659629
0.301795
0.515735
0.0381591
-0.822781
0.491147
0.806855
0.0685283
0.670455
0.0640255
-0.361133
-0.444091
0.11827
-0.519278
-0.245386
-0.795278
0.993115
-0.47798
-0.132365
-0.148223
0.464573
-0.233911
-0.37076
0.697622
-0.746544
-0.0461392
0.570222
0.996082
0.588935
-0.945401
0.918626
-0.329014
-0.905958
0.211875
0.948114
0.3828
0.348969
-0.598377
-0.58221
0.726699
0.731075
0.44224
-0.959664
-0.250698
-0.373478
-0.00338942
0.458367
0.429882
-0.747969
0.601227
-0.338425
-0.172612
-0.34165
0.230824
-0.372185
0.567689
0.340897
0.0748618
0.443271
0.459565
0.278964
0.272398
-0.79598
-0.770554
0.11216
-0.0660737
0.487209
-0.816557
0.59413
0.0912765
0.940937
-0.58839
0.801572
0.470233
0.579944
-0.205033
0.818205
-0.77083
-0.701667
-0.570585
-0.739016
-0.861288
-0.820939
0.193487
0.913887
-0.758309
0.711142
0.644461
-0.0559292
0.345207
-0.671988
0.531887
-0.516817
0.07472
0.445944
-0.589045
0.168249
-0.711044
-0.0855487
-0.165703
-0.208272
-0.101264
0.207439
0.120225
0.565649
-0.397228
0.6127
0.469287
-0.312856
-1.02953
-0.130568
-0.364884
-0.734771
-0.180514
0.49282
-0.981264
0.994925
-0.43689
1.02208
0.574944
0.867908
-0.572818
-0.224125
0.704955
0.0214332
0.139045
-0.851114
0.110857
0.77688
-0.577821
0.281462
0.613905
-0.622263
0.441362
-1.14809
0.765205
1.22134
-0.769622
-0.429797
0.363372
0.957577
-0.925075
-0.492503
-0.509518
0.4907
-1.05411
-0.776842
1.41938
-0.253069
-0.837818
0.66885
0.199104
0.148065
0.148419
-0.104477
-0.692723
-0.360414
0.664914
0.00118932
0.744381
-0.418157
0.796712
-0.0331934
0.391624
0.853488
0.752348
-0.173111
0.880541
0.135727
0.715044
-0.47625
-0.4333
0.0327562
-0.619335
0.175547
-0.632514
-0.680459
0.802861
-0.665946
1.03179
0.18328
-0.598943
-0.494594
-0.826195
-0.594168
-0.794169
0.583529
-0.412056
-0.165576
0.0435097
-0.418248
-0.24284
-0.430883
-0.0819539
0.612543
0.0846271
-0.57721
0.343513
-0.717548
-0.764503
-0.698057
0.930962
0.0357197
0.369949
0.604503
0.993828
-0.219461
-0.0438271
0.798907
0.216352
0.949773
0.0620116
0.265608
0.307719
0.254273
-0.292222
0.775604
0.859026
-0.450222
0.0345234
-0.256648
0.986128
-0.456965
-0.823224
-0.204712
-0.878204
1.13699
0.942801
0.727873
-0.719646
0.391882
0.780208
-0.637849
-0.15323
-0.492261
-1.43501
-0.250603
0.734305
0.565152
0.530339
-0.2883
0.115785
-0.307261
0.713558
-0.483904
-0.151388
-0.0365716
-0.243344
-0.62757
0.250672
0.71978
-0.606614
-0.0221834
-0.20816
0.478181
-1.13184
0.678902
-0.114808
-0.298557
-0.00619788
0.888724
0.593213
-1.1432
1.0902
1.35393
-0.248037
-0.72991
-0.230781
0.864663
-0.548732
0.766085
-0.902555
0.909447
0.670858
-1.2924
-0.623228
-0.95079
-0.0945641
-0.740112
-0.125478
-0.797964
0.107353
0.413665
0.401806
-0.292773
-1.22565
-0.404937
0.442608
0.912066
-0.708372
0.777125
-0.280478
-0.354362
0.81895
1.08249
-0.619985
-0.525156
0.125078
-0.455043
0.757032
0.577392
-0.373363
-0.804997
0.293671
0.827038
0.632948
0.659826
-0.668124
-1.09143
-0.236982
-0.00538166
-0.330075
0.694257
0.0867099
0.766083
0.980827
0.0106759
-0.232375
0.555256
-0.192999
0.136099
-0.686184
-1.04253
0.871933
0.0807161
0.65438
0.311043
0.167893
1.15208
0.642513
0.265878
0.481367
0.0412635
0.440894
-0.754259
0.365069
0.435912
0.34951
0.332674
-0.0543561
-0.885296
-0.247796
0.249402
-0.771404
0.0673391
0.309193
0.913389
0.910936
0.794347
0.812309
-0.709882
-0.247316
0.36433
0.06663
0.431118
0.64798
-0.991481
0.362059
0.482403
0.836078
0.160476
-0.958209
0.674348
0.194132
-0.450463
-0.369657
-0.988321
-0.0362784
-0.663044
-0.249789
0.0266024
0.951938
-0.664425
0.733906
0.453871
-0.178046
0.36026
-0.273243
-0.408897
-0.0778814
0.38068
-0.69602
-0.848056
0.181532
-0.0334316
0.616399
0.931694
-0.792057
0.396422
-0.0520936
-0.783496
-0.562259
-0.151663
-0.621694
-0.784258
-0.228445
-0.832809
0.108199
-0.967685
0.962188
0.998395
0.285774
0.207948
0.449828
0.600238
-0.605839
-0.850832
-0.47234
-0.231161
0.403785
-0.376656
0.892349
0.613503
0.0764721
0.615356
-0.684195
-0.400474
-0.331822
0.596108
0.589539
0.41418
-0.081562
1.0831
0.29592
-1.07059
0.512086
0.415243
-0.855679
0.421079
0.738555
-0.0986899
0.310667
-0.0202933
1.0955
0.082513
-1.25959
-0.770855
0.610162
-0.597775
0.313646
-0.938547
0.0530378
-0.468437
0.225994
1.16407
-0.170496
-0.656971
0.473877
1.07975
-0.162963
0.055575
0.102718
0.209234
-0.155507
-0.0837673
0.622243
-0.0390323
-1.2345
-1.01463
1.02626
0.687724
0.505176
-0.670631
-0.826604
0.449605
-0.0630712
1.40996
0.417301
-0.782994
-0.436357
0.891546
-0.896714
1.15946
-1.01539
0.324474
0.197857
0.643702
-0.417525
-0.787166
-1.15841
-0.531177
0.97664
-0.858175
1.49038
-0.32327
0.623113
-0.0449642
-0.625701
1.25014
0.160666
-1.98702
0.371474
1.11425
-1.22005
0.755874
-0.909659
0.014222
-0.038544
0.134603
0.196189
-0.770164
0.370863
0.174866
0.0785506
-0.930489
0.455806
-0.640175
-0.0948158
0.844318
-0.477491
-0.988999
-1.13582
-0.46751
-1.2087
-0.581095
-0.599257
1.29423
-0.0722011
-0.416187
1.19108
0.385162
0.557521
-0.892881
-0.0453947
-0.152877
-0.701157
-0.447304
-0.387271
-0.528777
-0.137437
1.37954
0.282573
-1.83366
-1.12427
1.0531
0.15977
-0.633926
-0.0812623
0.0402428
0.186283
-0.0758872
0.864326
0.28999
0.136094
-0.382586
0.268212
-0.233911
-0.104084
-0.0968073
-0.829748
0.622875
0.118608
0.659846
0.620435
0.553879
-0.181783
-0.32843
0.252727
-0.564004
0.858383
-0.381962
0.457092
-0.237965
0.681686
-0.000171634
-0.595777
1.22586
-0.421953
-1.03651
-0.350748
0.827412
-0.795124
-0.598941
-0.217706
-0.610057
0.00967787
-0.639054
0.0788819
-0.371022
-0.0196598
0.681902
0.431309
0.109332
0.595308
-0.83737
-0.41445
0.205256
-0.03856
0.328607
0.576368
0.746883
1.09714
-0.301029
0.0570576
0.0979571
0.348669
-0.72346
0.21415
0.95247
0.654813
0.198485
0.39608
1.49354
-0.218461
-0.620844
0.555742
0.603422
-0.98446
-0.964383
0.447837
-0.0433191
0.647068
1.01319
-0.688718
-0.674901
0.0337477
-0.923067
-0.804879
0.752071
0.124863
0.460611
0.756665
-0.0366586
0.526288
0.637385
1.22472
0.752965
-0.964143
-0.0150452
1.12914
-0.567962
0.124472
0.173376
0.0958444
0.366322
0.0374229
-0.333296
-0.140637
0.197114
0.0606902
0.687522
0.465643
-0.946616
-0.786933
0.86992
-0.953507
0.477031
-0.389811
-0.0238329
-0.445443
0.538731
0.397646
0.973096
-0.20246
0.687609
-0.0125189
0.574155
0.1218
0.868613
0.834428
0.535653
-0.522142
0.455385
-0.4018
0.688943
-0.961099
-0.717397
0.0430083
0.423638
-0.287202
-0.924919
-0.489796
-0.883495
0.128683
0.416589
-0.716374
-0.447797
0.217682
-0.430459
0.0363242
-0.692453
0.655371
0.0796393
0.314122
-0.478667
0.653939
0.63762
-0.564674
0.549345
-0.95256
-0.320363
-0.468537
-0.429713
0.186202
-0.291705
-0.566656
0.341087
-0.875118
-0.258567
-0.255171
0.955862
0.506922
0.48276
0.963805
0.762492
-0.311233
-0.201126
-0.264672
-0.929526
0.162486
-0.0977311
0.503941
-0.865223
0.491235
-0.427663
-0.507061
0.0211301
0.122752
-0.781244
0.697296
0.47008
-0.521609
-0.772814
1.02363
-0.647426
0.458929
-0.371516
0.372796
0.744632
0.887156
0.698738
-0.980493
0.292079
0.36436
0.0696298
-0.857145
1.12361
0.298441
0.683877
-0.47275
-0.21808
0.208098
-0.572343
0.726358
-0.0428111
1.04707
0.825674
-0.140569
-0.701835
-0.908874
-0.144766
-0.647994
0.106369
0.424964
0.617134
0.525221
-0.223082
0.46281
0.767794
-0.836464
0.836546
-0.766806
-0.318825
1.05678
0.261121
0.866455
-0.664438
0.476816
-0.345559
-0.258587
-0.606808
-0.0153304
0.131545
0.28327
1.01678
-1.04536
0.574275
0.529457
1.29761
-1.44933
-0.203514
-0.676009
-0.357339
-0.0349313
0.723
-0.347976
-0.750814
0.628367
0.0829191
0.605002
0.418835
-0.507174
-1.08416
0.06294
0.157061
-0.694954
-0.570268
0.57948
-0.396029
-0.0760747
-0.420648
0.6163
0.233624
0.176426
0.364071
0.398532
-0.222265
-0.416858
-1.24605
-0.0502246
0.06134
0.49021
-0.126794
0.52354
0.59898
0.108656
0.357125
0.228987
-0.268682
-1.22233
-0.390436
0.319437
0.241104
-1.11639
-0.791672
-0.948731
0.546655
0.75774
0.273771
-0.0179522
0.520712
0.288443
-1.17909
0.862207
-0.859658
-0.0600525
-0.138002
-0.290953
0.863048
-0.841492
-0.413989
-1.09239
-0.133467
-0.28211
-0.671506
-1.26094
-0.0720869
-0.183464
0.478758
0.959379
-0.680645
0.983214
0.631264
-1.07361
-1.43351
-0.802302
-0.491503
0.146407
0.699842
-0.574648
1.1795
0.15889
-1.05571
-0.0384532
0.211657
0.433336
1.02322
-0.580279
-0.0773565
0.178509
-0.55286
2.02205
0.796032
-1.14859
0.847408
-0.331683
0.854961
0.155241
1.11922
0.791271
-0.932344
0.370479
-0.159199
0.225106
-0.841274
1.19194
0.734041
0.195651
-0.776753
-0.0113066
-1.27107
-0.312546
-0.00602214
0.424218
-0.285953
0.196226
0.262944
-1.1068
-0.457941
0.985554
0.357996
0.8823
0.148925
-0.936069
-1.16393
0.200413
-0.0510849
-0.594572
0.200062
0.0498764
0.62823
0.250635
-0.638513
0.807034
0.540288
-0.116015
-0.448884
-0.139376
0.186618
0.943197
0.388477
0.644036
-0.676735
0.102589
1.06466
-0.430772
-0.312794
0.453036
-0.00111346
1.1621
0.225239
-0.0137663
-0.964959
-0.728747
0.651604
0.943441
0.935368
-0.413199
-0.134846
0.256753
0.980796
-0.338255
0.642023
0.383187
0.825289
0.868725
0.000286775
0.258801
0.966216
0.487364
0.153788
0.120889
-0.493888
0.842807
-0.872274
-0.85983
0.535335
0.788982
0.674559
-0.633324
-0.442354
-0.107395
0.215569
-0.950326
0.97968
0.739778
-0.547927
0.742768
0.74514
0.07632
-0.0539855
-0.26195
0.542437
0.696995
0.841626
0.358569
-0.897155
0.0450786
0.230311
0.916566
-0.365239
-0.44603
-0.178518
0.543065
0.900392
0.10789
-0.841583
0.585507
0.361652
0.10041
-0.124041
0.234584
-0.763126
0.00177208
-0.418999
-0.0317895
0.661458
-0.266855
0.275876
0.20674
-0.164942
0.163142
0.442051
0.690134
0.888896
-0.731189
-0.859389
0.334133
-0.149953
-0.0774682
-0.912396
-0.535361
0.734728
0.847766
-0.365258
0.314921
-0.145333
0.78964
-0.642217
-0.882815
-0.217412
0.523624
0.0639427
-0.926527
-0.797918
-0.491179
0.27554
0.925586
0.221504
-0.0764809
-1.31214
0.937885
-0.516329
-0.523074
0.679227
-0.347655
-0.759395
-0.130823
-0.186593
0.358113
0.628714
0.0502182
-0.505821
-1.01439
0.526223
-0.32144
-0.334781
0.862402
-0.317002
0.756737
0.894319
-0.849881
0.703566
-0.760448
0.614689
0.0865379
-0.720921
0.200483
0.112737
0.531234
1.01385
-0.931801
0.848199
0.129736
-0.419036
0.40081
0.596898
-0.0555562
0.945173
-0.354512
0.188185
-0.306852
-0.503398
-0.487609
-0.352006
-0.498778
0.209987
0.0431587
-0.914082
0.273076
-0.0907034
-0.366716
0.27766
0.231669
-0.0127471
-0.485344
0.789534
0.456894
-0.292935
0.128466
0.228825
-0.023952
-0.0847634
-1.06212
0.700809
1.49149
-0.478918
1.02015
0.708353
-0.819859
0.110732
-0.197185
0.918837
-0.108449
-0.749262
-0.948987
0.015375
-0.575941
0.843424
-0.596377
0.610166
0.31215
0.390823
0.609394
-0.0610509
-0.94756
0.813259
-0.129484
0.246028
-0.531883
0.410039
-0.263263
-1.22201
0.65065
-0.392799
-0.707734
-0.21014
-0.489389
-0.754976
-0.489435
-0.220751
0.764691
0.188086
-1.13745
-0.0194196
-0.0976583
-0.354134
-1.01385
0.53714
0.680173
-1.24985
0.00888625
-0.493965
0.909055
-0.287584
-0.39511
0.189952
-0.409298
-0.0711311
-0.761553
-0.628231
-0.18781
1.00003
-0.50002
-0.175671
0.232826
0.67621
-0.559258
-0.104545
0.887914
0.178333
-0.61862
-0.926418
0.156774
-0.415387
0.277771
0.734089
-0.578701
1.27472
-0.983511
0.508881
-0.327806
0.027791
-0.496682
0.122792
0.265876
-0.623713
-0.415282
-0.21891
1.63272
0.137018
-1.37266
0.975483
0.678057
1.16022
0.200812
1.55437
0.468874
-0.422874
-0.735201
1.09352
0.766176
-0.798687
0.599466
0.639266
-0.153795
-1.08174
0.485949
0.0904177
-0.217371
-0.630185
0.586358
-0.127558
-0.649517
0.597203
-0.633085
-0.66628
0.503725
0.157463
-1.09897
0.906117
0.879278
-0.867011
0.245907
1.25911
-0.923389
-0.66951
-0.125249
1.53185
0.948165
0.47906
-0.366314
-0.902873
0.39801
-0.742424
-0.0683988
0.963749
0.664413
-0.477407
-0.331086
-0.486735
-0.0598116
-0.503368
-0.178021
-0.208947
-0.27612
0.591494
-0.258963
0.868668
0.820138
0.787886
0.458091
0.644818
0.883543
-0.342209
-0.0396808
-0.34643
0.00437274
0.325051
-0.643591
-0.422293
-0.15495
0.67417
0.307466
0.0693695
-0.202623
0.723322
0.0278272
0.629053
-0.796013
0.308044
0.776019
0.201045
0.362603
-0.748886
0.0535069
0.194804
0.423876
-0.542856
0.214641
-0.383385
-0.704985
-0.133537
0.126354
-0.502028
-0.282602
-0.823148
0.687454
0.20607
-0.961341
-0.576839
-0.736314
0.191833
-0.469298
0.924208
0.575403
-0.5643
-0.186656
-0.89576
-0.119397
-0.245512
0.849294
0.981544
0.735845
-0.866459
0.179109
0.383324
-0.211061
0.593939
-0.0774822
-0.620633
-0.154219
0.815778
-0.274195
0.920429
0.276574
-0.593472
0.608886
-0.858532
0.76633
-0.545559
-0.192485
0.712969
0.675254
-0.645909
-0.773824
-0.0650778
-0.435164
-0.144547
-0.756492
0.180512
-0.0480372
-0.0650384
0.266901
1.4118
0.755868
0.580964
-0.125573
0.204274
-0.376617
0.778548
0.270401
-0.596435
-0.248604
-0.717036
0.232249
0.826848
0.220139
-0.417469
0.730739
0.340033
0.688351
0.738461
-0.545225
1.01783
-0.959788
0.0757107
0.82198
-0.350005
-0.339468
0.227799
-0.907682
-1.0017
0.25852
0.178343
-0.750434
0.661075
-0.610349
-0.909092
-0.760499
0.694181
-0.382305
-0.823561
-0.958774
-0.939224
0.987816
-0.396445
0.303438
-0.362656
-0.137442
0.478233
1.02768
-0.0935237
-0.428949
-0.584238
0.672455
-0.9728
0.106062
-1.0398
0.525831
-0.878844
0.368414
0.506535
-0.500361
-0.69971
1.20443
-0.508936
0.0648078
0.795369
-0.0637587
-1.0381
0.365176
0.0958232
0.671588
0.357142
-1.08237
-0.741889
0.636467
0.296804
-0.394192
0.181102
-0.347557
-1.36779
1.13677
0.49895
0.525046
-0.706214
0.357031
-0.115796
0.546085
-0.292599
0.777989
-0.574957
-0.896435
0.849626
-0.737707
-0.81002
-0.528466
-0.0819692
-0.0679508
0.867939
0.349118
-1.08538
0.394148
1.02758
0.576404
-0.277587
0.697227
-0.843006
-0.867432
-0.305364
0.622235
-0.0957044
-0.436467
-0.795877
-0.499313
1.09464
0.261401
-0.887018
0.967865
0.795376
0.783572
-0.574046
0.249968
-0.576424
-1.07743
-0.508644
0.746385
0.426315
-0.441575
0.305776
-0.0928139
-0.883889
-0.883017
0.766551
-0.415398
0.740796
0.681659
-0.191953
0.219944
0.780593
0.490969
1.13619
-0.0589691
-0.442838
-0.322449
-0.444231
0.0592423
1.51311
0.974747
-0.254015
0.126978
0.76574
0.529118
0.111882
-0.962801
0.535241
-0.688514
0.627606
-0.581479
0.310855
-0.29793
0.0963707
0.737344
-0.550276
0.353191
0.341335
1.02731
0.105946
1.08832
0.638082
0.195028
-0.966284
-0.906028
0.975589
-0.746553
-1.00251
-0.314677
0.417149
-0.568194
-1.10272
0.601207
-0.548862
-0.483075
0.26359
0.163888
0.205254
-0.143217
-0.80327
-0.00780785
0.60789
-0.0657076
-1.30151
0.746545
-0.570416
0.668011
0.772188
0.912894
-0.551573
-0.188728
0.935911
0.743739
0.980787
0.302944
-0.650276
1.34104
1.03191
0.490154
-0.0599431
-1.00751
-0.384995
0.845312
0.6131
0.144049
0.361595
-0.577314
-0.067692
-0.248426
0.914937
-1.15594
-0.749354
0.498925
0.468669
-0.679828
0.312073
0.178395
0.97742
1.15408
0.757958
-0.101342
-0.473298
-0.235399
-0.678469
-0.380802
-0.151396
0.685781
0.589584
-0.149031
0.856
-0.0724532
-0.0197538
-0.135328
0.10839
0.842307
0.271068
-0.936499
0.837795
-0.75266
-0.941167
-0.930123
-0.433418
0.364175
0.233996
-0.045571
-0.356035
0.693469
-0.611144
-0.482388
0.190593
0.0149552
-0.274138
0.737487
-0.221474
-0.550419
0.187237
-0.157
-0.10309
-0.482256
0.953578
0.848903
-0.885618
0.0328325
-0.167082
-0.708652
-0.174211
0.622129
0.0668536
-0.791468
-0.296281
-0.676695
0.629609
-0.083156
-0.0709272
-0.931336
0.480935
-0.443616
-0.320892
-0.272666
0.62438
0.203401
0.944696
0.906791
0.444554
0.181087
-0.841459
-0.86036
0.267995
-0.899702
-0.803927
0.64677
0.0104907
-0.0510516
-0.04513
-1.0768
0.393049
-0.340332
0.498937
-0.277439
-0.94729
0.980278
-0.6971
-0.850431
-0.15371
-0.148736
0.145738
-0.17004
-0.114556
-0.543097
-0.398937
0.972901
-0.948535
-0.774219
0.186338
-0.55441
-0.0810877
-0.462312
0.89711
-0.257216
-0.880464
0.207154
0.355018
-0.0578637
-0.208107
-0.430939
0.574494
-0.192462
0.196232
0.336503
-0.397812
0.0855327
-0.939396
0.248355
0.124769
1.07733
-0.905278
-1.00884
-0.631689
1.3002
0.658364
0.557322
0.370518
-0.115733
0.676925
-0.859915
1.41738
-0.335484
-1.0481
-1.31881
-0.473438
-0.360152
0.984123
-0.143753
0.492988
0.721383
-0.608975
1.36627
0.784661
0.669844
-0.052606
-0.453076
1.45485
0.125215
-0.0957243
0.790252
-0.989055
0.463454
0.873186
0.388462
0.478759
0.10429
0.879861
1.18449
0.521281
-0.747105
0.0552843
-0.229008
0.676594
-0.428105
0.724962
0.151915
-0.640548
1.44806
-0.0384837
-1.18227
0.992081
-0.233831
0.559065
0.451998
1.23563
-0.4437
-0.933481
-0.264572
1.17714
-0.676928
-0.551107
-0.682955
0.627841
0.570248
0.599063
-0.282524
-0.182089
-0.664446
-1.14462
-0.315796
0.592064
-0.438516
-0.204604
0.313071
0.492624
0.568262
-0.384009
-0.55911
-0.412551
-1.52816
0.389186
-1.16086
0.276936
0.279465
-0.704526
-0.556263
0.0893456
-0.416322
-0.750367
-0.775779
-0.144126
-0.563012
0.71412
0.129152
-0.930108
-0.994965
0.367549
-0.0112558
0.529663
-0.354767
-1.1342
-1.18423
0.63881
-0.388824
0.934517
0.539919
0.750487
-0.159858
0.651546
-0.403474
0.624782
0.412416
-0.722666
-0.198264
-0.508324
-0.93261
0.706772
0.461376
-0.593271
0.133846
0.757617
-0.772274
0.458429
0.697724
0.0266905
0.510637
-1.00004
0.875033
0.216212
-0.501963
0.625433
0.530896
-0.125902
0.0296342
1.05097
-0.188125
-1.38586
-0.213722
-0.733572
1.25609
-0.286628
0.833118
-1.01123
-1.17572
0.161108
-0.343708
0.69272
-0.204273
-0.608725
-0.405894
-0.800224
0.902695
-0.683268
0.881523
0.990905
1.30561
0.61099
0.644175
0.632609
0.353997
0.149281
1.78856
0.893125
0.736045
-0.0203297
0.334221
0.0279784
0.710716
-0.776562
0.68179
-0.186397
0.713283
0.369052
0.273415
-0.605183
-0.617653
-1.08766
0.852834
-0.490824
0.402057
-0.437049
0.0269008
-0.614616
-0.705607
-0.616771
-0.17661
0.626168
-1.13026
0.779511
0.763051
-0.0238563
0.125657
0.451219
0.285784
0.729204
-0.758869
0.440579
1.00118
0.0664349
-0.71663
0.0826099
-0.983549
0.959458
0.726706
1.06998
0.191733
-0.4619
-0.687197
-0.691781
0.474841
-0.633557
-0.876257
-0.992518
0.719704
0.593011
-0.829405
0.0797999
0.765499
-0.361177
0.879662
-0.495447
-0.535833
-0.0505275
-0.812863
-0.556371
0.238187
0.887227
0.0376979
-0.849901
0.436847
-0.253338
-0.756972
0.39485
-0.191986
-0.467592
-0.754091
0.841709
0.935995
-0.0743455
0.0348733
-0.109397
-0.958312
-0.762861
-0.756382
0.479348
0.962982
0.984072
0.543155
0.226717
0.893617
0.888137
-0.900631
-0.3491
-0.644024
0.283315
0.870447
0.373849
-0.6394
0.241628
-0.966906
0.676911
-0.582047
0.368746
0.0592957
0.897912
-0.692828
0.830149
0.889676
0.751842
-0.200822
0.605077
-0.626114
0.904292
-0.663366
-0.156049
-0.518914
0.574251
-0.260579
-0.172043
0.963112
-1.1377
-0.951312
-1.08408
0.829236
-0.316648
-0.422055
0.25152
-0.622278
-0.968694
0.728157
-0.466806
-0.721122
-0.713008
0.434882
-0.446779
-0.789554
0.618006
0.551551
-0.0773788
0.632417
0.262085
0.355034
-1.01672
-0.183888
0.141349
0.526696
-0.481286
0.975383
-0.285863
-0.960681
-0.499738
1.67718
0.477228
0.133117
-0.122576
0.139238
0.884554
0.219049
0.144505
-0.149502
-0.0374602
0.186405
-0.643749
-0.290384
-0.0736305
0.652995
1.49193
0.319651
-0.326907
-0.294018
-0.374439
1.41047
-0.289617
0.392134
0.0584708
-0.588506
0.754838
-0.197502
0.624676
0.808271
-0.688061
-0.737306
-0.986654
0.348491
-0.324759
-0.251814
-0.75987
0.439547
1.27286
0.310397
-0.549358
0.46371
-0.126154
0.0794452
-0.0144894
0.489604
-0.62472
-0.686096
-1.11805
0.203454
-0.221929
-0.543468
-0.40427
0.0217997
-0.211592
-0.0134004
0.0545979
-0.168298
-0.665976
-0.328804
-0.38623
1.09773
0.0332068
-1.20678
-1.00295
-0.155146
0.0985858
0.483373
0.166851
0.164219
-0.894579
-0.713061
-0.242853
0.622316
-0.740062
0.20772
0.660687
-0.245429
0.677401
-0.819825
1.13136
1.05581
-0.442984
0.817896
0.424367
0.238208
-0.43933
-0.905217
-0.227772
0.939754
0.387037
0.606492
0.882027
-1.35349
-0.665808
0.318705
0.425489
-0.258467
0.138466
-0.69454
-0.399663
-0.0307461
0.78679
-0.856405
0.426925
0.664829
0.235099
-0.270113
-0.607115
0.893511
0.357985
0.162748
-0.696532
0.817445
0.481771
0.705904
0.827541
0.610035
-1.336
-1.52249
1.01781
0.0546682
0.218866
0.381799
0.385276
-0.726225
0.548905
0.268743
0.377536
-0.0617663
-0.962116
0.109348
-0.0274817
-0.303923
0.776916
0.603077
0.235624
0.512351
0.59806
-0.157512
-0.562479
-0.027944
0.180463
1.1188
-0.285513
0.74046
0.507424
-0.699679
0.56216
0.324687
0.636814
1.05643
0.64088
0.467043
-1.18928
-0.029201
1.06797
-0.550469
-0.864568
0.701035
-0.332564
-0.0166608
-0.584495
-0.705902
1.19162
1.00178
-0.963914
-0.658675
0.43396
-0.498711
0.19777
-1.19227
-0.330487
0.443518
-0.115637
0.745337
-0.81446
1.39182
0.388719
0.882569
-0.570674
-0.1504
-0.157059
-0.198586
0.912786
-0.543118
0.363338
0.261814
-0.873282
0.653601
0.33583
-0.633836
0.319061
-0.5494
0.578521
-0.52464
-0.218011
-0.366048
0.963989
0.538828
1.03545
0.142714
0.536463
-0.0395311
0.47784
-0.608099
-0.256758
0.973012
0.0214742
-0.866733
0.547143
-0.305523
0.506883
0.198342
0.226405
0.407648
-0.645526
0.323222
-0.807904
-0.509758
0.0561421
-0.316961
0.721588
-0.826005
0.730867
0.0826551
-0.968522
-0.917235
-0.819925
0.646827
0.0901589
-0.23702
0.60156
-0.553008
0.00614189
-0.580764
0.584679
-0.497328
-0.292236
-0.877186
-0.549994
-0.771171
-0.36802
0.996823
0.46338
-0.704948
-0.403231
-0.437841
0.18856
0.105518
-0.380942
0.893943
0.611424
0.315106
-0.676627
-0.0372305
-0.241513
0.451679
-0.433758
0.917374
0.326635
-1.22533
-0.15379
0.23137
-0.0509718
0.192627
0.156895
-0.372973
0.55404
-0.299771
0.886684
0.77636
0.42116
-1.07387
0.245769
0.828295
0.623799
-0.330734
-0.335382
-0.819356
0.0558465
-0.771738
-0.229647
0.929219
0.539668
0.629808
-0.897272
0.406931
-0.25066
1.23804
0.138888
-0.820585
-0.874084
-0.0693027
-0.223309
-0.277616
-0.161739
-0.878961
0.233433
-0.15885
-0.340062
0.708712
0.354057
-0.0907816
0.550767
-0.0297841
-1.10891
-0.251136
-1.05849
1.62932
0.87646
-0.769349
-0.4332
0.11573
-0.635665
-0.206464
1.09651
0.375662
-0.934482
0.0859457
1.51743
0.174574
-0.33167
-0.538014
0.55054
-0.0426445
0.788681
-0.057245
-0.886352
-1.08011
-0.273216
0.545628
1.05654
-1.04124
0.203824
0.142255
-0.451866
0.458748
0.536862
-0.520834
-0.994929
-0.933588
0.883766
0.562877
-2.0863
-1.25177
0.747286
-0.0725466
-0.260173
0.713275
-0.717284
-2.04369
-0.643678
0.54243
0.164881
-0.877482
-0.82958
0.0449688
-0.0491502
0.0277633
-0.955673
-0.23386
1.23748
0.766787
-1.10833
-0.23626
-1.236
-0.344198
-0.557438
1.26029
-0.527443
-0.699432
0.777091
0.88371
-0.327097
0.237004
0.521541
-0.483849
-0.0488076
-0.294397
-0.335531
-0.0745197
0.993062
0.084827
-0.476345
-0.418947
0.778219
-0.360928
0.238508
0.44801
0.411121
-0.754247
0.903891
-1.23939
-0.947946
0.7946
0.311599
1.20257
1.15862
-0.319872
-0.139515
-0.358352
1.48348
0.186322
-1.04068
0.716616
0.829847
-0.419055
0.698278
0.849307
-0.549932
0.17573
0.272611
1.41359
0.766355
-1.15845
-0.954479
-0.368333
-0.974994
-0.868658
0.601155
0.422511
-0.191545
0.176615
-0.485589
-0.537519
-1.31131
-0.520745
0.94439
-0.198684
-0.609243
0.439411
-0.929015
-0.152024
0.348239
0.116586
-0.684002
-1.24717
0.364713
1.15337
-0.887774
0.282894
-0.107489
0.671362
-0.296532
-0.0396525
-0.990022
0.184799
-0.112061
0.128254
0.513091
-0.100239
-1.06508
0.388532
0.491901
-0.0575832
0.443555
-0.248875
0.0366223
0.135606
0.384374
0.738253
-0.857674
-0.543798
1.02725
-0.903218
-0.0184799
0.827465
-1.78389
-0.73777
0.99606
0.669085
-0.295669
-0.553298
-0.337245
-0.414086
-0.284474
-0.396091
0.243614
0.277957
0.709729
0.373462
-1.18158
-0.137746
0.145261
-0.3202
0.786099
-0.0909252
0.0402295
0.771536
-0.224121
-0.978556
0.595813
0.0982082
0.690401
0.756579
0.284177
-0.0542835
-0.703303
0.415212
-0.251928
-0.267616
-0.639584
0.558523
0.173933
-0.895912
-0.420518
0.425892
-0.220381
0.411235
-0.298203
-0.974883
0.0716666
0.89439
-0.204088
-0.711134
0.0265511
-0.016426
-0.330135
-0.257798
-0.680523
-0.646387
-0.358242
-0.450126
0.807845
-0.234263
-0.276044
-0.641652
0.667778
-0.299286
0.646584
0.494573
-0.984121
0.24694
-0.0344613
-0.743768
-0.555956
0.146366
-0.364352
-0.934685
-0.773685
0.122258
0.157663
0.624399
0.456314
0.0546468
0.169192
0.20536
0.711306
-0.259371
-0.657579
-0.917165
0.669774
-0.146183
-0.883143
-0.890926
0.867914
0.734129
0.310171
-0.532906
-0.108389
0.579779
-0.468656
0.281901
1.28739
-0.38873
0.0140852
0.400009
0.960924
0.986896
-0.244005
-0.378441
-0.363813
0.714188
1.10195
-0.345161
0.620542
0.670355
-0.118403
0.0395976
-0.0162244
-0.254794
0.675182
-0.0324592
0.736348
-0.0927311
0.530253
-0.191955
-0.114457
0.079012
0.231408
0.631854
-0.383103
-0.394588
-0.485511
0.670695
0.645015
0.815591
0.701666
-0.302436
-0.588311
-0.873059
-1.12852
0.374738
0.560196
0.06359
-0.4349
0.0238194
-0.853303
-0.926094
-0.526062
-0.341717
-0.765608
0.0885319
0.723664
0.464961
-0.573918
1.55601
1.48522
0.804702
-1.06164
1.02249
-0.67609
0.491931
-1.14818
-0.817818
-1.04608
-0.850365
-0.335967
0.424089
-0.775194
0.0834843
-0.0123275
-0.641896
0.306059
-1.28217
0.224807
-0.355238
-0.0293197
-0.0617209
-0.256864
-1.15336
0.575117
1.14624
-0.647153
0.513017
-0.89167
-0.809079
-0.533921
-0.0423203
-1.08029
-0.181235
-0.0776266
-0.180935
-0.264043
0.20543
-0.882318
-0.253077
-0.21979
1.08129
-0.685175
0.299389
1.01324
-0.00240678
0.82554
-0.178523
0.520554
0.453659
0.174932
-0.0375572
0.326223
-1.15965
-0.253867
1.39499
0.471706
0.286174
0.999834
-0.730016
0.395948
-0.414144
1.05173
1.07902
-0.897777
0.62317
1.6765
0.92114
0.292462
0.163593
1.0264
-0.109164
-1.22117
0.954851
-1.52037
-0.884376
0.56727
0.985561
1.04448
1.10045
0.99341
1.18491
-0.819253
-1.98073
-0.785466
-0.0600563
0.38341
0.78678
1.94407
-0.543319
-0.948004
-0.934296
1.17033
0.0285342
-0.795988
0.82501
0.138727
-0.458505
1.79694
-0.0349111
-0.128306
0.991377
-0.795723
-0.157956
-0.260461
0.21222
0.418044
-1.13703
0.946481
0.780522
1.36213
-0.17729
-0.144033
-1.97562
1.15967
-0.692596
-0.644444
-0.622076
0.537972
0.931827
-0.275436
-0.903744
-2.26687
0.621818
0.355771
-0.670274
-0.730361
-0.858924
-0.109809
0.296887
0.678308
-0.322332
0.372787
0.132355
0.109861
0.236724
0.398556
-0.990623
0.0883808
0.0186819
1.67895
-0.434921
0.0980606
0.894008
0.530125
0.0717331
0.514306
-0.58546
-0.956298
-0.439705
-0.0713892
1.1414
0.652298
-0.0842706
0.562718
-0.0858131
0.356617
0.584414
-0.0160618
0.941645
-0.376152
-0.0454764
0.865347
0.52106
-0.482677
-0.622938
-0.13133
-1.04315
-0.353945
-0.163384
0.0218692
0.931366
0.510123
0.359222
-0.994084
0.658181
1.16406
1.09796
0.23297
-0.723884
-1.12273
-0.846193
0.831951
0.401432
0.80011
0.814723
0.0331711
-0.392646
-0.422003
0.981895
0.378408
-0.187757
0.259769
-0.370792
-0.495708
0.00913572
-0.289041
-0.532971
0.371377
0.66534
-0.419809
-0.129996
-0.740349
0.32657
0.267717
-0.22078
-0.558406
0.231509
0.0353522
-0.551307
-0.383009
-0.015136
0.236861
0.398924
0.75783
-0.905177
-0.438599
0.326456
-0.924784
0.252832
-0.482634
-0.922078
0.274006
-0.828593
-0.877445
0.644652
0.317791
0.0214874
0.565701
-0.331401
0.273092
-0.80795
0.424034
-0.938696
-0.889295
-0.300389
0.69499
0.682071
0.981353
-0.320198
0.894188
-0.817639
-0.503346
0.2605
0.63926
0.249562
-0.788496
0.431057
-0.940737
0.55647
0.642044
0.122372
0.687832
-0.441158
0.655781
-0.426206
0.908668
0.811152
0.350046
-0.369354
-0.490381
0.768776
0.862327
0.616349
-0.632286
1.09344
0.961271
0.268275
-0.546617
-0.090523
-0.106227
0.809113
0.974466
-0.0697424
0.158022
0.989628
0.289648
-0.168857
-1.04594
-0.512623
0.704389
0.31046
-0.614787
-0.809838
0.18126
0.563317
0.522941
0.194171
0.458986
-0.16466
0.399299
-0.630997
-1.20155
0.732854
0.54665
0.489819
-0.928189
-0.842483
0.76255
0.663659
0.600632
-0.990312
0.433638
-0.639058
-0.31888
0.980756
-0.335826
-0.0111052
0.368576
-0.697592
0.0759332
0.0462539
-1.04983
-0.713723
-0.303661
0.506118
-0.118802
0.607421
-1.30041
-1.18173
0.430897
0.320845
1.53414
-0.947709
0.612979
-0.062571
-0.837459
0.435833
0.527419
0.662332
0.808732
0.323595
0.310371
0.185856
-0.341751
0.11162
-0.810565
-1.07308
-0.0881182
0.620882
0.242952
0.558086
-0.561573
-0.35333
0.0107065
-0.898945
-0.454189
-0.815026
0.774861
-0.137455
-1.00159
-1.20682
-0.965083
-0.299518
-0.91807
-0.529786
0.0294253
-0.91696
-1.4113
0.518087
0.212876
-0.991959
-0.215725
0.876202
-1.29312
-0.107992
-0.174979
-0.875979
0.105261
-1.25723
-0.467663
-0.373325
0.324505
0.779192
-0.553811
1.51892
0.963347
-0.300427
0.549201
0.579002
-1.86885
0.935661
-0.120995
-0.152785
-0.471347
-0.307234
0.213634
-1.13053
0.96525
1.27876
0.051947
-1.06599
-0.721668
-0.8499
-0.599935
1.3707
0.170037
0.0930477
-0.308334
-0.755184
-0.104108
0.231753
-0.317988
-0.284284
0.594308
0.15848
-0.0855084
1.31603
-1.38853
0.420434
-0.0468028
0.514025
0.946049
-0.58095
-1.26145
-0.338214
-0.0486431
1.31333
0.236392
-1.36469
0.389328
-1.3484
1.11877
0.583172
-0.0266972
-0.67418
0.816539
-0.772977
-0.6803
0.241881
-0.943256
-0.931298
0.0830695
0.662097
-0.272898
-0.357061
-1.02485
1.47863
-0.865248
0.7841
0.70103
1.03251
-0.148171
0.139149
0.223179
-0.907829
0.02826
0.731998
1.37981
-0.257295
-0.807837
-0.0562234
-0.0463898
-0.188561
0.988092
-0.36143
0.148706
-0.896834
0.410343
-0.282796
-1.09581
0.346277
0.791744
1.25365
-0.594445
-0.70254
-0.336626
0.4145
-0.0509289
-0.20996
-0.335164
0.252437
-0.997807
-0.322064
-0.725011
-0.414783
-0.313522
-0.692399
-0.853156
-0.500161
-1.21269
-0.579414
-0.00852243
-0.264095
0.911454
-0.270125
1.15118
0.888041
-0.271703
-0.86745
-0.891297
0.746842
-0.26888
-0.405396
-0.619545
-0.00261658
-1.05685
0.953551
0.876165
-1.12169
0.0433664
0.953397
-0.209439
0.625568
-0.951933
0.499162
-0.161134
0.593742
0.874323
-0.709516
-0.927687
0.585233
-0.394595
0.312598
-0.806328
-0.734217
0.869492
-0.428433
-0.856811
0.210816
0.285446
-0.847088
-0.603558
0.60151
0.407057
-0.939411
0.240434
0.913013
0.780881
-0.520399
0.329071
0.00998049
-0.0602915
-0.229432
-0.920986
-0.46705
-0.474004
-0.625942
0.301926
0.990967
-0.20515
-0.952506
-0.476185
0.101364
0.0160891
0.00716625
0.743095
-0.262394
-0.986752
-0.730398
-0.845753
0.363115
-0.533326
-0.594299
0.309709
0.623379
0.519077
0.475949
0.269923
-0.87662
0.478051
-0.893775
-0.853828
-0.323826
-0.17542
-0.078119
0.933527
-0.882552
-0.373248
0.0768329
0.714344
-0.895472
-0.238141
0.78818
-0.946772
-0.551492
-0.745155
-0.641829
-0.188832
0.0413142
0.401121
-0.505638
0.913937
-0.175005
0.0368239
-0.336112
-0.557662
-0.104291
0.975213
-0.475997
-0.444788
-0.0518342
0.340415
-0.132749
-0.722894
0.0721908
-0.107495
0.662678
0.00523162
0.472736
0.332479
-0.0491356
0.688167
-0.322265
-0.186545
-0.839567
0.308227
-0.918722
0.477071
-0.617145
0.698142
0.282153
-0.967041
-0.329064
-0.859978
-1.45286
-0.315503
0.9984
0.36724
0.892906
0.0921621
0.733927
0.861024
0.384757
0.411082
0.503605
-0.469947
-0.427854
0.0206645
0.404741
1.09472
0.13038
-0.69731
-0.292043
-1.08543
-0.363551
-0.227249
-1.05786
0.202709
-0.0397563
-0.280908
-0.909345
-0.255538
0.0158902
-0.126108
-0.984625
0.420166
-0.423695
-0.348544
-0.943795
0.0289364
1.07337
-0.795817
-0.870452
0.395707
-0.0534633
0.910397
-0.0771668
-0.519063
-0.748975
0.322593
0.572303
-0.657876
0.249475
0.895107
-0.352823
-0.896531
0.880092
0.319745
0.316063
-0.494311
-1.39818
0.327824
-1.09837
0.120047
0.59442
-0.62097
0.234832
0.0843598
0.548114
0.592369
-1.63326
-0.419317
0.0355676
-1.02949
0.600563
-1.00754
0.168414
0.982918
-0.360139
-0.058066
0.815232
-1.1341
-0.455658
-1.64693
0.251485
0.421548
0.112985
-0.418896
-0.622089
0.30063
-0.219637
-0.401747
0.919871
-0.663107
-1.17874
-1.1822
-0.684141
-0.468208
-0.113106
-0.817844
0.629297
0.997144
-0.341381
0.219246
0.676922
0.355696
-0.671588
0.19504
-1.44874
-0.319761
-0.0291001
-0.690756
-0.289148
1.33458
-0.722067
-0.47102
-0.530744
0.970343
0.263213
0.139179
-0.368628
-0.182499
-0.570772
0.340683
0.765842
0.552115
0.416523
0.862706
-0.832963
0.810057
-0.546524
-0.919058
0.719505
-0.726836
1.10878
-1.07503
-1.4435
1.01513
-0.350373
0.656668
1.61683
-0.0406812
0.795682
-0.394788
0.415283
1.38929
-1.01356
0.149578
0.773799
-0.550311
0.792248
0.264436
-1.68486
-0.832557
-0.318309
-0.811322
0.298135
-1.18751
-1.11941
0.503384
0.395791
-0.270443
-0.255816
-0.154259
-0.231828
0.631017
0.709564
0.216156
0.643592
-0.671868
-0.309471
-0.77914
0.0664724
0.698128
-1.00841
-0.523409
0.29417
-0.705238
-0.26961
-0.384367
0.227287
0.594353
-0.41574
-0.745681
1.21953
0.140987
0.327446
-0.122062
-0.0502022
1.15383
0.36723
-0.381587
0.760709
0.325532
1.20645
0.349353
-0.881286
0.0857628
-0.992003
0.239519
-0.173297
-0.347083
-0.788573
0.202233
-0.639638
-0.388127
-0.260709
-0.116348
-0.283436
-0.0520368
-0.556507
0.919166
-0.141707
-0.174839
-0.409388
-0.13779
0.865123
0.195943
0.892711
-0.406573
0.187724
-0.163007
0.601294
0.46834
-0.179732
-0.627116
-0.6308
0.25419
0.456421
0.414332
0.598641
0.0841311
-0.82652
-0.024834
-0.157703
0.00346203
-0.304763
0.48699
-0.24959
-0.155898
0.909101
0.586506
-0.0542906
0.00249521
-0.263352
0.0800336
-0.207075
-0.143053
-0.276151
0.93139
-0.622789
0.577638
0.769941
0.419411
0.618841
0.320491
-0.569882
-0.578384
-0.253943
-0.281893
0.0799171
0.74608
-0.737117
0.727079
-0.844592
0.318873
0.0181675
-0.136812
-0.00807588
0.513581
-0.800919
-0.876364
0.158701
-0.0337113
0.17269
0.603409
0.868937
-0.35365
0.0350258
-0.188242
-0.818282
-0.0324779
-0.052702
-0.922904
0.311813
-0.299438
-0.913626
0.111515
-0.210525
0.2769
-0.233135
0.736542
-0.306697
-0.217862
-0.549647
-0.805858
-0.0867576
0.663894
1.05673
-0.537402
-0.774416
-1.32974
0.233067
-0.67647
0.220457
1.28481
0.562976
-0.0745981
-0.587383
-0.463803
0.720002
-0.944308
-1.14929
-0.327571
-0.285558
-1.1809
0.0571143
0.115827
0.0119099
-0.957551
-0.0619955
0.953091
0.124591
-0.833412
0.178251
-1.03048
-0.56149
1.09973
-0.945406
-0.151356
-0.199287
0.776424
0.702347
-0.439344
0.118929
-0.10636
-0.370529
-0.672881
0.477984
-0.445386
-0.414096
0.924357
0.212987
-0.558747
-0.0310184
-1.10084
-0.496037
0.0460706
-0.766932
0.902702
-0.706576
-0.16065
0.452173
-0.0211484
1.30106
-0.147456
-0.0281772
-0.494796
0.161809
-0.543653
0.0990796
-0.923051
-0.656923
-0.333283
0.110826
1.30674
0.667569
-0.200436
-0.0229286
0.312984
-0.249583
0.144428
-0.00972469
0.540532
-1.52937
0.854119
1.48286
0.0226541
-1.13616
-1.0705
-0.773964
-0.495928
-0.457092
-0.470099
-0.549465
-1.33891
0.793022
1.01536
0.746233
-0.760272
-0.351946
-1.1691
0.95479
-0.161371
-0.790944
-0.883171
-0.80302
-0.092755
0.316554
-0.0258397
-0.543158
0.72873
-0.282552
0.203417
-1.58237
-0.805351
-0.277737
-0.189144
-0.39212
0.649902
1.23762
-0.984284
0.178719
-0.618015
1.23927
0.311619
0.838761
-0.644824
-0.858411
0.760573
-0.354462
-0.533653
0.0339117
0.916638
1.27652
0.855462
-1.22043
0.485167
0.862063
-0.539124
0.553151
0.777956
-1.16982
-0.452391
0.409825
0.556694
-0.598436
1.27413
-0.083183
0.591475
-0.697077
-0.803175
-0.703999
0.115659
-0.659709
-0.693905
0.47103
0.204351
0.291849
-0.128445
-0.499162
-1.51409
0.45523
0.301214
-0.0564287
0.18268
0.806091
0.290822
-0.472843
0.0815913
-0.340387
-0.424381
-1.33838
0.42991
-0.693229
-0.531539
-0.0137915
-0.348316
0.595696
-0.355953
0.711157
-0.55959
-0.510876
-0.33404
-0.456294
0.258293
-0.524306
-0.00539754
0.530468
-1.2851
-0.0122378
-0.513252
0.346985
-0.313667
-0.718383
0.392627
-0.477439
-0.195101
-1.08153
0.937756
-1.3179
1.10262
0.851313
-1.15166
0.254042
0.800608
-0.403711
0.0884881
-0.757588
0.72066
0.575027
-0.550253
0.803275
0.69303
0.824227
0.836246
0.566549
-0.134539
-0.928047
0.813695
1.04127
-0.480339
-0.0129881
0.266188
-0.577047
0.744002
0.334918
0.0256359
-0.768496
-0.482386
-0.63313
-0.950135
-0.668085
0.139091
0.0341679
-0.0802091
0.420704
-0.0905036
0.879333
-0.573779
-0.73446
0.725875
-0.603429
0.779227
-0.939202
0.0139124
0.268932
0.198778
-0.860036
-0.702913
0.791181
0.906871
-0.817262
0.851978
0.145638
-0.577618
-0.797348
-0.773478
0.70182
0.81976
0.53205
-0.255348
-0.696944
0.0203458
0.588726
-0.631895
-0.117413
-0.657695
0.668549
-0.0391721
-0.0130037
0.365731
-0.735264
0.955111
0.273526
0.311871
-0.0746067
0.623234
-0.0699527
-0.681959
0.62434
0.321233
0.014969
0.35205
1.08356
-0.603043
-0.509513
-1.1945
-0.649503
-0.362894
0.83945
0.0830182
0.313646
0.35498
0.318044
-0.19442
-0.956346
0.172937
-0.583144
-0.54394
0.297854
0.323264
-0.755765
0.961924
0.134305
-0.816373
-0.54431
0.816445
-0.0047625
0.752563
0.588861
0.26312
0.908344
-0.890758
-0.167533
0.183196
0.187011
1.59448
0.520952
-0.368817
0.558015
1.36048
0.460034
0.310748
-0.884004
-0.143219
0.603177
0.879646
0.182099
-1.19629
-0.640661
0.656349
-0.358002
-0.465509
0.942301
0.413935
0.347948
-0.292945
-0.118825
1.25763
-0.110201
-0.0142389
-0.916293
0.467259
-0.459164
1.26496
-0.54079
-0.874005
-0.479016
0.307359
-0.411139
-0.886576
-0.809735
0.09378
0.4457
0.779452
1.42677
0.622774
0.991698
-0.673404
-0.668701
-0.923885
-0.340391
-1.23679
0.305032
0.899964
-0.438214
0.171586
-0.374487
-0.942569
-0.984931
0.370107
-0.362825
0.0403095
-0.908838
-0.773138
0.294105
0.196162
0.284899
-0.574245
-0.581565
-0.922798
0.786777
1.03555
0.217788
-0.867384
-1.4048
-0.584266
0.490794
-0.45474
0.421543
-0.104045
-1.26771
0.932264
2.11356
1.33767
-1.59104
-1.39137
0.256531
0.0293203
-0.195489
0.835246
0.247111
-0.211775
0.825948
-0.329792
-0.456728
-1.23914
0.372845
-0.956385
-0.934145
0.836245
-0.744643
-0.850623
-0.213449
-1.10829
-0.578367
0.292037
0.941152
-0.312466
0.15993
0.463739
0.720847
0.461704
0.238003
-1.37956
-0.0507257
-0.541957
0.65249
-0.0598732
0.0660777
-0.567515
0.388868
0.964206
0.389311
-0.755034
-0.984416
0.340984
0.110055
0.480982
0.398076
0.747201
-0.589955
-0.420831
0.26166
-1.06761
0.780963
-0.842607
-0.540147
0.263093
-0.270811
-1.34586
1.37017
-0.838729
0.893209
0.907308
0.413256
-0.747291
-0.424715
0.553776
-0.289343
0.373119
-0.692592
-0.595609
-0.195775
0.823027
-0.0172577
0.0204976
-0.465564
-1.46649
-0.749252
-0.774928
0.799287
-0.708609
0.300196
-0.636847
0.541527
0.392598
-1.13023
0.731909
-0.360935
-0.711061
0.350888
0.265777
-0.54126
0.26374
0.0550635
-0.279824
-0.696953
-0.593997
0.895977
-0.0111535
-0.143041
1.00933
1.00635
-1.14796
-0.102612
0.148068
0.86426
0.264311
-0.708009
0.802795
0.356919
-0.507633
0.0153394
0.263939
-0.822498
-0.426323
-0.232554
0.675357
-0.104486
0.0728641
-0.815756
-0.720225
0.791713
0.865364
-0.490091
-0.0544717
0.742388
-0.998568
-0.534674
-0.390024
-0.315755
-0.249135
-0.143915
0.220012
0.401069
0.584303
0.00233617
-0.133162
0.406396
1.19378
1.03161
-0.664118
0.424461
-0.828336
0.709783
-0.394652
-0.520793
0.155591
0.0790081
0.062413
0.750947
0.821998
-0.00968404
0.862611
0.158391
-0.0277535
0.0270883
0.7126
-0.536215
0.813449
-0.641244
-0.316915
0.498551
0.0185216
0.989859
0.161889
-0.490713
0.346681
-0.417841
0.64511
-0.851421
0.926568
0.341179
0.28198
-0.818234
0.266026
-0.203339
0.984238
0.791704
0.544482
-0.925828
-0.469909
-0.370966
0.981294
0.958582
0.99096
0.3808
-0.443182
-0.177876
0.875661
-0.451688
0.331833
-0.295922
0.97611
-0.838775
-0.972072
-0.331874
0.401304
0.352861
-0.783368
1.09298
0.0630502
-0.40437
-0.718648
-0.784049
0.296825
0.515958
0.895528
0.939803
0.517973
0.53729
0.056825
0.164595
-0.311529
-0.853182
1.23634
-0.971839
-0.0127445
1.05997
0.629314
-0.714532
0.216653
-0.588534
0.827198
0.159576
-0.37704
-0.898991
0.575967
0.856807
-0.725131
-0.92214
0.244022
0.17333
0.486694
0.326909
-0.937583
-0.0139967
0.259948
-0.337637
-0.277625
0.917799
-0.319344
-0.614124
0.742276
-0.266949
0.297327
-0.688007
-0.692008
-0.94819
0.26674
1.18084
0.341908
-0.598444
0.403604
-0.434964
1.04005
-0.0176262
-0.449962
-0.353344
-0.170008
-0.994554
-0.193536
0.467003
-0.577936
0.492964
-0.145729
0.25133
0.300799
-0.237161
-0.964705
0.742655
0.4602
0.945062
0.621341
-0.555806
0.059318
0.473924
-0.204094
-0.0406772
-0.227209
-1.19191
1.49781
-1.14724
-0.162811
-0.522274
-0.780572
-0.141532
-0.504784
0.497567
-0.703402
-1.24062
-0.900915
-0.544004
0.0471655
-0.896935
-0.114075
-0.224359
-0.500906
0.0458904
-0.236638
1.09839
0.327449
-1.41647
-0.865066
-0.0203954
-0.681073
1.1567
-0.593545
-0.779082
0.219829
1.59705
0.960754
0.422752
-1.39195
-0.892712
0.587763
-0.670997
0.470588
0.64931
-0.449522
0.250309
-0.626394
0.225018
0.606102
-0.609753
-0.463049
0.491009
0.563897
0.874159
-0.21977
-0.992491
-0.508235
0.102808
0.672765
-0.257504
0.592214
-0.284743
-0.295791
0.211735
0.161281
-0.0262901
-0.788771
-0.294567
0.624739
-0.683256
-0.0676514
-1.03438
-0.257016
-0.208165
0.551117
0.87697
0.859931
-0.193625
0.770403
0.76015
0.67218
0.975615
-0.527594
0.380525
0.827866
0.188333
0.876969
0.768356
0.444222
-0.413059
0.962111
-1.15859
0.407846
-0.499821
0.96513
0.0662426
0.757176
-1.0561
0.36611
0.00865143
0.500694
-0.165702
-0.681637
-1.31346
-0.758897
0.642894
0.453146
-0.584344
0.47815
0.828238
0.594165
-0.107832
0.498659
-0.902654
-0.00408569
-0.563973
0.445172
0.0339919
0.384856
-0.362202
-0.338631
-0.636881
-0.333521
-0.59538
0.672237
0.211208
0.54785
1.00467
0.258148
1.06538
-0.680157
0.481798
0.708128
-0.0491492
1.00223
0.268367
-0.0885268
-0.424037
0.830931
8.682e-05
0.0146129
-1.01396
-0.925295
-0.14794
0.0150388
0.957565
0.661757
-0.242506
-0.470332
0.207979
1.03879
0.480805
-0.213873
0.706941
-0.136905
-0.268095
0.855871
-0.0106857
-0.157368
0.156098
-0.802516
0.867393
0.0673805
0.576471
0.594873
-0.416877
0.963554
-0.499991
-0.889256
0.698422
0.188974
0.160927
-0.928027
0.920364
-0.991418
0.545244
0.861565
-0.473739
-0.717341
0.97882
-0.0627973
-0.126203
-0.520341
-0.215589
0.209222
-0.878464
0.180789
-0.6018
0.81875
-0.0450889
-0.0196083
-0.634261
0.642796
-0.954598
0.39077
0.261298
-0.00383953
0.936878
0.882806
0.5615
-0.0275651
0.0688543
0.471512
0.966717
0.23199
-0.620845
-0.959487
0.253993
-0.235351
0.893684
0.387075
0.845898
0.990371
0.00469255
-0.341628
-0.383627
-0.670121
-0.761088
-0.0799323
-0.150457
0.542659
-0.34459
0.309648
0.758852
-0.0277974
0.704669
0.812853
0.609954
0.487396
0.268639
-0.97732
-0.363424
-0.62819
0.362673
-0.656284
-0.344578
0.269477
0.424707
-0.960319
0.450992
0.156424
0.807855
0.773836
-0.0461825
-0.248191
-0.485931
0.514367
-0.976565
0.723791
0.126201
0.183909
0.681649
-0.33017
0.491603
0.1043
1.62838
-1.38161
-1.48112
0.160965
0.734105
-0.176753
1.03076
0.109808
0.854041
0.0196912
0.24496
1.59355
-1.03687
0.0806585
-0.171196
0.0570403
0.747783
0.0753061
0.73449
0.075182
0.0310289
-0.34646
0.140947
0.319027
0.0884065
-1.16979
0.110414
0.382805
-0.19818
0.975086
-0.0424858
0.187413
0.184938
1.15808
-1.18109
-0.731689
0.85999
1.39415
-0.578014
0.138077
1.20871
-0.0553305
1.31685
-0.948959
0.463911
0.718521
-0.371229
-0.0444033
0.201218
0.463764
0.34796
0.0734593
-0.204929
-0.52844
-0.0655053
0.225023
-0.880111
-0.134938
-1.01889
1.4658
-0.333564
0.886602
0.0435832
0.0470224
-0.552407
0.130626
-0.911087
-0.425922
-1.30785
-1.07964
-0.0540565
-1.14516
0.155441
-0.166394
0.873616
-0.826346
0.572256
-0.212444
0.482102
-1.43768
-0.147776
0.22181
-0.481344
0.846332
0.285265
-0.60253
0.131933
0.538186
1.29621
-0.474601
1.06746
-0.286799
0.627594
-0.524232
0.905018
0.530085
-0.923798
-0.30621
0.581409
-0.0208698
0.83595
0.104924
0.426133
-0.505117
-0.982203
-0.515785
0.599107
0.472836
0.934592
-0.46342
-0.907241
0.15579
0.185678
0.0989613
1.34736
-0.551768
-0.425787
0.0259946
-0.396916
-0.557017
0.956482
1.62687
-0.878459
-1.64052
0.572733
1.40263
0.176736
-0.342135
-0.952986
0.687302
1.27319
0.0792971
-0.970401
-0.576802
0.191422
0.407226
0.307558
-0.218276
-0.107724
-0.731299
-0.544627
0.839915
0.466819
0.980464
-0.827712
-1.47284
0.959575
0.418324
-0.155924
0.995907
-0.928443
-0.0355921
-0.695774
0.513377
-0.103358
-1.07867
0.50475
1.01307
-0.755848
0.837256
0.13066
0.503136
0.878096
-0.203052
-0.0685384
0.838142
-0.563783
-0.74849
-0.304088
0.522567
0.204187
-0.407293
0.963935
0.832909
0.146042
0.172513
-0.43643
0.0356542
0.22725
-0.240311
0.748327
0.50221
0.121815
0.75679
0.416406
0.450365
0.628844
0.0289074
-0.862991
-0.0830762
0.563501
0.41889
-0.538024
0.786345
0.410044
0.111498
-0.833613
-0.0919333
0.43381
-0.490271
0.452726
0.277875
0.152577
-0.606259
0.39357
-0.563081
-0.0596632
-0.690682
0.285417
-0.240701
0.909323
1.02579
0.824343
-0.415235
-0.842487
-1.02527
0.116979
0.566238
-0.880677
0.696813
0.273002
0.730541
-0.0530098
-0.484314
-0.962789
-0.941253
0.34
-0.969219
-0.825443
0.615904
-0.559037
-0.897609
-0.608595
0.261122
-0.196094
0.818803
0.00836214
-0.12484
0.108229
0.0438721
-0.412665
0.0501775
0.375293
0.632766
-0.0178942
-0.358093
-0.793636
0.175281
-0.932054
0.207397
0.879743
0.82725
0.858979
-0.754864
0.00847582
0.381249
0.941937
0.513789
0.0588209
0.573559
-0.56959
-0.289056
-0.807552
-0.523869
0.385471
-0.73725
0.666431
0.0425285
-0.175822
0.223782
-0.79169
0.887341
0.0659092
-0.0483653
0.402453
0.0403089
-0.166174
-0.76493
0.284292
0.879695
0.373337
0.532142
-0.598782
0.863542
-0.840357
0.901952
0.187892
0.362805
-0.400615
-0.697409
-0.36572
0.667802
-0.174187
0.678409
0.899194
-0.331877
0.902961
-0.712066
-0.438079
-0.0188633
0.122416
0.9534
0.737493
0.0491127
0.162089
0.758099
-0.467674
0.652209
0.147192
0.44977
0.736154
0.375104
0.118195
-1.03878
-0.852304
0.409587
0.787186
-0.507266
0.645806
-0.0662107
-0.442692
-0.280221
0.0336118
0.491432
-0.965003
-0.805638
-0.230643
0.610772
-0.835225
-0.52213
0.693837
-0.171476
-0.371555
-0.0618018
-0.869968
0.0113815
0.833382
1.21484
0.210902
0.389947
-0.96905
-0.334329
0.884082
-0.842197
0.287537
1.06045
0.425235
0.40289
0.562142
0.245096
0.047306
-0.142992
-0.987323
-0.259383
0.983631
-0.742059
0.412673
-1.27606
-0.785003
1.1753
0.19334
-1.0001
-0.839156
1.6829
0.731538
-0.363608
-1.63515
1.92585
-1.63923
-0.0259221
-0.886042
0.091275
-0.498474
0.395556
1.01011
-0.565256
-1.79154
-0.942574
-0.0469908
-1.72045
2.36211
-0.886031
-0.223879
0.583041
0.344267
-0.365659
0.217503
-2.10973
-0.422495
-0.507191
-0.373092
0.850361
1.10348
0.666873
0.251519
-0.34
0.738979
0.653977
-0.561416
-0.557734
0.946825
-1.30505
-0.0100962
-0.736537
0.557089
1.02134
-0.00584246
-1.63672
-0.848802
-0.244137
-0.531838
0.343155
-0.357216
-0.843123
0.599137
-0.797917
0.0816865
0.831294
-0.309061
0.546442
-0.559872
0.974512
0.403781
-0.907335
-1.06264
-0.324532
-0.0032137
0.611659
0.0467107
0.573843
0.399208
-1.17462
0.0881155
0.319791
-0.116249
-0.309769
0.376251
0.0319664
0.28701
0.675329
0.260597
-0.120355
-0.100272
-0.550471
0.982969
-0.350096
0.209025
0.0170518
0.572482
0.148041
-0.0786751
-0.647034
-0.97614
-0.20586
0.270393
0.681579
1.38637
0.361724
0.637812
0.323314
0.7716
-0.108786
0.474855
-0.35747
-0.648111
0.985883
-0.939912
0.265782
-0.530435
-0.0233254
-0.92891
-0.104116
0.532228
0.699081
-0.62234
0.582939
0.659093
0.772306
0.0734265
0.505063
-0.167405
0.0620935
0.146242
0.135629
1.02261
-1.01795
-1.15455
-0.129202
-1.07115
0.754321
1.04862
-0.285195
0.92243
0.589099
0.65696
0.133718
0.585987
0.110752
0.643645
0.311855
-0.885401
0.977139
-0.755707
0.0203736
1.03958
-0.568734
0.96425
0.778139
0.886959
0.179794
0.674374
0.462612
0.280877
0.27
0.9734
0.971667
-0.875978
-0.397398
-0.470512
0.161946
0.892496
0.521126
0.0354278
-0.553403
0.940738
-0.333355
-0.731508
0.81403
-0.719695
-0.988597
0.390274
0.420282
0.636056
-0.634756
0.942277
-0.0895719
0.505624
0.7231
-0.567473
-0.595382
0.201502
-0.791331
0.401362
0.267912
-0.252431
-0.740868
-0.0639663
0.908346
0.505452
-0.0447616
-0.332873
0.957321
-0.674575
-0.723617
0.774387
0.743261
0.844535
0.636225
0.839216
-0.295696
0.160754
0.373296
0.289568
0.0444669
0.952675
0.536717
0.918092
0.153784
0.0760358
-0.0162531
0.644478
-0.548983
0.292666
0.230712
0.35226
0.0606221
-0.333178
-0.565043
-0.22354
0.480697
-0.533601
0.948911
0.909496
-0.254076
-0.71955
0.452616
0.251498
0.04672
0.346616
-0.816361
0.755883
-0.66474
0.268241
0.495878
0.224045
0.415816
-0.748274
-0.700748
-0.4501
0.249282
-0.592362
-1.04763
-0.477339
-0.735299
0.200066
1.40624
-0.245186
-0.73877
0.0296242
0.566844
-0.014285
0.352999
-1.25397
0.537929
-0.411707
0.696493
-0.112168
-0.362414
-0.835424
-0.986932
0.205708
-0.793379
0.161654
-0.00322459
-0.0366311
-0.84715
0.537982
0.223886
-0.354424
0.0843748
0.135177
-0.777899
0.684722
-0.6864
-0.652246
-0.821101
-0.433844
-0.920647
-0.306908
0.38105
-0.173928
0.57337
0.151016
-0.769882
-1.25195
0.44262
0.146272
-1.53095
0.0672038
1.14005
0.831937
-0.0238762
0.431928
-1.61919
-1.33546
-0.349844
1.07161
0.114636
-0.814265
-0.238093
1.0605
0.929725
-0.511587
-0.366824
-0.95839
-0.656398
-1.34809
0.304925
-0.928628
0.287081
-1.07664
-0.183474
0.209695
0.534012
0.0270819
-0.104218
-0.562158
-0.866763
1.20702
0.347712
0.469554
-1.34007
-0.401649
0.438677
-1.08513
-0.275717
0.742005
-1.58348
-0.292293
0.375654
-0.825294
0.788647
-1.32837
1.24736
-0.880479
-0.812328
-0.927317
-0.26121
-1.07258
1.02203
0.428187
-0.0231533
0.278726
-0.194408
1.11989
0.974984
0.0351629
-1.49901
0.856485
-0.923216
-0.637109
1.01977
0.767384
0.879329
-0.0990695
-0.572229
-0.4956
0.263949
-0.354589
0.33519
0.336009
-0.568761
0.0743206
0.464838
1.09943
0.625339
-0.614489
-0.460982
-0.00705204
-0.464384
0.71791
0.315944
-1.05371
0.83921
-0.528324
1.63311
-0.235096
0.271648
-0.131815
-1.73323
-1.3274
1.70721
-0.559495
-0.462137
-0.522274
-0.565676
-0.628701
-1.13786
-0.154532
-0.543012
-0.559614
-0.534725
-0.0455386
-0.412598
-2.0971
1.56872
0.470019
-0.290761
-0.243057
0.26914
-0.0872381
0.191867
-0.569978
-0.082557
-0.349162
-0.382095
-0.049329
0.557735
-0.424922
-1.11723
0.293636
0.211674
0.618726
-0.295043
0.434384
-0.372617
-0.100395
-0.0553823
0.126564
-0.462093
-0.259213
-0.327102
-0.127468
0.291177
0.602072
-1.43851
0.678986
-0.168981
0.11997
-0.396306
-0.281899
-0.517049
0.864565
0.880284
0.492173
-0.506773
-0.114919
0.321
-0.305967
0.520671
0.1458
0.00258019
0.82518
-0.692122
-0.212042
0.587331
-0.0525431
0.869224
0.0679073
-0.260874
-0.929728
0.40928
-0.753912
-0.298091
0.890963
0.809247
0.665235
0.239378
0.765231
-0.401677
-0.0902673
0.632081
-0.294892
-0.6722
-1.05791
-0.0347013
0.488911
1.06218
-0.617188
-0.453043
0.703148
-0.785568
0.650762
-0.878855
0.82996
0.66778
-0.811718
0.196093
1.03576
0.315748
-0.383193
-0.43197
0.824152
0.377334
-0.754282
-0.552048
0.868434
-0.428231
0.787869
-0.675872
0.675754
-0.386336
0.730352
-0.719661
-0.463404
-0.840948
-0.230477
-0.26268
0.554033
-0.768378
-0.13266
0.325519
-0.306006
-0.389976
-0.57241
-0.836091
0.825433
-0.823607
0.0725475
0.106233
0.747343
-0.0605578
0.264472
0.331917
-0.082535
0.868691
-0.660241
-0.511429
0.404172
-0.87891
0.197594
0.531159
-0.197231
0.441932
0.0970602
0.613223
-0.707168
0.705087
-0.405283
-0.974724
-0.132945
0.4316
0.759968
0.312085
0.12105
-0.787666
0.0563089
-0.921214
-0.869236
0.452921
-0.173545
-0.594067
0.242624
0.541914
-0.0933058
-0.505112
0.150625
-0.292241
-0.553838
-0.287664
-0.703339
-0.561879
0.834287
-0.0987182
1.07587
-1.38953
-1.32254
0.623567
-0.255772
-0.88157
0.307783
-0.955158
-0.261994
0.025223
-0.373851
-0.363588
0.120263
-0.935737
0.231597
0.343464
0.510466
-0.549111
-0.846742
0.136728
-0.496882
0.743751
-0.637514
-0.129205
1.04779
0.258536
0.544829
-0.299944
0.830965
0.499586
-1.24734
-0.539454
1.41703
-0.333191
0.182933
0.00604987
0.0174379
0.533095
-1.39387
-0.37254
0.997664
-1.52958
-0.510612
0.207724
-0.629263
0.313695
0.352481
0.581696
-0.591696
-0.809411
0.591677
0.0670158
-0.0466875
-0.724594
-0.0221113
0.0734807
1.16834
-0.370283
-1.03705
0.288365
-0.976849
1.30601
-0.941886
0.367961
-0.101597
1.05683
0.207979
1.14545
-0.106944
-0.428122
-0.912142
-1.3433
0.0343228
-0.358212
-0.561611
-0.39662
1.24316
-0.697639
0.59228
-0.286179
-0.11008
0.397659
-0.276635
-0.742515
0.595593
0.711599
-0.253731
0.64772
-0.110366
0.738154
0.14706
0.792312
-1.21001
0.274357
0.258653
0.756147
-0.561542
-0.255545
-0.363267
0.276405
0.0347987
0.523707
-1.21163
-0.601124
0.201509
0.0476553
0.120728
-0.55471
-0.689675
-0.0225096
0.420755
0.026339
0.174178
-0.892008
-1.07716
0.715572
-0.237502
0.315498
0.151734
-0.435331
-0.0269184
0.155688
0.141393
-0.447945
-0.927506
-0.777648
0.554706
0.503933
-0.230031
-0.449164
-0.376864
0.516618
0.978774
-1.41548
-0.344144
1.47295
-0.162088
-0.663844
-0.544589
0.627222
-0.272608
-0.250415
0.200162
0.0756914
-0.697484
-0.751687
-0.222135
-0.39334
-0.147922
-0.117447
-0.388128
0.218538
-0.0563644
0.981924
0.734926
0.0731426
0.0944584
-1.00241
1.26925
-0.935787
-0.290242
0.124684
0.319228
-0.14342
0.577568
-0.368974
0.269693
-0.973606
-0.719609
-0.420562
-0.769884
0.72316
0.631367
0.555262
-0.237024
0.305885
-0.318767
-0.178292
-1.54272
-1.11477
-0.152031
-0.0880794
0.525294
0.291849
-0.463584
0.457264
1.00258
0.317542
-0.287104
-0.595785
-0.0365592
-0.920682
-1.27815
0.19168
0.734464
0.510603
0.193939
0.913981
0.530666
-0.941881
-0.910045
0.383715
0.251527
-0.564167
0.194398
0.645637
-0.143683
-0.231662
0.214402
0.0891391
0.308815
0.737107
-0.376114
0.902767
-0.784669
-0.212054
0.97147
0.272012
-0.301504
0.343721
0.32112
0.141294
-0.72629
-0.91181
0.749452
-0.244084
-0.971385
-0.589857
-0.24422
-0.319321
-0.711556
0.84984
-0.90153
-0.800623
0.992548
-0.210619
0.47671
0.86752
-0.902528
0.940857
-0.786281
-0.731243
-0.0636826
0.512021
0.429673
-0.656199
-0.495487
0.137664
0.330402
-0.336255
-0.860666
-0.770912
0.350815
0.0970547
-0.151173
0.763131
-0.843126
0.576881
0.762129
0.607227
-0.279788
-0.982773
-0.950482
-0.0475892
0.900593
-0.549702
-0.558654
-0.374281
-0.96662
0.127177
-0.943553
-0.241297
-0.890527
-0.161286
0.438474
-0.493651
0.349
0.239014
0.933196
-0.40931
-0.304123
-0.862869
0.36349
0.2847
0.966762
-0.6325
-0.264159
-0.887757
0.342861
-0.0346241
-0.667972
0.23501
-0.703493
0.785619
0.398529
-0.488365
0.137049
0.14891
-0.190063
-1.07238
-0.224608
-0.854108
-0.213213
-0.437943
0.92181
-0.58692
0.602587
1.45206
0.13319
-0.718141
0.406999
0.168034
-0.123419
0.767991
-1.0972
0.792276
-0.215461
-0.793404
1.11081
1.09325
-0.754078
0.512153
-0.0468285
-0.722484
0.475281
-0.970431
0.460613
-1.06314
-0.816587
0.306808
0.955299
0.641112
-0.0682748
0.396949
0.756956
-0.778939
-0.733808
0.223827
0.56336
-0.19812
0.687795
-0.65741
0.883437
-0.755617
0.00632896
0.685493
0.592882
-0.816404
-0.950763
-0.80836
-0.186845
0.482366
0.210593
-0.566263
0.471201
0.138817
-1.04654
-0.370221
0.865824
0.791661
-1.4431
-0.992939
0.670392
0.902717
1.34284
1.15799
-0.38864
-0.113914
-1.08124
0.701182
-0.605465
-0.608061
-0.221934
0.254439
0.357693
-0.291351
-0.512307
0.207465
-0.621311
-0.876705
-0.159932
-0.761601
0.688374
-0.44673
0.95009
-0.733498
0.0421668
-0.345879
-0.244392
-0.131808
-0.145271
-0.582891
-0.911649
-0.638053
-0.621396
0.77362
-0.383313
0.337481
-0.421419
-0.0943091
-0.213309
-0.257071
0.175654
0.0646892
0.60168
-0.737579
0.348169
-0.385036
-1.18605
-0.407439
-0.0177746
-1.04618
1.09154
0.712399
0.721487
-0.191362
0.202248
0.560864
0.16808
1.20183
-0.359153
-0.0510672
-1.3301
-0.91318
0.86521
-0.748453
-0.120037
-0.925697
-0.735416
0.442903
-0.154609
-0.50658
0.574021
-0.408886
-0.949188
-0.00546171
-0.749997
0.842885
0.87152
-0.00460918
-0.141915
-0.626244
0.245819
-0.011485
0.221108
0.248575
-0.439483
-0.713625
0.877743
-0.471931
0.196156
-0.205588
1.01765
-0.438483
-0.941894
0.384485
-1.33434
-1.02882
0.183157
0.0976357
-0.571452
1.27666
-0.486149
0.584382
-1.1156
-0.846717
0.834822
-1.50599
-0.0863251
0.483162
0.205727
0.559366
0.0103377
0.577689
0.549901
-1.35799
-1.31429
0.987249
-0.791194
0.317539
-0.593498
-0.949531
-1.05934
0.424577
-0.214877
-0.193697
0.276017
-1.29542
-1.03002
0.0585206
-0.300178
-0.945749
0.480728
0.155105
-0.402913
0.387586
-0.565336
0.0851593
0.355806
-1.07688
-1.21163
0.855532
-0.768576
0.0494071
-0.296877
0.659632
1.25906
-1.18126
-0.311096
-0.338674
0.450246
-0.782908
1.14913
0.182334
-0.677298
0.60743
-0.0319099
0.355305
-0.878209
0.826319
0.26577
0.368719
-0.594686
0.228184
-0.801959
0.595465
-0.603079
0.764135
0.989973
-0.93978
-0.836843
-0.199323
0.285013
0.857756
0.0370969
-0.607855
0.888987
-0.22599
-0.264714
0.574464
0.857084
0.622134
0.459929
0.766586
0.717336
-0.349452
-0.669343
0.377492
0.321928
0.750165
-0.561941
0.0137227
-0.982881
0.599419
0.279318
-0.569743
-0.883174
-0.467966
-0.190717
0.0236047
-0.369485
-0.300742
0.323356
0.753371
-0.554365
-0.84926
0.527308
0.69484
-0.821446
0.11468
-0.666876
-0.385553
-0.669681
0.879462
0.357992
-0.0180933
0.386062
0.148862
-0.465638
-0.411806
0.855244
-0.207195
0.655133
-0.618373
-0.602272
0.0313238
-0.529408
0.271295
0.940871
-0.44174
0.595228
0.046568
0.930202
-0.524691
0.1539
-0.94205
-0.689974
-0.149526
0.579593
0.589686
0.680268
-0.595117
-0.431461
-0.235692
0.185908
-0.388333
-0.31526
-0.0235853
-0.202714
0.120012
0.845052
-0.644752
-0.899523
0.32345
0.507278
0.734386
-0.977695
0.0587563
-0.26332
0.476698
0.04265
-0.333199
0.203662
0.325635
0.0873888
-0.893701
0.565558
-1.13872
-0.934237
0.584784
0.63759
0.774261
-0.0110699
0.65866
-0.249386
-0.790476
0.99186
-0.535966
-0.904295
0.130079
0.218679
0.545948
-0.857044
0.803074
-0.629755
0.170583
-0.144211
0.765147
-0.28048
-0.46229
-0.231721
0.385585
-0.803302
-0.61025
-0.967414
1.01504
0.73798
-0.90738
0.902156
-0.370411
0.422678
0.233964
-0.908984
-0.385568
0.0457697
-0.0716198
-0.658054
-0.286281
0.932051
0.178004
-0.834544
-0.0395938
1.53642
0.636507
-0.885641
-0.722497
-1.35813
0.445932
-0.209859
-1.05812
0.0137073
0.278237
-0.0531231
0.177511
-0.0219565
0.7466
-0.658949
0.566112
0.563594
-0.420207
-0.613168
-0.381195
-0.0303842
0.362463
0.0273718
-0.127536
0.475112
-0.537753
-0.273996
0.996659
-0.599163
-0.440947
-0.239712
-0.84103
0.124602
0.298744
-0.706926
0.457775
-1.14253
-0.171096
-0.0444506
0.337346
-0.332575
0.611798
-0.59172
-0.980978
-0.754312
-1.33586
0.779691
0.45319
-0.086841
0.0267685
-0.489548
0.0168874
0.578591
0.484298
-0.648715
-0.341722
0.502793
-0.778221
0.169079
-0.378736
1.42885
0.661932
-0.179683
-0.878941
-1.16821
0.47852
-0.740573
-0.991356
0.205123
-0.820331
0.932185
1.6835
-0.760874
-1.10835
1.0625
0.73852
-0.432563
-1.72944
-0.417995
1.73284
0.766771
0.195508
-0.324907
-0.649376
-0.301287
-0.74425
-0.0457249
0.884802
-0.698213
0.00909976
-0.914062
0.595367
-0.622427
0.877148
-0.9008
-1.0174
0.177169
-0.0668435
-0.735455
0.378164
-0.96528
-0.868328
0.540683
-0.387681
-0.751022
0.694723
-1.06291
0.858567
0.520529
0.466488
-0.000675597
-0.727929
-0.202177
-0.424392
0.900157
-0.207107
-0.215919
-0.74539
-0.99613
0.649693
0.487406
0.741762
-0.66253
-1.55698
-0.396769
-0.16171
0.901411
0.202585
0.619278
0.381378
-0.512406
-0.410258
0.425725
-0.0174931
-0.920227
0.637248
0.294309
0.14131
-0.340591
-0.523911
0.895457
0.392714
0.992062
0.557495
0.766909
-0.531109
-0.148389
0.459836
0.141864
-0.0188
0.0826983
0.809446
-0.837482
-0.14159
0.416918
0.0659825
0.316653
-0.749813
0.301563
-0.138868
-0.383945
0.906398
0.0890667
0.955598
-0.0312716
-0.631878
0.540436
-0.801386
-0.221779
0.0558918
0.0568154
-0.0857597
-0.541945
-0.0998733
0.38792
-0.763497
0.420401
0.924364
-0.544108
-0.164875
-0.76426
-0.433966
0.872885
0.713678
-0.906499
0.473298
-0.80845
-0.0513969
0.0648686
0.878617
0.703874
0.760933
-0.78133
0.0108913
0.849312
-0.197351
-0.43855
-0.231581
0.0189847
-0.363261
0.750506
0.352062
-0.762329
-0.452405
0.18899
0.0236232
0.698194
0.475259
-0.354529
-0.184122
-0.845176
0.846437
-0.902908
0.844374
0.372588
0.301594
-0.0250709
-0.0914864
0.161937
-0.207754
0.368648
0.254283
0.511437
0.611961
-0.494734
-0.67739
-0.316182
-0.568643
0.410523
0.219081
-0.420462
0.206519
-0.717519
-0.0533255
0.247917
0.0995207
-0.385145
0.990851
0.244049
0.15015
-0.891827
-0.688106
-0.418417
0.0624959
0.623516
-0.222839
-0.872659
0.983593
0.0715657
0.390233
-0.650583
-0.220313
0.567073
0.356842
-0.039563
0.966179
0.480074
0.752708
0.272822
-0.359871
-0.7511
-0.891942
1.13224
-1.17616
-0.349008
-0.565535
1.78705
0.520789
-0.803601
0.07853
0.0776636
-0.413874
-0.46539
1.00252
-0.949126
0.503962
-0.0924167
-0.352751
-0.901568
0.142142
0.904951
0.887001
-0.920047
-0.483268
0.25599
0.85426
0.8944
-0.984875
-0.13349
0.592069
-0.722984
0.364088
-0.554984
0.482181
-0.289069
-1.10198
-0.486318
0.973044
0.872627
-0.0789679
0.12862
-0.559558
-0.477688
0.966709
0.500902
0.154158
-0.50922
-0.643825
-0.081202
0.900497
-0.18605
-0.277739
-1.36645
1.31183
-0.800633
0.688329
-0.633944
-0.396904
0.767179
-0.395533
1.02544
-0.365842
-0.30706
0.380442
0.0804488
0.0568489
0.206751
-0.201408
0.580355
0.719073
-0.556354
-0.354114
0.0123287
-0.83921
-0.680077
-0.220401
0.276525
-1.21871
0.464285
0.449289
-0.308905
-0.0500024
0.938628
-0.964527
0.326351
-0.792234
0.899204
-0.511381
0.037477
-0.56195
0.444307
-0.716493
0.958976
0.440129
-0.64284
-0.0343563
0.275124
-0.267423
0.451835
0.404663
-0.833076
1.34761
0.35738
-0.300032
-0.0575345
0.131555
0.0814909
-0.165253
0.71529
0.476038
0.569688
0.0203618
-0.751758
0.673807
0.319009
-0.161296
-0.185032
-0.6684
0.859842
-0.325245
0.136298
-0.367023
0.924642
-0.0544625
-0.796244
-0.165766
0.0226974
-0.813699
0.234297
0.669306
-0.0889113
-0.867294
0.00183159
-0.624497
0.0728167
-1.04485
-1.18563
0.383462
0.607309
0.278097
0.148756
-0.332844
-0.131843
0.556878
-0.042611
0.297724
-0.00125513
0.22572
0.41674
-0.934877
-0.922603
0.00760105
1.19113
0.427334
-0.624884
0.394725
-0.896463
-0.00754851
-1.31063
-0.419643
0.422615
0.0714077
0.823623
-0.185498
0.662156
0.247552
0.519997
0.414648
-0.0619027
0.400184
0.202379
-0.224275
-0.401084
-0.425905
0.0335064
-0.953768
0.381763
-0.31167
-0.902506
0.571684
-0.228113
0.272762
-0.0178583
0.581281
-0.265477
0.902731
0.0610547
0.826385
-0.0533032
0.468894
0.0632369
-0.448288
-0.870672
-0.788489
0.422479
-0.99526
-0.0776354
-0.826878
-0.41289
0.319032
-0.23902
-0.234747
0.278308
0.387463
0.774773
-0.520604
-0.0534045
0.357605
-0.171364
0.299992
0.980987
0.950837
-0.347278
-0.206769
-0.753691
-0.103837
-0.618115
-0.585759
-0.763383
-0.0143524
-0.426719
0.681364
0.580964
-0.198318
-0.734182
-0.354051
0.0446986
-0.0379129
-0.32197
-0.658504
0.127079
-0.836967
-0.070292
-0.120287
0.0604379
0.737741
-0.89664
-0.257424
0.119941
-0.590344
0.148561
0.615291
-0.817851
-0.332097
0.525756
-0.512218
-0.643165
0.95257
-0.811623
-0.127017
-0.614044
0.942097
0.145272
0.771448
-0.841133
0.105358
0.121412
0.0583053
0.0978593
0.408679
0.36889
0.88605
0.0749897
-0.37305
-0.342349
-0.809914
0.295429
-0.923008
0.0918092
0.119657
-0.488131
0.0831771
-0.426009
-0.503151
0.0507014
-0.750727
0.376177
-0.0221002
-0.313983
-0.609005
-0.840037
-0.946364
0.754809
0.558811
-0.109438
-0.294478
0.678767
0.0399901
-0.192093
0.868719
0.734056
-0.354862
0.57458
0.261294
0.287317
0.53463
-0.855516
0.191272
0.270301
0.227081
-0.785577
-1.09547
0.823494
0.789606
0.449476
-0.270557
-0.476408
0.364853
0.0154894
-0.270077
1.52139
0.0713797
-1.73752
-0.603911
1.19621
0.513189
-0.228261
-1.08912
0.711205
-0.578611
-0.986736
0.878451
-0.87585
0.512945
-0.315702
0.247444
-0.839573
0.26209
0.202094
-0.48105
-0.161325
0.990919
0.790775
-0.488828
-0.388246
0.0403746
-0.852488
-0.0825032
0.906578
-0.478132
-0.779006
-0.333929
-0.761449
-0.772731
-0.176418
0.12236
-0.567736
0.358844
0.702638
-0.203405
-0.443063
-0.046368
-0.755099
0.197117
-1.2264
-0.0617028
0.583499
-0.819883
0.334879
0.507081
-0.168474
0.293997
-0.219923
0.882866
0.529465
0.0328968
0.340098
0.379793
0.559544
-0.670185
0.465934
-0.770562
-0.43396
0.484503
-0.857028
0.514805
0.729433
-0.115455
-0.943092
0.382097
-0.579569
0.715922
0.34253
0.521249
0.00438147
0.696822
-0.991415
-0.414401
0.880573
0.386246
-0.722177
0.264626
-0.774158
0.484204
-1.02163
0.722766
-0.680092
0.582296
-0.687335
-0.572845
0.33528
0.11152
-0.303302
0.310018
0.595955
-0.839397
0.421473
-0.470662
0.612469
-0.290353
0.374203
0.391622
-0.269412
0.0457475
-0.156076
0.79053
-0.950398
0.984109
-0.777861
-0.18241
1.00852
0.303798
-0.851975
0.0998089
0.225338
-0.279735
-0.317465
-0.798008
0.109066
-0.98571
-0.407697
-0.505777
-0.279076
0.126681
-0.65816
-0.0100911
-0.131339
0.960927
0.347558
-0.50301
-0.439034
0.385994
0.46242
-0.144044
0.875066
0.894819
-1.09162
-0.372075
0.115954
-0.885396
-0.797925
0.877034
-0.495251
-0.634403
-0.557352
0.475171
-0.882632
0.174642
-0.134658
-0.193218
-0.213376
-0.699937
-0.668087
-0.803918
0.659478
-0.703744
-0.730045
0.200328
0.154967
0.2628
0.866294
-0.687163
0.179933
0.987953
0.352509
-0.872332
0.388651
0.0911047
-0.845222
0.789283
-0.223444
-0.98657
-0.214488
-0.764997
0.0188414
-0.657249
-0.333732
-0.786285
0.191866
-0.865223
0.339906
0.630081
-0.997344
-0.616861
0.555216
0.126729
0.685586
0.161803
-0.635113
-0.539992
-0.369573
0.545467
0.310471
0.178236
0.232053
0.557589
0.00529918
0.596554
-0.20022
0.705983
0.238112
0.346451
-0.166992
0.588552
0.145532
-0.638914
-0.988766
0.752499
0.589022
-0.285568
0.676247
-0.993378
0.94675
0.119543
-0.638614
-0.866874
-0.808837
0.00605453
0.733332
0.916184
-0.374961
-0.516246
0.708563
-0.885827
-0.329366
-0.54174
0.293713
-0.557761
0.597751
0.100806
0.886272
0.739601
-0.674775
0.418163
-0.241221
-0.855459
0.585385
0.104454
-0.273041
-0.98782
-0.146857
-0.203451
0.240015
0.132185
0.949931
0.410742
0.368034
0.574091
0.811234
-0.827864
0.671708
0.850072
0.660383
-0.0459215
-0.889841
-0.002823
-0.761015
0.718967
-0.481864
-0.305283
-0.559245
-0.3937
-0.765182
0.944894
-0.547017
0.495356
-0.581765
0.859364
-0.369577
0.136828
0.974144
0.140147
-0.401662
0.649835
0.336163
-0.86564
-0.727695
0.302198
-0.963374
0.684561
-0.105926
0.611005
0.092188
0.382755
-0.531455
-0.383474
-0.746035
0.961978
-0.165701
-0.686242
-0.0354759
0.110868
-0.154164
-0.840588
-0.390483
-0.692814
-0.828905
0.146411
0.332564
0.819634
0.175011
0.617862
0.153391
-0.938569
-0.251363
-0.741123
0.0146114
0.19362
0.350935
-1.00522
-0.67419
1.01373
0.426891
0.93182
-1.01605
0.886085
-0.10408
0.944087
0.943344
-0.311336
-0.613021
0.293148
-0.429672
0.665129
0.540311
0.732004
0.878858
0.25699
0.703978
0.98228
-0.348532
0.691936
-0.285515
-1.08219
0.630948
-0.419921
0.828562
-0.188282
0.966661
-0.891826
-0.806727
-0.395984
-0.981021
-0.930076
-0.0632333
-0.0374769
0.829085
-0.204661
0.851311
-0.180606
0.530561
-0.963481
-0.745468
0.0721634
-0.0472964
-0.0265603
-0.544758
-0.197421
-0.574017
0.687764
0.289439
-0.724691
-0.955343
0.546164
-0.728736
-0.347519
0.808235
-0.742684
-0.79332
-0.140186
0.944751
0.29241
-0.224143
-0.466324
0.56067
0.730975
0.0960561
0.422422
0.57682
-0.940127
0.216585
-0.790179
-0.00532585
0.121558
0.894335
0.384771
-0.491462
-0.96208
0.00707367
-0.326508
0.0461049
-0.312503
-0.0283281
0.752013
0.901725
0.524974
0.626899
-0.0611497
-0.217608
0.203309
0.0571897
0.211701
0.637528
-0.355881
0.997747
-0.454937
0.0351377
-0.366151
0.488116
0.622053
0.138462
-0.41681
-0.732136
-0.520379
-0.694605
-0.667861
0.471183
-0.0824576
0.963935
-0.337263
-1.32891
-0.851536
-0.27597
0.267634
-0.192475
0.598175
-0.86858
-0.17808
0.434295
0.852687
0.721845
0.554457
-0.739645
-0.666047
0.779969
-0.0942084
-0.607875
0.174211
0.743448
-0.975089
-0.595173
-0.651181
0.98329
0.208724
0.245975
-0.862604
0.0309354
0.34873
0.551353
0.92416
0.980691
-0.763569
0.660156
0.238406
0.695162
-0.668278
0.934682
-0.373532
0.339164
0.996726
-0.846219
-0.112212
-0.706771
-0.56424
0.788331
-0.626355
-0.716954
-0.0639996
-0.617991
0.362301
0.667909
0.279376
0.571572
-0.222032
0.324658
0.18246
-0.571116
-0.175739
0.759858
-0.800029
-0.407051
0.180322
-0.0117912
0.694322
-0.00712814
-0.546436
0.683311
-0.567017
-0.991155
-0.114902
-0.00727019
-0.498912
0.201091
-0.529039
-0.300644
0.466302
0.685559
0.209216
0.862097
0.950777
0.457213
-0.477124
0.210789
0.924555
-0.38015
0.141501
-0.169596
-0.077142
0.981092
-0.778421
-0.412056
0.88813
-0.564351
-0.810285
0.592398
0.680772
-0.175996
-0.257326
0.00776085
0.73703
0.619266
-0.792065
-0.560643
0.446393
-0.0718698
-0.759892
0.235236
-0.54113
-0.699581
-0.757345
-0.256322
0.866177
0.632506
-0.800872
-0.650249
0.349201
-0.743163
-0.295187
-0.820837
-0.418656
-0.329392
-0.437374
-0.163763
-0.00905342
0.33429
-0.640694
0.516494
-0.772726
0.566376
0.624561
0.461924
0.358171
-0.296418
-0.557556
0.786536
-0.0417251
-0.215873
-0.740728
0.514401
0.096783
0.664368
-0.966977
-0.995587
0.616458
-0.446176
0.199167
-0.688874
0.172867
0.500127
-0.447687
-0.821421
-0.0947801
-0.609896
-0.702892
-0.527903
0.481438
-0.758551
0.409348
0.16615
0.618747
0.985011
-0.856294
0.83386
-0.388561
0.0814504
-0.671344
-0.781268
0.396775
-0.383765
-0.138109
0.219921
0.131393
0.712038
0.553422
0.48235
-0.164924
-0.856739
-0.00887144
-0.484117
0.584572
-0.700776
-0.363485
-0.465913
0.583019
0.309368
-0.682985
-0.432512
0.586952
0.597374
0.824848
-0.88456
0.515664
0.865205
-0.143831
-0.1928
0.73612
0.124274
0.376666
-0.0653998
-0.1613
-0.919581
0.915443
-0.464435
0.532592
0.509786
0.0620065
0.715574
0.662643
-0.0856638
-0.840674
0.529219
-0.457996
-0.149367
-0.619856
0.571756
-0.648799
0.488542
0.524938
1.09177
-0.180816
-1.28289
-0.827237
0.215228
0.577896
-0.410203
0.13868
0.675479
-0.296136
0.109699
0.356151
0.675735
-0.186547
0.369555
1.17019
-0.475557
0.212613
0.0308311
0.984543
-1.01538
-0.102254
0.689692
-0.681041
0.217988
0.647864
0.413017
0.654129
0.00451501
0.916547
-0.588801
0.0956122
0.0992268
-0.490475
0.379221
-0.759415
0.0417536
-0.119807
-0.72693
-0.736369
-0.626533
0.69212
-0.71279
-0.609967
-0.839013
0.33718
0.185482
-0.564852
0.18528
0.445183
-0.825573
0.442946
-0.141149
0.726216
-0.568802
-0.0491793
0.454641
0.341146
0.899964
-0.662924
0.125778
-0.896296
0.38692
0.784269
-0.193412
-0.803783
-0.05231
-0.156207
0.0184657
-0.546574
0.270447
-0.024112
0.446181
0.717449
0.323032
0.271128
-0.19638
-0.1069
-0.668657
-1.44554
0.545956
1.28453
-1.01304
0.622538
0.748915
0.734657
0.860701
-0.461487
-0.736966
-0.70117
-0.401291
-0.198386
0.270041
-0.522541
-0.866546
-1.04378
0.33604
0.0509947
-0.619664
0.649292
-0.879803
-0.990607
-0.639944
-0.140725
0.796149
0.83786
0.0911898
-0.383955
0.361674
-0.154513
-0.869981
-0.795761
-0.634872
-0.448436
-0.267118
0.144651
-0.663902
-0.788123
-0.530043
-0.772113
-0.800632
0.258413
-0.243703
-0.1599
-0.438001
0.762032
0.208018
0.536462
-0.081947
-0.918312
-0.349642
-0.916689
0.229483
-0.057928
-0.391388
-0.785964
0.918585
0.927448
-0.594689
0.877477
0.946404
0.247829
-0.88163
-0.619676
-0.697953
0.984112
0.909905
-0.357544
0.315291
-0.118187
0.0106851
-0.865233
0.0369663
-0.428945
-0.779123
-0.154376
0.234298
-0.876705
-0.46524
-0.76356
0.406694
-0.487217
0.0816279
-0.936097
-0.152652
0.0964783
0.118157
0.398925
0.616406
0.311686
-0.888091
-0.285164
-0.359594
0.998828
0.243314
-0.908659
-0.300144
0.460496
-0.223368
0.908911
-0.972699
0.603794
-0.550361
-0.903051
0.0734347
-0.109528
0.786013
0.133757
0.652348
0.458845
-0.281407
0.160089
-0.607109
0.566613
0.264941
-0.216035
-0.188779
-0.607702
-0.407481
0.0479723
0.754039
0.683063
0.781327
0.337253
-0.701363
-0.701545
-0.94521
0.493731
-0.947782
-0.0135743
-0.602882
0.0181056
0.177595
0.851394
0.901398
-0.606596
0.774168
-0.729971
0.227782
0.87072
-0.76574
0.480587
-0.341738
-0.434331
-0.110292
-0.414155
0.594649
0.472103
0.176458
0.935776
-0.288633
-0.102516
-0.131826
0.674735
0.858596
-0.46704
-0.810581
-0.205623
-0.233501
-0.557636
0.81159
-0.868634
-0.527199
0.0700221
1.70209
1.19934
1.28996
0.176285
-0.504227
-0.141446
-0.728543
0.860775
1.01454
-0.643084
-3.38518
0.777508
0.209979
1.27315
0.983195
5.0371
-3.31753
-0.275265
0.708435
-0.646351
-0.455499
0.96163
1.66777
1.82736
-3.5475
-0.51256
1.21699
0.529881
-0.130278
-3.59294
0.829686
-3.99277
0.650707
-2.14716
2.91222
0.145214
-2.59072
-1.24124
3.10187
-0.184097
0.932972
2.40952
-0.359176
-0.545395
-0.0679997
-0.187395
3.60424
-0.618575
0.172454
-0.832879
0.996606
0.531472
-0.334914
3.70232
-1.20061
2.65522
-0.590346
4.04926
1.03496
-0.306186
-1.76359
0.89288
-2.30929
-2.50979
3.52331
1.76178
-1.46048
-1.97237
2.48548
0.699082
-0.999169
-2.97019
-0.64512
-1.87229
-1.74856
0.29414
-2.14481
-2.90307
-3.32699
-2.43745
1.76208
4.21502
2.05013
-0.0359627
-0.100534
-1.97395
-0.162073
-0.366101
4.66446
-1.09523
2.61379
4.12917
-1.17748
-3.50698
0.623053
-0.17302
-4.46738
0.218281
1.76872
1.33645
-1.03826
-3.46759
2.89565
-2.32498
0.494368
0.801723
2.92628
0.00795905
3.12088
0.545951
-1.17161
-1.94344
0.84748
-2.89653
-0.559343
3.39032
0.710725
1.15963
0.963796
-1.08078
-0.040304
0.971945
1.21798
1.48009
-0.119572
0.185816
-0.21248
0.632003
-2.43495
1.48136
-0.0853949
-4.09617
-0.0999693
-1.40127
2.77736
-2.05798
1.62783
-1.93859
-2.41075
-1.675
5.70638
-2.37117
-2.27254
-0.262332
-2.25087
-0.804878
-1.30203
0.462188
-3.20846
1.08832
-3.66251
3.69485
-2.07734
-1.71063
1.39121
-1.96733
-1.50068
-3.32653
-0.479481
-5.60038
-2.58824
-0.0263596
1.50946
0.110408
-0.467958
1.93803
0.546533
-1.23198
-2.9485
1.78834
-1.09852
-3.22497
3.87076
-1.06217
-1.32387
-0.863932
1.56829
-4.04007
-0.448345
-2.23621
1.42486
-1.65079
1.19015
2.48916
-4.90074
-4.62076
1.0337
-2.18967
-6.61135
1.47299
0.814768
2.36737
0.73809
-1.40182
-3.82157
-2.49817
-3.57638
2.63897
0.906472
1.64271
-3.79642
-4.52915
2.03979
-3.33408
-1.79497
0.485863
-3.98429
1.12147
3.88521
1.627
-1.28693
-2.56102
-6.56449
0.992084
-0.468487
-4.19528
-2.5974
-1.06601
2.96073
-5.48849
1.59018
2.33253
-2.37764
-5.6518
-0.381806
0.994914
0.462298
-2.78229
-0.85128
-3.0713
-1.8456
-1.49369
-1.81119
-1.32168
-2.04465
-1.94368
-2.83227
-2.95391
