1
0.6
1
784
2
10
10
10
-0.729046
0.670017
0.937736
-0.557932
-0.383666
0.0944412
-0.623236
0.985763
0.992923
0.93539
0.451678
0.962219
-0.780276
0.596212
-0.405941
-0.990433
-0.775071
0.279527
0.756861
0.00732535
0.595857
-0.277412
-0.576151
0.362719
-0.202523
0.481294
-0.0504826
-0.155825
-0.65227
-0.396174
0.59456
-0.366899
0.744858
-0.701772
0.988137
0.643807
-0.749634
0.5275
-0.0188219
0.327211
-0.748207
-0.579582
-0.897567
-0.927117
-0.182538
-0.0840217
-0.0248621
0.58795
0.84175
0.615062
0.411549
-0.994363
0.421408
0.287922
-0.0879344
0.547834
0.147509
0.753515
0.616351
-0.964452
0.642492
0.641682
0.880148
-0.174667
-0.15367
0.161913
-0.683885
0.523462
-0.539688
0.619469
0.977043
-0.335103
-0.400337
-0.972922
-0.565524
0.814729
0.696936
0.910035
0.557795
0.974919
-0.864809
0.587195
0.189007
0.465597
0.390466
0.35964
-0.215359
0.123115
-0.583864
0.0547429
-0.191583
-0.294475
0.185648
-0.28731
0.929933
-0.691123
-0.210184
-0.225408
0.453909
-0.22286
0.854986
-0.127765
0.725356
0.24072
-0.760906
-0.0560864
-0.319561
0.059684
0.432201
0.976759
0.440987
0.825155
0.010997
0.116538
0.00638004
-0.0750516
0.0931839
-0.104831
0.708902
0.208463
-0.00291163
0.959851
-0.931365
0.954004
-0.273627
0.359039
-0.307533
0.71175
-0.909881
0.320239
0.499882
-0.734008
0.964721
-0.80929
-0.434653
0.604223
-0.844886
0.254769
-0.983812
0.360574
0.0678662
-0.122666
-0.600898
-0.723997
-0.235334
0.524843
-0.919058
-0.494088
0.00954199
0.64521
0.963446
0.646911
-0.396345
-0.904111
-0.504305
0.0881122
0.775452
-0.312321
-0.933463
-0.674256
0.754728
-0.579396
-0.454494
-0.015116
-0.55316
-0.019397
0.909887
0.303937
0.515007
-0.129509
0.105762
-0.893695
-0.354979
-0.190037
0.816867
0.618274
-0.483408
-0.740307
-0.0133463
-0.242999
0.43694
-0.42439
0.246871
0.623748
-0.374984
-0.228579
-0.31214
0.631538
0.33857
-0.241162
-0.0830062
-0.392772
0.82113
-0.0227646
0.51158
-0.783876
-0.21282
0.740374
-0.278279
0.834236
0.087611
-0.719712
-0.600254
0.89785
0.98022
-0.519848
-0.966959
-0.22277
0.559379
-0.0467239
0.080276
-0.963098
0.800366
-0.611009
0.771996
-0.117553
-0.704342
-0.520995
0.599306
-0.0539699
-0.820354
0.289101
0.266127
0.168764
0.453309
-0.290724
0.360813
0.414643
-0.675343
-0.732527
-0.100888
-0.915892
0.594728
-0.664888
0.662429
-0.350073
0.31156
-0.15962
0.563818
-0.773615
0.987069
-0.636854
0.525863
-0.468159
-0.511723
-0.798523
-0.311344
-0.436745
0.937281
-0.572455
0.211856
-0.546897
-0.620189
-0.196857
-0.173419
-0.659695
-0.401896
0.272937
-0.696852
0.538486
0.767937
0.918443
-0.963867
0.165693
0.533708
-0.344404
-0.741868
-0.416078
0.694219
-0.538471
0.00394877
-0.996804
-0.974922
-0.426827
-0.802602
-0.23049
-0.289303
0.439942
-0.86911
0.0277184
-0.152043
0.379603
-0.492114
-0.196961
-0.471047
0.868501
-0.0549495
0.221832
-0.0231962
0.0290391
-0.509962
-0.33399
0.00472475
0.192116
-0.379688
0.925995
-0.535199
0.493808
-0.354934
-0.363536
0.904944
0.0694421
0.74361
0.869205
0.334228
-0.420621
-0.868951
-0.536223
0.409447
-0.609785
-0.155563
0.87211
-0.715566
0.286362
-0.0545357
-0.126134
-0.511361
0.0118388
0.813888
-0.846992
0.427808
0.23441
-0.621832
-0.206036
-0.444672
0.716199
0.817873
0.234558
-0.638363
0.0300474
0.649263
-0.281351
0.632234
-0.413224
-0.655764
-0.0144208
-0.60935
0.728615
-0.591606
0.232545
0.756101
-0.215062
0.893155
-0.666603
0.943755
0.12793
0.196738
-0.737556
0.133555
0.108761
-0.37902
-0.758702
0.475582
-0.514553
0.645718
-0.629048
-0.374646
0.763451
0.348426
0.478595
-0.874914
-0.736877
-0.820094
-0.983371
-0.0869792
0.268607
0.059526
-0.00426114
-0.328404
-0.494353
-0.532649
-0.653674
0.191962
0.453786
0.755146
0.414319
-0.530469
-0.0440085
-0.963576
0.494662
0.309447
-0.843866
-0.0544618
0.99295
0.064195
0.798872
0.545802
-0.592481
0.814217
-0.250375
0.696178
-0.346602
-0.346527
0.318421
0.17353
-0.902034
0.539931
-0.0164957
-0.023632
-0.141747
-0.210545
0.552908
0.949509
0.49701
0.269004
-0.855639
0.266727
0.0774782
-0.426719
-0.339919
0.288696
1.00314
0.0619412
0.443626
-0.523364
-0.372003
0.487497
0.365933
0.401817
-0.880423
-0.0632773
0.449206
-0.835973
-0.802029
0.0435223
-0.504929
-0.106613
-0.757832
-0.811118
-0.7396
0.92062
0.521988
-0.437191
0.46394
-0.138629
-0.0558449
-0.903631
0.190807
-0.0284829
0.80895
0.870429
0.836553
-0.392349
0.580204
-0.547545
-0.102096
0.0202178
-0.538736
0.423762
0.968905
0.310426
-0.459307
-0.109101
-1.04591
-0.107293
0.909258
-0.460002
-0.579514
-0.594328
0.584613
0.0132006
-0.184996
-0.571062
0.0569383
0.420093
-0.432682
0.069409
0.477185
-0.340912
0.558777
0.7
-0.949987
0.769885
0.184408
-0.952443
0.765931
0.827324
0.945291
0.773716
0.884407
0.722394
-1.0208
0.636506
-0.948082
0.171113
0.25243
-0.395438
-0.777982
-0.784085
0.878501
0.0567268
0.235102
0.388226
-0.822064
-0.588089
-0.135646
-0.96741
-0.868142
-0.313932
-0.391886
0.948042
-0.463352
0.70335
-0.295154
0.493536
0.689713
-0.570734
0.950314
0.411052
0.965225
0.487106
-0.688365
-0.297783
-0.628964
0.651385
0.905189
0.53474
0.723938
-0.0886725
-0.334632
0.67652
0.108618
-0.758269
-0.575633
-0.0175215
-0.18069
0.519023
-0.285872
0.543572
0.963081
0.692323
0.669243
-0.265611
-0.898748
0.951123
0.685179
0.738921
-0.849003
-0.935248
0.227864
0.471361
0.231056
0.32526
0.902529
-0.468225
0.838771
-0.763207
-0.373869
0.744231
-0.532713
0.616117
0.113064
0.887185
0.00740693
0.332834
-0.694069
0.946458
0.267534
-0.6427
-0.851714
-0.0100504
0.57196
-0.0706405
0.766063
0.294738
0.806482
-0.988053
0.387124
0.170179
-0.789277
0.98064
-0.540016
-0.334184
0.378766
0.922841
-0.546802
0.848483
0.752492
-0.136511
-0.0582252
0.124205
0.675231
-0.703382
0.278556
0.991187
0.278788
-0.120963
-0.943223
-0.833698
0.0607344
0.564003
0.47329
-0.619678
-0.476345
-0.0955105
-0.0799462
0.347274
-0.646094
-0.624338
-0.807026
-0.352251
-0.659347
-0.950532
0.661286
-0.510343
-0.71593
-0.689116
-0.393979
-0.932855
-0.181421
0.566247
-0.113256
-0.965024
-0.428431
0.902793
-0.65737
-0.8117
-0.452177
-0.597272
0.506233
0.601759
0.172168
-0.00601096
0.181946
0.137583
-0.629804
0.803313
-0.951076
-0.471247
0.565031
0.199404
0.112431
-0.806935
0.853574
-0.203217
-0.920194
0.170234
-0.17357
-0.740933
0.217878
-0.889187
0.696592
-0.0958722
-0.0299712
-0.865106
-0.557988
0.288729
0.951664
0.898685
0.472945
-0.158293
0.371468
0.372432
-0.537467
0.98955
-0.128814
0.487585
-0.323899
-0.274168
0.979767
0.450157
0.675013
-0.203929
0.703391
-0.656794
0.894789
-0.298207
-0.230243
-0.20054
0.436733
0.671835
0.901748
-0.872037
0.329051
-0.647377
-0.258084
-0.6632
-0.773595
-0.694853
-0.208966
-0.20705
-0.944071
-0.0999355
-0.802912
0.832036
-0.067366
0.498258
0.458659
0.472614
0.313097
-0.568393
-0.897015
-0.882603
-0.159952
0.622931
-0.366239
0.750157
-0.181786
-0.643887
-0.85995
-0.866426
0.357143
-0.837997
-0.341177
-0.241203
0.574661
-0.637604
-0.788123
-0.866642
-0.396341
0.42669
-0.0274297
0.773568
-0.200615
-0.865247
-0.143736
0.456814
-0.131418
-0.583072
-0.099295
0.875568
0.940369
0.11641
-0.324225
-0.387625
-0.913936
0.857739
-0.729999
-0.259052
-0.0412443
-0.284965
-0.34566
-0.822493
-0.892573
0.718626
-0.471255
0.156318
-0.213202
-0.487491
0.548265
-0.144439
-0.599308
-0.911228
-0.239008
0.594682
0.745928
0.448022
0.275906
0.206601
0.84067
0.705093
-0.901073
0.257439
0.156626
-0.722036
0.078953
-0.430343
-0.0210684
0.895866
0.0640158
0.000196148
-0.865297
0.433683
0.733467
0.577939
0.159042
-0.563365
0.298466
0.360086
-0.459124
0.26785
-0.163615
0.472447
-0.262027
0.359908
0.10905
-0.483321
0.619294
0.131879
-0.194621
0.560251
0.0804944
0.695983
-0.280304
-0.367294
-0.549706
-1.10846
-0.267275
-0.85148
0.37
0.210194
0.558114
-0.0235925
-0.369853
0.532911
-0.665465
-0.53777
-0.154899
-0.73455
0.762946
0.408359
-0.502155
0.365154
-0.250737
0.295479
0.728519
0.680057
-0.518039
0.776945
0.80856
0.403101
0.942256
-0.0904635
0.674553
-0.815069
0.365643
-0.859879
0.358566
-0.659398
0.364545
-0.940009
-0.293622
-0.626584
-0.83489
0.0383651
0.946172
-0.785783
0.709493
-0.401724
0.0982906
0.521836
-0.248186
-1.19755
-1.0516
-0.505833
-0.213236
-0.606959
0.670517
0.559478
-0.845593
-0.41716
-0.44904
0.243412
0.842342
-0.549163
-0.430409
-0.830732
-0.344406
-0.895802
0.221769
0.0891455
-0.304192
0.0539332
0.999723
0.710499
0.805927
-0.742389
0.231636
0.660683
0.975662
0.291237
0.500665
0.514744
0.333288
0.080055
0.460509
0.559484
-0.0227059
0.187517
0.934346
-0.843245
-0.929662
-0.255577
-0.844173
0.568375
-0.0457602
-0.118695
-0.436414
0.03361
-0.264279
-0.764217
0.19725
-0.966835
-0.0644456
-0.786984
-0.322542
-0.826216
-0.589684
0.0355581
-0.0464416
-0.92962
0.706278
0.901228
0.705871
0.960601
0.724615
0.642614
0.837248
0.196464
0.653549
0.0752123
0.826277
-0.664435
-0.962223
0.713
0.682753
0.576374
0.459037
0.469095
0.172927
0.12646
0.848465
0.210474
-0.797356
0.238029
0.46764
-0.418072
-0.36275
0.147786
0.282527
-0.889157
0.95983
0.585033
0.27836
-0.351347
0.945358
0.0104699
0.842887
0.139224
-0.107307
0.928931
-0.759607
0.969848
-0.54006
0.193992
0.140695
0.529287
-0.175635
-0.88823
0.0120034
-0.655917
0.0580519
0.0690341
0.36537
-0.0551445
-0.338371
-0.25097
-0.724148
0.458779
-0.341401
0.321014
-0.872513
0.814771
-0.790684
-0.801497
-0.21496
0.331339
-0.00880319
-0.0752157
-0.577427
-0.180994
-0.784551
-0.0213578
-0.776354
-0.282802
-0.418675
-0.344393
-0.481943
0.0904144
-0.860736
-0.965317
-0.730162
0.79308
0.484645
0.207326
0.905771
0.828326
-0.515297
0.804135
-0.113733
0.125365
-0.297726
-0.926644
0.127567
-0.305622
0.543444
0.260379
0.785217
0.723987
-0.324776
0.338631
0.516162
-0.15503
-1.12079
-1.01018
-0.255111
1.15642
-0.540552
0.249714
0.820883
0.705565
0.673674
0.886394
-0.439241
0.237193
-0.170596
0.953448
0.0527142
0.363089
0.859353
0.126007
-0.123315
-0.292889
0.663311
1.07492
-0.414903
-0.949761
-0.308319
0.846616
-0.690106
-0.397063
0.0112538
-0.76125
0.798234
-0.384132
-0.0437199
-0.339331
-0.285121
-0.465016
0.0186873
-0.376697
0.741254
-1.14711
0.95295
0.679431
-0.145659
-0.408347
-0.741409
0.00043004
-0.0557474
0.38832
-0.860866
0.207234
-0.706752
-0.193815
0.881161
0.0165269
0.237113
0.356969
0.356531
-0.245281
0.486543
0.511344
-0.434228
-0.89521
0.414974
0.615027
1.22027
0.964122
-0.87128
0.653419
-0.918342
-0.224195
-0.919053
-0.172461
-1.08229
0.748007
0.780537
0.164926
-0.37925
-0.168585
-0.360301
-0.599754
0.0106937
-0.680886
-0.198309
-1.00802
0.628286
0.195858
-0.080725
-0.551644
-0.0191373
0.438345
0.810177
0.287185
0.286323
0.684571
-0.779802
0.274989
1.01757
0.8858
-0.122193
0.334739
0.917755
0.398488
-0.225345
0.0216872
-0.654049
0.648615
-0.78243
0.801937
-0.319603
-0.98169
0.063009
-0.321721
0.761346
0.772237
-0.770546
-0.738622
-0.0641179
0.734173
0.497795
0.514271
0.611906
0.688524
0.509399
0.741988
-0.582623
0.698001
0.235873
0.620765
0.561762
0.198633
0.328256
-0.753859
0.158209
0.392803
0.149306
0.245921
0.534623
0.527841
0.600932
-0.945784
0.968356
-0.740172
-0.685227
-0.94229
0.691747
0.603157
-1.20817
0.288999
0.562185
0.409157
-0.0797436
0.4227
0.123494
-0.18532
6.85756e-05
0.0655684
0.0592759
0.23909
0.385076
0.286495
-0.642237
-0.498338
-0.337291
-0.633067
0.190443
0.548603
-0.31135
-0.40925
0.807879
-0.0473302
0.147776
-0.454541
-0.682086
0.393177
-0.612747
-0.721704
-0.786608
-0.395062
-0.411133
-0.991957
-0.72369
0.487949
-0.654895
0.301795
0.607619
0.0381684
-0.822963
0.394736
0.730042
-0.0892901
0.778349
0.0640282
-0.353164
-0.637748
0.11827
-0.500901
-0.245384
-0.795315
0.973833
-0.493342
-0.163929
-0.126645
0.464574
-0.232317
-0.409492
0.697622
-0.746544
-0.0461392
0.570222
0.996082
0.588935
-0.945401
0.918626
-0.329014
-0.905958
0.211875
0.948114
0.3828
0.348969
-0.598377
-0.58221
0.726699
0.731075
0.44224
-0.959664
-0.250698
-0.373478
-0.00338942
0.458367
0.429882
-0.747969
0.601227
-0.338425
-0.172612
-0.34165
0.230824
-0.372185
0.567689
0.340897
0.0748618
0.443271
0.459565
0.278964
0.272398
-0.79598
-0.770554
0.11216
-0.0660737
0.487209
-0.816557
0.59413
0.0912765
0.940937
-0.58839
0.801572
0.470233
0.579944
-0.205033
0.818205
-0.77083
-0.701667
-0.570585
-0.739016
-0.861288
-0.820939
0.193487
0.913887
-0.758309
0.711142
0.644461
-0.0559292
0.345207
-0.671988
0.531887
-0.516817
0.07472
0.445944
-0.589045
0.168249
-0.711044
-0.0855487
-0.165703
-0.208272
-0.0981139
0.248587
0.120213
0.565655
-0.397525
0.612649
0.404378
-0.312701
-0.958791
-0.22599
-0.364884
-0.694514
0.0262443
0.537441
-1.12942
0.972082
-0.407997
1.01927
0.633762
0.933726
-0.72561
-0.224125
0.939415
0.193149
-0.0360009
-0.940276
0.164262
0.769576
-0.567292
0.340339
0.361662
-0.91779
0.441362
-0.892301
1.00055
0.982983
-0.804738
-0.460404
0.238636
1.20554
-0.891502
-0.727909
-0.767967
0.4907
-0.515857
-0.535498
1.07927
-0.0753076
-0.856423
0.597929
-0.358959
0.151116
-0.328078
-0.524533
-0.692723
-0.0150973
0.604689
-0.00252734
0.836471
-0.42281
0.576647
-0.420489
0.342608
0.575737
0.70488
-0.173111
1.08649
-0.0560815
0.693227
-0.24065
-0.464563
-0.461986
-1.01681
0.425713
-0.903745
-0.398702
0.802861
-0.768655
0.756166
-0.208135
-0.370855
-0.25603
-0.568948
-0.83734
-0.594766
-0.0792747
-0.176234
-0.165576
0.00802913
-0.816276
-1.02425
0.421688
0.830686
0.807435
-0.896754
-0.143057
-0.859647
-0.947331
-0.764503
-0.621061
0.452859
-0.538854
0.669992
0.60509
1.04922
-0.308066
0.485183
0.279546
-0.00509791
0.949773
-1.0339
-0.167932
0.441768
0.531009
-0.357962
0.80283
0.756309
0.113513
-0.148505
-0.394634
0.986128
-0.336147
-0.864618
0.261126
-0.824815
0.591551
0.33419
0.769442
-0.117743
0.258292
0.209624
-0.637849
0.202336
-0.317778
-1.02016
-0.451301
0.579819
0.438014
0.346781
0.157686
0.434237
-0.603898
0.713558
-0.451621
-0.0907694
0.135368
-0.218652
-0.631034
0.123167
0.441805
-0.169783
0.227021
0.234174
0.478181
-0.614984
0.542
-0.326599
-0.222958
0.487629
0.81198
-0.292283
-0.420777
0.896586
1.0299
-0.248037
-0.0501628
-0.324375
0.794695
-0.492877
0.802671
-1.35959
0.348509
0.836707
-1.02288
-0.818492
-0.95079
0.262465
-0.600123
-0.179002
-0.878509
0.193696
0.110799
-0.617389
-0.339782
-0.945244
-0.32712
0.442608
0.875017
-0.67685
0.807973
-0.151857
-0.462604
0.469566
0.681162
-0.442787
-0.303451
0.455503
-0.455043
0.778022
0.555093
-0.417661
-0.705696
-0.083405
0.459451
0.573141
0.437428
-0.447445
-0.967092
-0.236982
0.0781829
-0.322191
0.672464
-0.00991922
0.687369
0.821512
0.118577
-0.266437
0.575502
-0.37606
0.136099
-0.830673
-0.853697
0.872317
0.0588724
0.321937
0.275941
0.188606
0.985814
0.650647
0.229861
0.481367
0.0412635
0.440894
-0.754259
0.365069
0.435912
0.34951
0.332674
-0.0543561
-0.885296
-0.247796
0.249402
-0.771404
0.0673391
0.309193
0.913389
0.910936
0.794347
0.812309
-0.709882
-0.247316
0.36433
0.06663
0.431118
0.64798
-0.991481
0.362059
0.482403
0.836078
0.160476
-0.958209
0.674348
0.194132
-0.450463
-0.369657
-0.988321
-0.0362784
-0.663044
-0.249789
0.0266024
0.951938
-0.664425
0.733906
0.453871
-0.178046
0.36026
-0.273243
-0.408897
-0.0778814
0.38068
-0.69602
-0.848056
0.181532
-0.0334316
0.616399
0.931694
-0.792057
0.396422
-0.0520936
-0.783496
-0.562259
-0.151663
-0.621694
-0.784258
-0.228445
-0.832809
0.108199
-0.965322
0.99305
0.998386
0.285778
0.207725
0.44979
0.551557
-0.605723
-0.797774
-0.543907
-0.231161
0.430209
-0.315227
0.892284
0.604897
0.0719742
0.632936
-0.754488
-0.400281
-0.255283
0.461251
0.589539
0.691858
-0.11844
0.789756
0.327599
-0.949488
0.83533
0.205586
-0.855645
0.275726
0.553967
-0.0986899
0.699122
0.0179951
0.594908
0.0417355
-1.10203
-0.280226
0.541023
-0.522852
0.0967779
-1.06098
0.0530378
0.0190457
0.399437
0.590272
-0.185829
-0.579246
0.672799
1.0353
-0.308188
-0.484796
0.0265749
0.209234
0.500732
-0.094283
-0.0380757
-0.0473014
-1.19443
-0.437422
0.446319
0.698608
0.0294716
-0.759199
-0.826604
0.754792
-0.124028
0.991359
0.626899
-0.809453
-0.385924
-0.117574
-0.701806
0.494564
-1.12598
0.324474
0.0487142
0.0634235
-0.496368
-0.641062
-0.864875
-0.186715
0.461574
-0.722362
0.715903
0.202162
0.623113
-0.143531
-1.13943
0.561868
0.742019
-0.921935
1.05842
0.234059
-1.03325
-0.699412
-0.631539
0.014222
-0.00047905
0.125782
-0.152632
-0.898193
0.604036
0.709376
-0.194055
-1.04256
-0.340158
-0.121476
-0.0948158
-0.0735351
-0.411781
-0.887889
-1.11939
0.0418948
-0.304543
-0.27362
0.0360132
0.371284
0.598711
-0.416187
-0.0644188
0.651651
1.03175
-1.10222
-0.679394
0.114694
0.349382
0.233514
-0.306369
-0.380781
-0.137437
-0.164568
0.187422
-0.742161
-0.890207
0.0640247
-0.0593968
0.305602
0.300978
0.190051
0.0309465
-0.0758872
0.588906
0.523836
0.906702
-0.865359
-0.678771
0.126907
0.814514
0.387781
-0.22185
-0.0240459
0.118608
0.49711
0.558251
0.761389
-0.668048
-0.367414
0.756658
-0.422835
1.28467
0.181939
0.929167
-0.237965
0.534454
0.0190351
-0.472513
0.879213
-0.103889
-0.660113
-0.748172
0.755206
-0.730956
-0.725338
-0.217706
0.159728
0.215286
-0.754831
-0.147347
-0.165573
0.0862067
0.318799
0.522058
0.480588
0.503561
-0.83737
-0.109492
0.578275
-0.171507
0.195786
0.870424
0.675642
0.436808
-0.403698
0.259357
0.153605
0.348669
-0.383967
0.16917
0.660132
0.397921
0.183466
0.12216
0.909494
0.0763578
-0.600152
0.813175
0.603422
-0.945639
-0.962045
0.306507
-0.142677
0.309034
0.848642
-0.74101
-0.704349
0.264204
-0.832155
-0.804879
0.62017
0.31804
0.416131
0.795512
-0.715954
0.181228
0.652061
0.799461
0.98978
-0.956295
-0.0150452
0.957953
-0.37126
0.103281
0.170597
-0.223137
0.361287
0.0365639
-0.533631
-0.121819
0.210425
0.0606902
0.524656
0.654472
-0.946196
-0.789494
0.552839
-0.957045
0.476165
-0.556081
-0.0172921
-0.442729
0.538731
0.397646
0.973096
-0.20246
0.687609
-0.0125189
0.574155
0.1218
0.868613
0.834428
0.535653
-0.522142
0.455385
-0.4018
0.688943
-0.961099
-0.717397
0.0430083
0.423638
-0.287202
-0.924919
-0.489796
-0.883495
0.128683
0.416589
-0.716374
-0.447797
0.217682
-0.430459
0.0363242
-0.692453
0.655371
0.0796393
0.314122
-0.478667
0.653939
0.63762
-0.564674
0.549345
-0.95256
-0.320363
-0.468537
-0.429713
0.186202
-0.291705
-0.566656
0.341087
-0.875118
-0.258567
-0.255171
0.955862
0.506922
0.48276
0.963805
0.762492
-0.311233
-0.201126
-0.264672
-0.929526
0.162486
-0.0977311
0.503941
-0.865223
0.491235
-0.427663
-0.507061
0.0211301
0.278151
-0.815726
0.5018
0.502684
-0.435397
-0.580847
0.863989
-0.64739
0.383778
-0.481753
0.372796
1.09397
0.719527
0.210421
-0.880523
0.537975
0.871952
-0.209279
-0.828445
0.789394
0.196917
0.683877
-0.30295
-0.257072
-0.135405
-0.494345
0.886328
0.299135
1.08351
0.767222
-0.269128
-0.756501
-0.908874
0.23833
-0.320986
-0.115709
0.14116
0.421491
0.734572
-0.0552554
0.357511
0.899427
-0.825617
0.836546
-0.208619
0.0207728
0.573303
0.417634
0.522154
-0.403604
-0.589194
-0.359241
-0.818189
-0.406045
-0.0153304
0.16887
0.405952
1.01862
-0.814804
0.262563
0.738993
0.378988
-0.823749
-0.841498
-0.396697
-0.357339
-0.16959
0.70979
-0.16297
-0.759059
-0.108766
-0.330751
0.00295218
0.624038
-0.51173
-0.709681
0.06294
0.511539
-0.467441
-0.893077
0.627281
-0.617481
0.228515
-0.537779
0.605395
-0.567532
0.63454
0.364071
0.315935
-0.176049
-0.317779
-0.967329
-0.532912
0.2449
0.433409
-0.168387
0.127692
0.970294
0.108656
-0.245667
0.11848
0.733744
-0.69927
-0.663913
0.826044
0.496041
-1.01156
-1.10688
-0.511739
0.546655
-0.629958
0.11574
0.716811
1.15846
0.0880429
-0.651231
0.933193
-0.226551
-0.450377
-0.0116137
-0.290953
0.0318334
-0.5389
-0.172928
-0.590951
-0.510445
0.0724811
-0.559199
-0.553789
-0.333274
-0.136333
0.478758
0.708458
-0.517659
0.781519
0.768702
-1.05493
-0.343489
-0.59395
0.13183
0.06213
0.614591
-0.574648
0.376104
0.0077155
-0.824022
-0.722903
0.028232
0.763345
1.30356
-0.787841
0.405317
1.00439
-0.55286
1.00116
0.399433
-0.147572
0.63725
-0.443257
0.817801
0.504502
0.655167
0.921218
-0.490156
0.370479
-0.690491
0.5971
-0.64475
0.965374
0.575117
-0.147851
-0.8205
-0.733156
-0.70951
-0.218486
-0.00602214
0.30471
0.363843
0.184369
0.217633
-0.73001
-0.640512
1.00153
0.16394
0.941155
0.142552
-0.936069
-0.871491
0.171612
-0.699251
-0.71744
0.800758
-0.218995
-0.107807
0.850912
-0.988269
0.677689
0.540288
-0.120285
-0.290394
-0.265313
-0.0788788
0.585031
0.158949
0.424039
-0.611906
0.230127
0.903822
-0.430772
-0.402386
0.729559
-0.00307059
0.944542
-0.266164
-0.218336
-0.861942
-0.831652
0.786417
0.764011
0.935368
-0.578487
0.0736689
0.203109
0.958406
-0.675451
0.603179
0.403917
0.573857
0.907553
-0.00923793
0.258801
0.962057
0.491301
0.142983
0.12078
-0.494839
0.842059
-0.872271
-0.876862
0.541474
0.79428
0.674559
-0.633324
-0.442354
-0.107395
0.215569
-0.950326
0.97968
0.739778
-0.547927
0.742768
0.74514
0.07632
-0.0539855
-0.26195
0.542437
0.696995
0.841626
0.358569
-0.897155
0.0450786
0.230311
0.916566
-0.365239
-0.44603
-0.178518
0.543065
0.900392
0.10789
-0.841583
0.585507
0.361652
0.10041
-0.124041
0.234584
-0.763126
0.00177208
-0.418999
-0.0317895
0.661458
-0.266855
0.275876
0.20674
-0.164942
0.163142
0.442051
0.690134
0.888896
-0.731189
-0.859389
0.334133
-0.149953
-0.0774682
-0.912396
-0.535361
0.734728
0.847766
-0.234708
0.239585
-0.340771
0.830854
-0.551656
-0.708454
-0.339212
0.523544
-0.0523752
-0.949618
-0.797918
-0.141841
0.107912
0.43727
0.321473
0.169415
-0.804549
0.658977
-0.487629
-0.857291
0.577703
-0.347655
-0.689492
-0.206844
-0.381075
0.436886
0.78967
0.31117
-0.620568
-0.942216
0.363781
-0.372228
-0.334781
1.02913
-0.155399
0.699977
0.662255
-1.02875
0.748568
-0.600721
0.624964
0.254705
-0.701255
0.200483
0.386826
0.811537
0.897493
-0.909823
0.332092
0.101872
-0.0702506
0.306398
0.59221
-0.00695792
0.945173
-0.253438
0.321339
-0.727226
-0.0639384
-0.944872
-0.49755
-0.563086
0.316664
-0.589168
-0.748202
0.273076
-0.219189
-0.308949
0.616321
0.643937
-0.995217
-0.624202
0.268634
0.724551
-0.330917
0.812587
0.228825
-0.112263
0.00242017
-0.708684
0.625414
0.650705
-0.931057
0.641973
0.545791
-0.822918
0.449502
-0.197185
0.785034
-0.045993
-0.68111
-0.483423
-0.771584
-0.646988
0.824214
-0.339856
0.715783
0.771177
0.390823
0.66863
0.213345
-0.585155
1.1494
-0.976721
0.295915
-0.285973
0.318365
-0.118813
-0.992264
0.65065
-0.469559
-0.79056
-0.166749
-0.0718911
-0.881106
-0.0327438
-0.0548501
0.931142
0.0420079
-0.719091
-0.0194196
-0.663824
-0.899071
-0.381239
1.05651
0.861122
-0.517088
-0.0502743
0.152714
0.507185
-0.665916
-0.39511
-0.419656
-0.411714
-0.379727
-0.121432
-0.582153
0.615183
0.341381
0.285549
-0.88323
0.058216
0.67621
-1.01076
0.620453
0.479171
-0.228398
-0.743993
-0.41131
-0.244296
-0.391834
0.53188
0.752503
-0.578701
1.11196
-0.931216
1.44518
-0.692467
0.243388
-0.28982
0.132952
-0.156005
-0.779046
-0.0933968
-0.21891
1.1734
-0.0700003
-0.383925
0.432876
0.719377
1.1817
0.419665
0.829625
0.411352
-0.372802
-0.735201
0.997295
0.770743
-0.00907277
0.518817
0.0706074
-0.749301
-0.333333
0.553678
0.613584
-0.638953
-0.630185
0.0744404
0.189656
-0.622161
1.03285
-0.731332
-1.05845
0.441616
0.17535
-0.87487
0.763389
0.879278
-0.961963
0.270728
0.923449
-0.847303
-0.599866
-0.642993
0.891642
0.691374
0.650192
-0.00860773
-0.902873
0.209444
-0.334492
-0.11098
0.563263
0.50159
-0.826226
-0.494902
-0.499305
0.0175343
-0.544946
-0.178021
-0.291437
-0.0226144
0.608066
-0.521594
0.518267
0.528752
0.89147
0.452023
0.722405
0.677112
-0.342209
-0.0423244
-0.26071
-0.035598
0.275188
-0.686289
-0.518257
-0.132318
0.694736
0.363075
0.0567082
-0.202623
0.715003
0.035701
0.607442
-0.796232
0.306143
0.774522
0.201052
0.328538
-0.736609
0.0641039
0.194804
0.423876
-0.542856
0.214641
-0.383385
-0.704985
-0.133537
0.126354
-0.502028
-0.282602
-0.823148
0.687454
0.20607
-0.961341
-0.576839
-0.736314
0.191833
-0.469298
0.924208
0.575403
-0.5643
-0.186656
-0.89576
-0.119397
-0.245512
0.849294
0.981544
0.735845
-0.866459
0.179109
0.383324
-0.211061
0.593939
-0.0774822
-0.620633
-0.154219
0.815778
-0.274195
0.920429
0.276574
-0.593472
0.608886
-0.858532
0.76633
-0.545559
-0.0844213
0.627639
0.479866
-0.596082
-0.679137
0.0916406
-0.567808
-0.144627
-0.860919
0.173001
-0.0480372
0.210981
0.0614325
0.923482
0.881057
0.828462
0.297656
-0.117251
-0.362367
0.498744
0.233621
-0.596435
-0.111242
-0.763075
0.0376192
0.879781
0.368717
-0.103587
0.648522
0.412203
0.490236
0.640933
-0.545225
0.981609
-0.960337
0.197343
0.783529
-0.515059
-0.363943
0.386501
-0.863421
-1.00147
0.248773
0.178343
-0.59224
0.777657
-0.672094
-0.98342
-1.05412
0.719788
-0.139886
-0.892145
-0.869186
-1.02025
0.987816
-0.174955
0.613409
-0.339028
-0.21691
-0.0915999
0.799895
-0.0185741
-0.828582
-0.653384
0.482171
-0.9728
0.0101353
-0.846943
0.609
-0.556016
0.13433
0.323103
-0.992409
-0.841953
0.584412
-0.0507059
0.0648078
0.348329
-0.159788
-0.832321
0.805914
-0.0317885
0.601702
-0.0611657
-0.877238
-0.795087
1.11058
0.296804
-0.594954
-0.163088
-0.132514
-0.791919
0.918528
0.245983
-0.0267922
-0.751335
0.246017
0.290834
0.546085
-0.452412
0.831396
-0.320227
-0.658599
0.1122
-0.920172
-0.382355
-0.83319
-0.124352
0.0104896
0.867939
0.297333
-1.11052
0.6388
1.06166
-0.00668941
0.412162
0.998089
-0.849362
-0.840485
-0.14829
0.622235
0.322908
-0.628932
-0.313921
-0.409033
0.928929
1.06164
-0.613043
1.15933
0.407936
0.80521
-0.574046
0.29129
-0.620061
-0.721777
-0.388252
0.742877
0.865724
-0.712036
1.12444
0.00354656
-0.650296
-0.883017
0.372917
-0.232886
0.799658
0.846405
0.0486558
0.442878
0.303916
1.17515
0.774486
0.0505413
-0.442838
-0.869065
0.319526
0.0909877
0.92542
0.707577
-0.332956
0.287836
0.730146
0.957408
0.732517
-0.962801
0.559646
0.00648729
0.794349
-0.951696
0.345399
-0.208914
0.217724
0.40841
-0.210569
0.594018
0.341335
1.28467
0.631643
1.11033
-0.0207767
0.432665
-0.36885
0.193402
0.680767
-0.642438
-0.852313
-0.314677
0.335932
-0.154153
-0.453073
0.398628
-0.702382
-0.487803
0.0439388
-0.0340855
0.421898
-0.377478
-0.80327
-0.748599
0.669115
0.232667
-0.836907
0.489612
-0.952456
1.19834
0.841515
0.843981
-0.841434
-0.188728
0.692206
0.739319
0.730343
0.628533
-0.51686
1.01052
0.31037
0.541596
0.0229343
-0.759786
-0.384995
0.557874
0.953993
0.186961
0.146415
-0.909134
-0.404338
-0.418488
0.969662
-0.967745
-0.944177
0.498925
0.352038
-0.486357
0.324611
0.0107087
0.919789
0.81456
0.768256
-0.0217757
-0.433839
-0.236491
-0.678469
-0.411129
-0.136871
0.653357
0.578414
-0.136945
0.810839
-0.0724402
-0.0837341
-0.11685
0.141452
0.842307
0.250269
-0.916815
0.783768
-0.753206
-0.945919
-0.933865
-0.433401
0.279012
0.264689
-0.0190784
-0.356035
0.689309
-0.607207
-0.493194
0.190484
0.0140047
-0.274886
0.737491
-0.238506
-0.54428
0.192536
-0.157
-0.10309
-0.482256
0.953578
0.848903
-0.885618
0.0328325
-0.167082
-0.708652
-0.174211
0.622129
0.0668536
-0.791468
-0.296281
-0.676695
0.629609
-0.083156
-0.0709272
-0.931336
0.480935
-0.443616
-0.320892
-0.272666
0.678412
0.160736
0.847002
0.931705
0.491898
0.259446
-0.907781
-0.8604
0.215782
-0.903458
-0.803927
0.916929
-0.202836
-0.539524
0.0794377
-0.840079
0.784845
-0.671942
0.498737
-0.538505
-0.966067
0.980278
-0.634104
-0.915958
-0.141878
-0.0906769
0.126268
-0.070011
-0.136616
-0.528745
-0.367545
0.948279
-0.948535
-0.915652
0.185944
-0.311025
-0.0776954
-0.612556
0.843877
-0.104295
-0.800694
0.225939
0.338414
-0.0578637
-0.182304
-0.441743
0.754729
-0.264815
-0.146994
0.286596
-0.0778397
0.142066
-0.768239
0.231189
0.124769
0.961783
-0.930466
-0.683766
-0.618329
0.854206
0.404754
0.827453
0.610781
0.270407
0.698056
-0.859915
0.897185
-0.196316
-1.03234
-0.843759
-0.75899
-0.837165
0.644297
-0.181904
-0.253195
0.81388
-0.608975
0.904237
0.500088
0.382651
0.457272
-0.350418
1.10252
-0.293419
0.0794067
0.492017
-0.231135
0.463454
0.958347
-0.0954549
0.0887327
0.531424
1.10288
1.2031
0.171364
-0.507675
-0.214744
0.592054
0.676594
-0.589041
0.752802
0.830015
-0.750294
0.93076
-0.237931
-1.0868
0.681597
-0.224145
0.61859
0.451998
0.757926
-0.0540297
0.196617
-0.763452
-0.0454779
-0.885172
0.172358
-0.739611
0.797263
0.546004
0.599063
-0.270833
-0.328762
-0.421902
-1.1363
-0.639304
0.766916
-0.483478
-0.0709137
0.122038
0.812384
0.568262
-0.702899
-0.673876
-0.0753486
-1.03435
0.618026
-0.230939
0.0545573
0.465002
-0.578175
-0.151361
0.0893456
-0.706266
-0.705714
-0.878719
0.287719
-0.377315
0.947459
0.671868
-0.487008
-0.759164
0.696733
-0.0112558
0.0728597
-0.302956
-0.607856
-0.705526
0.662577
-0.307765
0.909744
0.742289
0.6012
-0.0456978
0.651546
-0.498035
0.984818
0.0369359
-0.587604
0.0900565
-0.50419
-0.928696
1.08736
0.28462
-0.440594
0.133846
0.614709
0.0652195
0.659063
-0.015001
-0.304687
0.364662
-0.638602
0.526441
0.414187
-0.724822
0.625433
0.895548
0.601629
-0.0418456
0.475578
0.164125
-0.81135
-0.343585
-0.452166
1.01704
-0.650659
0.833118
-0.72198
-0.658041
0.442357
-0.286954
0.394981
-0.232709
-0.684899
-0.119457
-0.747672
0.489037
-0.683268
0.521144
0.757035
0.88208
0.980876
0.790783
0.610576
0.68664
0.683603
1.06291
0.630808
0.736045
-0.201386
0.230002
-0.218687
0.815459
-0.185756
0.903676
-0.256665
1.04762
0.215805
0.468818
-0.605183
-0.882691
-0.639962
0.770246
-0.774018
0.085945
-0.536107
-0.0572712
-0.592726
-0.60367
-0.57981
-0.17661
0.454956
-0.930898
0.758499
0.644794
-0.043718
-0.105047
0.438287
0.193615
0.775234
-0.669464
0.440579
0.944683
0.0915494
-0.770672
0.0603782
-0.958427
0.869884
0.726728
0.959051
0.222551
-0.401075
-0.687197
-0.7001
0.482715
-0.655169
-0.876475
-0.994419
0.718208
0.593018
-0.86347
0.0920774
0.776096
-0.361177
0.879662
-0.495447
-0.535833
-0.0505275
-0.812863
-0.556371
0.238187
0.887227
0.0376979
-0.849901
0.436847
-0.253338
-0.756972
0.39485
-0.191986
-0.467592
-0.754091
0.841709
0.935995
-0.0743455
0.0348733
-0.109397
-0.958312
-0.762861
-0.756382
0.479348
0.962982
0.984072
0.543155
0.226717
0.893617
0.888137
-0.900631
-0.3491
-0.644024
0.283315
0.870447
0.373849
-0.6394
0.241628
-0.966906
0.676911
-0.582047
0.368746
0.138919
0.834521
-0.681197
0.878973
0.855302
0.838082
-0.222124
0.604979
-0.587875
0.882093
-0.663366
-0.145122
-0.451171
0.919321
-0.281728
-0.385996
0.918249
-0.916742
-0.936894
-0.892789
0.750399
-0.316648
-0.476459
0.343687
-0.246103
-0.991371
0.474477
-0.626409
-0.619335
-0.735023
0.715824
-0.460145
-0.789554
0.422068
0.572684
0.380988
0.571323
-0.0867595
0.0863994
-0.895144
-0.0137333
0.627623
0.652781
-0.481286
0.408233
-0.00572846
-0.0405269
-0.440084
0.813449
-0.192585
-0.114959
-0.0341762
0.539787
0.93002
0.219049
0.0732417
0.126057
-0.103669
0.417337
-0.670969
-0.608162
-0.984025
0.410187
0.756318
0.767217
-0.326907
-0.177959
-0.214942
0.641259
-0.0431418
-0.0121575
-0.779258
0.0920413
0.690464
-0.349116
0.978455
0.808271
-0.715596
-1.03496
-0.111707
0.696915
-0.633146
0.0452038
-0.224636
0.653917
0.774266
0.618248
-0.549358
0.522121
-0.530113
0.577891
-0.0492499
0.734374
-0.201175
-0.854465
-0.792573
-0.290549
-0.0105967
-0.543468
-0.363566
0.018194
-0.417314
-0.279217
0.237965
0.00187988
-0.885896
-0.0657257
-0.743781
1.01922
0.0332068
-1.07952
-0.73951
-0.683242
0.440537
0.721871
0.348846
-0.0294115
-0.717795
-0.477272
-0.166669
0.622316
-1.11324
-0.0563073
0.629837
0.235834
0.955688
-0.328537
0.499746
0.788028
-0.191902
1.0199
0.424367
0.174186
-0.388213
-0.461101
0.00862429
0.435657
-0.219373
0.523441
0.336278
-0.712391
-0.88189
0.318705
0.234076
0.00996761
0.861544
-0.360013
-0.709231
-0.543837
-0.156599
-0.695663
0.322315
-0.0566149
0.235099
0.412693
-0.247913
0.237225
0.463328
0.165788
-0.726157
0.767588
0.682806
0.64387
-0.00185306
0.610035
-0.924207
-0.829883
1.10588
-0.188008
0.10777
0.277197
0.680319
-0.291588
0.535327
-0.448378
0.377536
0.493975
-0.34511
0.403474
-0.11667
0.196756
0.875072
-0.0707345
0.821609
0.243351
-0.306428
-0.157512
-0.362521
0.352518
0.404503
0.724035
0.0421358
0.805748
0.249658
-0.357033
0.209861
-0.225555
0.636814
0.487662
0.23782
0.0509039
-0.621076
0.0426056
0.599262
-0.384951
-0.603814
0.177053
-0.066615
-0.0166608
-0.78832
-1.02721
0.871724
0.962884
-0.715848
-0.651246
0.514918
-0.564885
0.0905084
-0.706497
-0.330487
0.33733
0.183553
0.693285
-0.922334
0.93792
0.0802343
0.852696
-0.59512
0.0550587
-0.0959823
-0.198586
0.766395
-0.329259
0.34219
0.203859
-0.922998
0.310603
0.327553
-0.808692
0.373331
-0.46439
0.578521
-0.574859
-0.16478
-0.421357
0.952515
0.542929
0.97636
0.139728
0.419489
-0.00432896
0.52244
-0.608099
-0.260917
0.976949
0.0106687
-0.866842
0.546192
-0.306271
0.506886
0.18131
0.232544
0.412947
-0.645526
0.323222
-0.807904
-0.509758
0.0561421
-0.316961
0.721588
-0.826005
0.730867
0.0826551
-0.968522
-0.917235
-0.819925
0.646827
0.0901589
-0.23702
0.60156
-0.553008
0.00614189
-0.580764
0.584679
-0.497328
-0.292236
-0.877186
-0.549994
-0.771171
-0.36802
0.996823
0.46338
-0.704948
-0.403231
-0.437841
0.18856
0.105518
-0.272878
0.808613
0.416035
0.364933
-0.581939
0.119488
-0.374157
0.451599
-0.538185
0.909863
0.326635
-0.971794
-0.369252
-0.2569
0.0828305
0.444251
0.56248
-0.705341
0.568291
-0.567684
0.865484
0.77636
0.309313
-0.960617
0.366422
0.877742
0.498151
-0.596879
-0.662344
-0.931853
0.301521
-0.816465
-0.229647
0.875929
0.729701
0.750594
-0.945493
0.218199
-0.586921
0.89176
-0.0306377
-0.571971
-0.870701
-0.0693027
-0.756951
0.0862156
0.55437
-0.855047
-0.666125
-0.975807
-0.575135
0.565149
0.818794
-0.114081
0.550767
-0.434611
-0.795102
0.540122
-0.669824
0.84499
0.241441
-0.907043
-0.056141
-0.415114
-0.532125
-0.206464
0.940638
0.778859
-0.321279
0.3895
0.729696
-0.890329
-0.271997
-0.742141
-0.500378
0.197921
0.788681
-0.797432
-0.558241
-0.0439443
-0.0850893
-0.442501
0.346952
0.325375
0.252509
-0.380697
-0.0436958
0.458748
0.704289
-1.18899
-0.566583
-0.749599
0.68974
0.418166
-1.17975
-0.855326
0.86059
0.95982
-0.260173
0.106039
-1.31164
-0.416533
-0.601646
0.234592
0.349671
-0.754226
-0.542711
-0.266041
-0.0814194
0.0277633
-0.351722
-0.428112
0.77279
0.275181
-0.474321
0.00211566
-1.5728
-0.244585
-1.05291
0.664436
-0.527443
-0.490284
0.829977
0.476889
-0.392552
0.457143
0.259103
-1.15075
-0.27524
-0.388339
-0.640379
-0.0745197
0.43808
-0.024617
-0.00823648
-0.412383
0.818098
-0.599882
-0.817592
-0.420211
0.904642
-0.739432
0.903891
-0.738244
-1.00309
0.873049
0.424685
0.695637
0.13061
-0.850354
-0.388738
-0.202808
0.531179
0.186322
-0.481276
0.783048
0.575157
0.0981601
-0.0507821
0.15138
-1.01149
0.477326
0.599582
0.493292
0.766355
-0.751172
-1.00759
-0.691016
-0.713184
-0.814156
0.441126
0.162383
-0.116312
0.348286
-1.21297
-0.537519
-0.707924
-0.168272
0.975354
-0.603795
-0.855848
0.391064
0.0922037
0.147559
0.737187
-0.710423
-0.684002
-0.698785
0.574946
1.00816
-0.436809
1.14465
0.0483194
0.0801478
-0.128378
-1.04076
-1.21043
0.184799
0.299916
0.130471
0.259995
-0.122465
-0.363676
0.776606
0.599952
0.33584
-0.760284
-0.507161
0.0366223
-0.345578
0.02945
0.684423
-0.60145
-0.380303
0.791982
-0.379248
0.0764522
0.299299
-1.04309
-0.73777
0.884787
0.55239
-0.546397
-0.748173
0.145098
-0.422548
-0.400828
-0.0662878
0.352849
0.227997
0.709729
0.179785
-0.863533
-0.222804
0.0634151
-0.713291
0.66312
-0.163842
-0.0839126
0.893221
-0.258211
-0.978556
0.416141
0.303707
0.684077
0.701423
0.265029
-0.33172
-0.71849
0.222906
-0.228079
-0.176539
-0.639584
0.520784
0.215353
-0.918804
-0.431665
0.432845
-0.277224
0.408239
-0.364078
-0.958098
0.10037
0.89439
-0.204088
-0.711134
0.0265511
-0.016426
-0.330135
-0.257798
-0.680523
-0.646387
-0.358242
-0.450126
0.807845
-0.234263
-0.276044
-0.641652
0.667778
-0.299286
0.646584
0.494573
-0.984121
0.24694
-0.0344613
-0.743768
-0.555956
0.146366
-0.364352
-0.934685
-0.773685
0.122258
0.157663
0.624399
0.456314
0.0546468
0.169192
0.259392
0.668641
-0.357065
-0.632665
-0.869821
0.748134
-0.212505
-0.883183
-0.943139
0.864158
0.734129
0.58033
-0.746232
-0.596861
0.704347
-0.231937
0.673697
0.955779
-0.388929
-0.246981
0.381232
0.960924
1.03224
-0.1902
-0.573654
-0.322009
0.713119
0.937141
-0.835914
0.450044
0.735997
-0.159109
0.0395976
-0.0637167
-0.080839
0.686311
-0.0413766
0.675913
-0.296183
0.201646
-0.304394
-0.00680032
-0.0095925
0.231408
0.618026
-0.187057
-0.342874
-0.544882
0.519482
0.35577
0.446657
0.532146
-0.117232
-0.600805
-0.873059
-0.970217
0.424538
0.379749
0.122378
-0.527177
-0.446334
-0.627598
-1.01106
-0.646319
-0.146533
-0.765608
-0.071646
0.949759
1.03044
-0.293016
0.695791
0.81693
0.37561
-1.02986
0.542086
-0.600306
0.491931
-0.547437
-0.672894
-0.803469
-0.654097
-0.414958
0.135944
-0.83492
-0.173565
-1.06002
-0.315738
0.306059
-0.80707
0.187423
-0.510533
0.138833
-0.366022
-0.76638
0.0966348
0.41193
0.470506
-0.300449
0.513017
-0.498133
-1.17275
0.142494
0.011698
-0.828193
-0.0905804
0.702523
-0.349253
-0.953284
0.615963
-0.882318
0.623166
-1.16573
0.876708
-0.462215
0.452217
0.736406
0.619835
0.841382
0.163682
0.896007
0.453659
0.618315
-0.981958
0.374092
-0.439402
-0.0525494
0.946966
-0.420607
0.11693
0.887261
-0.928482
0.395948
0.0635238
1.00607
0.705759
-0.692915
0.414399
0.54744
0.189627
0.0773412
0.210626
0.76505
-0.109164
-0.686211
1.03164
-1.5006
-1.24777
0.359743
0.489649
-0.221096
0.863306
0.964705
0.852793
-0.819253
-0.908282
-0.856361
0.115059
0.67473
-0.251503
0.616269
-1.21976
-0.741228
-0.293827
0.332225
0.0285342
0.287153
0.64337
-0.182267
-0.361986
0.81961
-0.995459
0.110862
1.07582
-0.0295695
-1.13672
-0.260461
-0.0568181
0.491291
-0.570066
0.920928
0.135905
1.16163
0.0659228
-0.762551
-1.12764
0.453351
-0.692596
-0.67479
-0.220072
0.802131
0.41475
-0.536097
-0.645737
-0.689092
0.549726
0.88683
-1.32759
-0.730361
-0.724505
0.263987
-0.116071
0.635578
0.502431
0.659417
0.128651
0.179687
-0.422753
0.2022
-0.990623
0.251371
-0.202587
1.20989
-0.186614
0.564865
0.943433
0.954291
0.602053
-0.380653
-0.348489
-0.956298
-0.360671
-0.484576
0.888949
0.887302
0.382385
0.498078
0.655229
0.605043
0.232922
0.206868
0.941645
-0.478197
0.00744302
0.558375
0.407767
0.282031
-0.778218
-0.455839
-0.486209
-0.468585
-0.27806
0.0218692
0.771523
0.82192
0.256745
-0.918055
0.234456
0.9047
0.96929
0.212765
-0.634322
-0.941448
-0.846193
0.708249
0.618956
0.746603
0.808252
-0.0488458
-0.577577
-0.451857
0.794588
0.449316
-0.0996202
0.259769
-0.403162
-0.445192
-0.0461661
-0.289673
-0.543807
0.355205
0.662351
-0.5239
-0.0948556
-0.712916
0.32657
0.263558
-0.216843
-0.569212
0.2314
0.0344017
-0.552055
-0.383006
-0.0321685
0.243
0.404223
0.75783
-0.905177
-0.438599
0.326456
-0.924784
0.252832
-0.482634
-0.922078
0.274006
-0.828593
-0.877445
0.644652
0.317791
0.0214874
0.565701
-0.331401
0.273092
-0.80795
0.424034
-0.938696
-0.889295
-0.300389
0.69499
0.736103
0.938687
-0.417893
0.919102
-0.770295
-0.424987
0.194178
0.63922
0.197349
-0.792251
0.431057
-0.648091
0.353137
0.153523
0.238326
0.920425
-0.031719
0.335015
-0.426406
0.63571
0.776795
0.350046
-0.165485
-0.527878
0.573341
0.878321
0.70531
-0.373562
1.01426
0.97564
0.0975449
-0.634451
-0.090523
-0.235454
0.939707
0.975446
-0.040827
0.121882
0.723261
-0.0714937
-0.281476
-0.90326
-0.555511
0.704389
0.306006
-0.592452
-0.788782
0.168664
0.554272
0.50745
0.220065
0.45157
-0.170261
0.415761
-0.630997
-0.924529
0.706
0.507916
0.566709
-0.862979
-1.07088
0.908697
0.720667
0.442944
-0.861926
0.433638
-0.0632168
-0.192692
0.768461
-0.18346
0.162812
0.0962108
-0.778225
0.237251
-0.420638
-0.648507
-0.713723
0.204967
0.497716
-0.777301
0.419492
-0.916144
-0.844222
0.262746
0.263949
0.819389
-0.699103
0.612979
0.264566
-0.639964
0.3239
0.0951298
0.460109
0.962326
0.676707
-0.0762831
0.274651
-0.119199
0.11162
-0.250437
-1.02601
0.296035
0.541307
0.0996614
0.427502
-0.475252
-0.502137
0.518219
-0.693873
-0.454189
0.396655
0.133883
-0.372252
-0.605706
-0.895862
-1.08689
-0.207688
-0.791396
-0.714608
0.176195
-0.91696
-0.192704
-0.131245
-0.38081
-0.696539
-0.102874
0.411722
-1.03893
0.0935531
-0.36866
-0.607664
0.105261
-0.385796
-0.971487
-0.692283
0.421457
0.78612
-1.35028
0.534015
0.914869
-0.662069
0.512167
0.579002
-0.564901
0.628379
-0.208268
-0.265458
-0.624561
-0.37647
-0.277925
-0.723829
0.648085
1.10275
0.051947
-0.337307
-0.826006
-1.3931
-0.5825
0.554726
-0.49132
0.308518
-0.0735962
-0.139203
-0.61911
0.231753
0.387479
0.051494
-0.174637
0.245892
-0.574534
0.720016
-0.618675
0.209811
0.5905
-0.00148425
0.946049
-0.391086
-0.509268
-0.699638
-0.497298
1.11878
0.51164
-0.961912
-0.0668108
-0.825679
0.777593
0.583172
0.212065
-0.309549
0.439577
-0.83661
-0.839495
0.170005
-0.921388
-0.713862
-0.0546094
0.152281
-0.272898
-0.296072
-0.893943
1.34924
-0.660913
1.17041
0.513034
0.624602
0.3439
-0.915274
0.233788
-0.907829
0.00932438
0.64769
1.26863
0.212467
-0.102008
-0.196934
0.204845
0.168145
0.626234
0.467481
0.148706
-0.732571
0.159114
-0.52008
-0.810764
0.95801
0.72185
1.0034
-0.636509
-0.663656
0.148184
0.4145
-0.320407
0.00495364
-0.587076
0.395135
-0.825622
-0.542337
-0.766768
-0.389757
-0.438918
-0.33546
-0.853156
-0.733691
-0.843349
-0.745707
0.0344418
-0.706964
0.616991
-0.0622357
0.75861
0.878377
0.0442178
-0.86745
-0.978088
0.925248
-0.459508
-0.356265
-0.626033
-0.314652
-0.841613
0.55833
0.936703
-0.898523
0.0433664
0.903178
-0.156208
0.570259
-0.963407
0.503264
-0.220221
0.590756
0.757349
-0.674314
-0.883088
0.585233
-0.398754
0.316535
-0.817133
-0.734326
0.868542
-0.429181
-0.856808
0.193784
0.291585
-0.841789
-0.603558
0.60151
0.407057
-0.939411
0.240434
0.913013
0.780881
-0.520399
0.329071
0.00998049
-0.0602915
-0.229432
-0.920986
-0.46705
-0.474004
-0.625942
0.301926
0.990967
-0.20515
-0.952506
-0.476185
0.101364
0.0160891
0.00716625
0.743095
-0.262394
-0.986752
-0.730398
-0.845753
0.363115
-0.533326
-0.594299
0.309709
0.623379
0.627141
0.390619
0.0745345
-0.826793
0.572739
-0.737057
-0.986472
-0.323905
-0.279847
-0.0856298
0.933527
-0.56742
-0.566587
-0.411738
0.821685
-0.667006
0.188942
0.478257
-0.946972
-0.836341
-0.795092
-0.641829
-0.153778
0.0077581
0.314126
-0.474247
0.979173
-0.0590825
-0.0310106
-0.307072
-0.622919
-0.111869
0.975213
-0.0637839
-0.418253
-0.0394499
0.342985
-0.127122
-0.727431
0.148482
0.0369934
0.564674
0.0381473
0.472736
0.451901
-0.198201
0.36992
0.0280809
0.205636
-0.950271
0.36102
-0.436198
-0.132832
-0.427764
0.698142
0.670874
-0.791599
-0.722717
-0.718582
-0.261149
0.15304
0.325318
0.760554
0.117922
0.556743
0.733927
0.761553
0.472045
-0.322658
0.45342
0.473349
0.0827134
-0.338156
0.442747
0.61357
0.629087
-0.69731
-0.0144601
-0.976865
-0.721463
-0.641745
-0.540681
0.570917
-0.164053
-0.341767
-1.00889
0.170475
0.0158902
0.37158
-1.13018
0.256027
-0.412019
0.132146
-0.455979
-0.361883
0.758059
-0.851817
-0.186609
0.395707
0.715374
0.3237
-0.403286
-0.20792
0.259205
0.992123
-0.0497241
-0.319979
-0.0126274
1.35914
-0.352823
-0.46414
0.46332
-0.318507
0.597641
0.362347
-1.12604
0.246202
-0.815045
0.293758
0.673856
-0.62097
0.368427
-0.202023
-0.273134
0.996587
-1.10181
-1.14447
0.383701
-0.773093
0.406095
-0.538548
0.168414
0.40152
-0.63053
0.271678
0.740344
-0.978477
-0.412838
-0.862933
0.619625
0.887504
0.774515
-0.418896
-0.0221592
0.82891
-0.541948
-1.06074
0.240444
-0.876858
-0.346771
-0.700757
0.460094
-0.462697
-0.113106
-0.2093
1.12347
-0.296746
-0.923439
-0.28531
0.311872
0.521
-0.873444
1.10134
-0.738505
-0.319761
0.189436
-0.336541
-0.499196
0.647127
-1.02367
-0.471444
-0.789883
0.818921
0.767217
0.264757
-0.368628
-0.299045
-0.601805
0.0125985
0.654893
0.82186
0.0458099
0.736812
-0.936186
0.597804
0.175376
-0.919058
0.494771
-0.630472
0.773878
-0.544463
-0.568205
0.659148
-0.76445
0.627435
0.698044
0.735622
0.795682
0.0207849
0.431453
1.47402
-0.475095
0.707984
0.430094
-0.489096
0.505258
-0.0667956
-0.99244
-0.832557
-0.0590826
-0.807937
0.00439592
-0.570203
-0.276397
0.692712
0.410777
-0.575165
-0.557824
0.49933
-0.231828
0.601457
0.968553
-0.127135
0.963949
-0.210717
-0.358693
-0.37527
0.10487
0.233519
-0.527768
-0.523409
0.345958
-0.416416
-0.495421
-0.619534
0.614541
0.285722
0.175377
-0.881941
0.993396
0.157671
0.327446
-0.0987059
-0.0251316
0.985506
0.375174
-0.0690297
0.386122
0.77366
0.935844
0.380777
-0.755033
0.0857628
-0.912715
0.208344
-0.326558
-0.258149
-0.675354
0.187766
-0.449565
-0.526409
-0.233565
-0.070975
-0.283436
-0.0520368
-0.556507
0.919166
-0.141707
-0.174839
-0.409388
-0.13779
0.865123
0.195943
0.892711
-0.406573
0.187724
-0.163007
0.601294
0.46834
-0.179732
-0.627116
-0.6308
0.25419
0.456421
0.414332
0.598641
0.0841311
-0.82652
-0.024834
-0.157703
0.00346203
-0.304763
0.48699
-0.24959
-0.155898
0.909101
0.586506
-0.0542906
0.00249521
-0.263352
0.0800336
-0.207075
-0.143053
-0.276151
0.93139
-0.622789
0.577638
0.769941
0.441898
0.628835
0.320442
-0.578496
-0.58251
-0.236299
-0.27105
0.0799169
0.734188
-0.752697
0.727079
-0.640724
0.281376
-0.177267
-0.120818
0.0808846
0.772305
-0.880104
-0.861995
-0.0120291
-0.121546
0.17269
0.571314
0.895014
-0.332098
0.0486012
-0.14168
-0.711723
-0.0254174
0.0199075
-0.96773
0.286165
-0.299438
-0.749317
0.136081
-0.519533
0.282862
-0.0647542
0.727012
-0.163388
-0.110951
-0.653036
-0.756201
-0.0867576
0.803097
0.971433
-0.967085
-0.454964
-0.786908
0.153656
-0.750093
0.720471
0.70814
0.78539
-0.0745981
-0.269534
-0.384474
0.219583
-0.902945
0.143161
0.226352
-0.791602
-0.785161
-0.745062
0.493318
0.0119099
-0.808036
-0.0865006
0.624871
-0.0517828
-0.271993
0.421229
-0.57959
-0.594106
0.605818
-0.640464
-0.151356
-0.193228
0.896919
0.239952
-0.72328
0.609281
0.121163
0.331352
-1.17312
0.375688
-0.383415
-0.414096
1.23387
0.318925
-0.870777
-0.192588
-0.37854
-0.0683557
-0.422991
-0.889954
0.783053
-0.835653
-0.16065
0.727456
0.171186
0.452815
-0.566548
0.645406
0.126908
-0.245274
-0.570382
0.695711
-0.514416
-0.656923
-0.340613
0.246781
0.442439
0.718737
0.584044
0.239548
0.176302
-0.223973
0.79207
-0.0101022
0.540532
-1.06504
1.2972
0.303794
-0.225855
-0.25422
-1.0231
-0.626981
-0.351501
-0.776119
-0.63968
-0.549465
-0.990798
1.35172
0.651747
0.154567
-0.626727
-0.463378
-1.17078
1.14409
0.317509
-0.750155
-0.883171
-0.375621
0.0453144
0.526395
-0.507443
-0.939775
1.08882
0.114769
0.00337297
-0.281955
-0.882261
-0.277737
0.266209
-0.10474
0.109484
0.422927
-1.11604
0.169968
-0.627063
0.921393
1.02469
0.971734
-0.644824
-0.785502
0.482195
-0.223416
-1.25449
-0.42895
0.774789
0.604012
0.537613
-0.480585
0.441467
0.862063
-0.715941
0.104291
1.03493
-0.978506
-0.526863
-0.0147382
0.472907
-0.757268
0.950077
-0.0510997
0.591475
-0.801769
-0.611282
-0.346457
0.436192
-0.536783
-1.30485
0.223329
-0.0746132
0.354178
-0.0365695
-0.499162
-1.11477
0.573774
0.756635
0.0844174
0.32423
0.103412
0.582183
-0.531595
0.217188
0.0462876
-0.424381
-0.802996
0.580004
-0.359115
-0.500798
0.079803
-0.19135
0.919061
-0.474119
0.475718
-0.338254
-0.510876
-0.394799
-0.149503
0.219146
-0.606147
0.229445
0.824718
-0.789815
-0.291987
-0.739624
0.683543
-0.313667
-0.833392
0.744184
-0.575651
-0.281423
-0.885809
0.500246
-0.948024
0.916837
0.5189
-0.992338
0.254042
0.863685
-0.36557
-0.0122066
-0.950772
0.443284
-0.0591982
0.469906
0.127599
0.736599
0.998392
0.836246
0.56001
-0.12589
-0.918379
0.815027
0.957017
-0.644339
0.247217
0.23225
-0.537617
0.779962
0.334918
0.0256359
-0.768496
-0.482386
-0.63313
-0.950135
-0.668085
0.139091
0.0341679
-0.0802091
0.420704
-0.0905036
0.879333
-0.573779
-0.73446
0.725875
-0.603429
0.779227
-0.939202
0.0139124
0.268932
0.198778
-0.860036
-0.702913
0.791181
0.906871
-0.817262
0.851978
0.145638
-0.577618
-0.797348
-0.773478
0.70182
0.81976
0.53205
-0.255348
-0.696944
0.0203458
0.588726
-0.631895
-0.117413
-0.657695
0.668549
-0.0391721
-0.0130037
0.442249
-0.767935
0.857367
0.289826
0.355088
0.021396
0.567755
-0.0699928
-0.746064
0.605004
0.321233
0.39756
0.188693
0.59484
-0.521543
-0.293425
-0.714484
-0.926895
-0.363095
0.518927
-0.0136591
0.313646
0.466553
0.251817
-0.379158
-0.908655
0.28139
-0.371219
-0.667253
0.326854
0.193902
-0.782678
0.961924
0.120849
-0.726918
-0.625109
0.856762
0.169705
0.709575
0.469788
0.337253
0.803929
-0.88014
-0.167533
0.150154
0.16375
0.641642
0.854935
0.648607
0.389804
0.662948
0.782262
0.165658
-0.604286
-0.143219
0.289009
0.620238
0.033118
-0.679031
-0.097788
0.8488
-0.736322
0.103143
0.198279
0.411911
0.347948
-0.653385
-0.332459
0.835754
0.0659033
0.295434
-0.697
0.631402
-0.344481
0.539026
-0.444698
-0.874005
-0.685622
0.602091
-1.18213
-0.660773
-0.485595
0.198449
0.860502
0.67372
0.836803
0.882036
0.991698
-0.897257
-0.0875271
-0.605838
-0.0658722
-1.15693
0.530663
0.21087
-0.0729285
-0.112095
-0.399878
-0.942569
-0.576163
0.649015
-0.790064
-0.530084
-0.42002
-0.314577
0.248689
0.379847
0.782687
-0.617774
-0.581565
-0.770635
1.30212
0.0170501
-0.409675
-0.280263
-0.86565
-0.802272
0.550919
0.379366
0.592515
-0.104045
-0.713677
1.05524
0.445002
0.865585
-0.708859
-0.382826
0.537054
0.170528
-0.304775
0.796698
0.247111
0.0821741
0.894097
-0.763519
-0.552841
-1.00791
0.366688
0.0572124
-0.636649
0.891264
-1.02108
-0.850623
0.394244
-0.928286
-0.394798
-0.527033
0.749206
0.00150532
0.533342
0.66765
0.997356
0.131855
0.238003
-0.989329
-0.0547256
-1.11438
0.10123
-0.15024
-0.0692937
-0.102256
0.631755
1.00156
0.395126
-0.755034
-0.949747
-0.176744
-0.678921
0.326645
0.273048
0.140284
-0.321726
-0.0681951
0.478543
-1.05216
0.780963
-0.329597
-0.698782
-0.282128
-0.0558271
-0.961672
0.690627
-0.412837
0.559611
-0.157406
0.509331
-0.747291
-0.437775
0.550417
-0.72418
0.217075
-0.0648798
-1.04886
-0.0518888
0.348301
-0.702866
0.197172
-0.465564
-1.12847
-0.811362
-0.617226
0.468364
-0.788677
-0.284224
0.149268
0.730419
0.433408
-0.782034
0.731909
-0.00711242
-0.76068
0.651546
0.188068
-0.705636
0.267424
0.681861
-0.387628
-0.828256
-0.538318
0.895977
0.0873071
0.117168
0.948955
0.891338
-0.819495
-0.0723868
0.520989
0.806259
-0.603952
-0.448939
0.802795
0.22973
-0.216987
-0.123731
-0.45611
-0.771155
-0.666059
0.581318
0.231895
-0.76149
-0.0515419
-0.815756
-0.710638
0.723544
0.868986
-0.582638
-0.218272
0.375227
-0.448941
-0.841807
-0.717182
-0.297288
-0.249135
-0.10017
0.0930173
0.396032
0.462954
0.00617785
-0.204424
0.802683
0.941418
0.852022
-0.648645
0.424461
-0.828336
0.709783
-0.394652
-0.520793
0.155591
0.0790081
0.062413
0.750947
0.821998
-0.00968404
0.862611
0.158391
-0.0277535
0.0270883
0.7126
-0.536215
0.813449
-0.641244
-0.316915
0.498551
0.0185216
0.989859
0.161889
-0.490713
0.346681
-0.417841
0.64511
-0.851421
0.926568
0.341179
0.28198
-0.818234
0.266026
-0.203339
0.984238
0.791704
0.544482
-0.925828
-0.469909
-0.370966
0.981294
0.958582
0.99096
0.3808
-0.420695
-0.167882
0.875612
-0.460301
0.327707
-0.278279
0.986953
-0.838776
-0.983963
-0.347454
0.401304
0.573356
-0.818729
0.89734
0.0698099
-0.330313
-0.473712
-0.862475
0.296745
0.352074
0.810117
0.939803
0.840372
0.365138
-0.433324
0.288485
-0.0831051
-0.520545
0.973482
-0.957409
-0.393206
0.964408
0.629314
-0.601573
0.214386
-0.882593
0.917006
0.444548
-0.410611
-0.925886
0.664767
0.519862
-0.787404
-0.92214
0.159727
0.125297
0.266078
0.496186
-0.66635
-0.36131
0.365211
-0.338181
-0.387277
0.753885
-0.319344
-1.06121
0.438171
-0.0277767
0.686863
-0.414394
-0.863283
-0.578665
0.594932
0.644888
0.198553
-0.598444
0.288881
-0.63503
0.432672
0.372845
-0.50053
-0.497723
-0.223812
-0.840294
-0.692502
0.500725
-0.577936
0.0374951
0.23626
-0.412754
0.518888
-0.0579576
-0.988747
0.632121
0.427868
0.238901
1.12467
-0.555806
-0.178314
0.999391
-0.164835
-0.115365
0.11449
-0.932251
0.89296
-1.06026
-0.942832
-0.558369
-0.780572
-0.0227796
-0.0819224
0.926903
-1.00912
-1.01941
-0.93752
-0.878283
0.358582
-0.887541
-0.439655
-0.224359
-0.392813
0.427007
-0.191278
0.405379
0.109967
-1.06201
-1.01576
0.0598593
-0.119461
0.849278
-0.593545
-0.490735
0.526355
0.988457
0.405876
0.167288
-0.93768
-0.828253
0.699129
-0.197682
0.283012
0.64931
-0.749947
0.532191
0.293417
-0.0476631
0.637315
-0.624242
0.0176322
0.693659
0.370773
0.636072
-0.21977
-0.6373
-0.236874
-0.0863399
0.40723
-0.164844
0.813664
-0.414543
0.115236
0.552913
0.521108
-0.0262901
-0.720138
-0.516553
0.173719
-1.01018
0.166129
-0.817938
-0.691488
0.354145
0.785141
1.08547
0.859931
-0.264982
0.6339
0.751806
0.753428
0.656017
-0.890883
0.265842
0.878037
0.738507
0.392588
0.768356
0.77511
0.068506
0.423314
-0.729557
0.560877
-0.799941
1.02668
-0.196851
0.333341
-1.1335
0.36611
-0.235981
0.708166
-0.645134
-0.489073
-0.751605
-1.12243
0.0822242
0.114052
-0.87797
0.471358
0.828238
0.540059
-0.209935
0.348623
-0.696682
0.0363061
-0.689239
0.530107
0.34391
0.489795
-0.329648
-0.338631
-0.198964
-0.404438
-0.186125
1.08824
0.309859
0.480529
1.15996
0.419652
0.57417
-0.703301
0.481798
0.60499
0.0982782
0.954469
-0.0262287
0.0204715
-0.591596
1.03942
-0.154692
-0.257643
-0.915114
-0.925295
-0.337722
0.248871
0.944675
0.59947
-0.493703
-0.685455
0.20347
0.952638
0.273081
-0.285167
0.706941
-0.164204
-0.314787
0.89938
-0.0691554
-0.608981
-0.284861
-0.337788
0.412972
0.0902016
0.644501
0.594873
-0.424018
0.971639
-0.490323
-0.872973
0.620015
0.12458
0.156839
-0.961927
0.959714
-0.980985
0.545244
0.861565
-0.473739
-0.717341
0.97882
-0.0627973
-0.126203
-0.520341
-0.215589
0.209222
-0.878464
0.180789
-0.6018
0.81875
-0.0450889
-0.0196083
-0.634261
0.642796
-0.954598
0.39077
0.261298
-0.00383953
0.936878
0.882806
0.5615
-0.0275651
0.0688543
0.471512
0.966717
0.23199
-0.620845
-0.959487
0.253993
-0.235351
0.893684
0.387075
0.845898
0.990371
0.00469255
-0.341628
-0.383627
-0.670121
-0.761088
-0.0799323
-0.150457
0.565146
-0.334597
0.309599
0.750238
-0.0319237
0.722312
0.823697
0.609953
0.475505
0.253058
-0.97732
-0.250993
-0.57822
0.362426
-0.699352
-0.36521
0.357694
0.478925
-0.96032
0.391535
0.0785237
0.807855
1.03173
-0.0739571
-0.555019
-0.441335
0.759663
-0.647026
0.514393
0.186485
-0.0123965
0.646629
-0.33017
1.0059
-0.0397905
0.435254
-0.992685
-0.409294
0.78466
-0.133357
0.131923
0.537925
0.160089
0.854041
0.136663
0.0468698
0.644871
-0.688231
0.432067
-0.453902
-0.270422
0.63503
0.055742
0.614164
0.075182
-0.066091
-0.621706
-0.285539
0.659438
0.207203
-1.11575
0.214718
0.503659
-0.37571
0.627848
-0.0424858
-0.145863
0.103068
0.597341
-0.716464
-1.0688
0.37115
1.43466
-0.376917
-0.587618
1.11491
-0.0553305
0.756612
-0.461427
0.0539912
0.691409
-0.377488
0.12837
0.119706
0.795734
-0.0635152
0.459718
-0.204929
-0.475706
0.861237
-0.727383
-1.29202
0.652423
0.0556769
1.29666
0.0531899
0.24381
-0.00481303
0.0470224
-0.452194
0.434094
-0.731036
-0.575342
-1.04624
-0.971894
-0.330801
-0.778005
-0.682255
-0.524465
0.873616
-0.394783
0.63098
-0.355653
0.332682
-1.04973
0.210333
-0.547483
0.0546833
-0.349459
-0.491963
-0.60253
0.302709
0.745279
1.12215
-0.56467
0.853014
-0.357756
0.392872
-0.190045
0.430897
-0.000341083
-0.923798
-0.880308
0.966015
0.619779
0.582353
-0.0315562
-0.0627321
-0.0693398
-0.484917
-0.436777
0.122948
0.472836
0.889677
-0.137842
-0.819575
-0.232586
0.209092
-0.185234
0.59332
-0.0900046
-0.473064
0.185357
-0.396916
-0.935744
0.429511
0.828467
-0.67551
-0.857199
0.786102
0.485316
0.729038
-0.632974
-0.748809
0.687302
0.969019
-0.501309
-0.480411
0.207945
-0.0117836
0.389634
-0.555074
-0.619765
0.43039
-0.995885
-0.544627
0.813078
0.431608
0.446942
-0.0812041
-0.935935
0.589314
-0.392622
-0.593327
0.339794
-0.871675
-0.0355921
-0.772188
0.475239
-0.844501
-0.838023
0.673161
0.17143
-0.605324
0.459723
-0.0654375
0.556036
0.878096
-0.388376
-0.164076
0.832685
-0.225273
-0.735043
-0.584259
0.877791
0.294427
-0.390199
0.946414
0.832909
-0.00869834
-0.0773733
-0.0714152
0.632258
0.402701
-0.416277
1.12452
0.454095
-0.303755
0.959807
0.416406
0.392353
0.623593
0.144986
-0.857267
0.0179541
0.42625
0.470608
-0.56239
0.676004
0.434853
0.111498
-0.960625
0.0533383
0.434073
-0.733768
0.624993
0.264552
0.237191
-0.314818
0.283507
-0.8351
-0.0596632
-0.716784
0.315113
-0.221371
0.897
0.928799
0.702578
-0.424228
-0.838835
-0.969972
0.0832529
0.566238
-0.880677
0.696813
0.273002
0.730541
-0.0530098
-0.484314
-0.962789
-0.941253
0.34
-0.969219
-0.825443
0.615904
-0.559037
-0.897609
-0.608595
0.261122
-0.196094
0.818803
0.00836214
-0.12484
0.108229
0.0438721
-0.412665
0.0501775
0.375293
0.632766
-0.0178942
-0.358093
-0.793636
0.175281
-0.932054
0.207397
0.879743
0.82725
0.858979
-0.754864
0.00847582
0.381249
0.941937
0.513789
0.0588209
0.573559
-0.56959
-0.289056
-0.807552
-0.523869
0.385471
-0.73725
0.666431
0.0425285
-0.175822
0.223782
-0.79169
0.887341
0.0659092
-0.0483653
0.402453
0.0403089
-0.166174
-0.76493
0.284292
0.879695
0.373337
0.532142
-0.598782
0.863542
-0.772898
0.931933
0.187744
0.336965
-0.412994
-0.644479
-0.33319
0.667801
-0.209861
0.631669
0.899194
-0.157961
0.944556
-0.885929
-0.442921
0.131919
0.326002
0.913649
0.805512
-0.0309896
0.13344
0.758099
-0.114712
0.650412
-0.320107
0.36091
0.874376
0.753526
0.26778
-0.929553
-0.809917
0.387382
0.787186
-0.195204
0.653978
-0.633263
-0.634191
-0.328481
0.501743
0.806262
-0.806389
-0.453738
-0.513548
0.610772
-0.148332
-0.842239
0.0628371
0.184877
-0.174611
0.318292
-1.01515
0.163509
0.584628
0.440261
0.210902
0.818638
-0.677382
-1.17821
0.699213
-0.950162
0.779116
0.952123
0.475182
0.2101
0.256786
0.245096
-0.469903
0.558227
-0.880492
-0.492819
-0.0478072
-0.908694
0.66178
-0.842639
-0.883059
1.03603
0.19334
-0.698123
-0.6553
0.878122
0.38854
-0.126347
-0.606036
1.32077
-1.02722
-0.717181
-0.562215
0.091275
-0.471143
0.23504
0.541399
-0.103077
-0.852172
-0.380569
-0.476866
-0.979746
0.654207
-0.874823
-0.223879
0.935091
0.633536
-0.475611
0.496042
-1.02589
-0.176387
-0.571063
0.45302
-1.26098
0.660611
0.666873
0.150953
-0.291707
1.16552
0.749454
-0.21642
-0.89309
0.851806
-0.821135
-1.09451
-1.09364
0.557089
0.196432
-0.331877
-0.635167
-0.905183
-0.510703
-0.646467
0.522045
0.395245
-0.868805
-0.0210408
-0.797917
-0.357546
0.622055
-0.25177
0.218197
-0.861165
0.863803
0.131606
-0.157203
-0.348038
-0.444032
-0.0032137
0.227298
-0.45134
-0.472204
0.365996
-0.386649
0.976828
-0.618946
-0.0550945
-0.0406479
0.476055
0.0319664
0.515002
0.333944
0.32535
0.503671
0.266041
-0.0540486
-0.0334946
-0.596934
0.552885
-0.371108
0.572482
0.104045
-0.517431
-0.390219
-0.673887
-0.0420118
-0.22484
0.410422
1.08134
0.332833
0.587092
0.323314
0.656255
0.0129521
0.0308229
-0.342028
-0.695591
0.46445
-0.47135
-0.239679
-0.259173
-0.209355
-0.92891
-0.122827
0.270879
0.690204
-0.114014
0.966298
0.496629
0.922668
0.318437
0.0412768
-0.120506
0.0620935
0.177965
-0.0160388
0.953826
-0.348396
-0.753861
-0.0240539
-0.769263
1.03434
0.533067
-0.0349097
0.92243
0.506013
0.603651
0.0920883
0.74583
0.0408029
0.69417
0.347224
-0.963903
0.934022
-0.684229
0.0203736
0.758508
-0.311211
0.987931
0.655422
0.611235
0.108989
0.668033
0.380666
0.347362
0.161037
0.9734
0.872023
-0.787075
-0.335372
-0.39486
-0.293383
0.552901
0.500308
-0.192005
-0.341076
0.980295
-0.333355
-0.738649
0.822116
-0.710027
-0.972313
0.311867
0.355888
0.631969
-0.668656
0.981626
-0.0791394
0.505624
0.7231
-0.567473
-0.595382
0.201502
-0.791331
0.401362
0.267912
-0.252431
-0.740868
-0.0639663
0.908346
0.505452
-0.0447616
-0.332873
0.957321
-0.674575
-0.723617
0.774387
0.743261
0.844535
0.636225
0.839216
-0.295696
0.160754
0.373296
0.289568
0.0444669
0.952675
0.536717
0.918092
0.153784
0.0760358
-0.0162531
0.644478
-0.548983
0.292666
0.230712
0.35226
0.0606221
-0.333178
-0.565043
-0.22354
0.480697
-0.533601
0.948911
0.909496
-0.254076
-0.71955
0.452616
0.251498
0.04672
0.346616
-0.816361
0.755883
-0.66474
0.291365
0.490084
0.102554
0.465645
-0.565118
-0.626129
-0.581075
0.309467
-0.625432
-0.998259
-0.477339
-0.426177
0.298329
0.735256
-0.250128
0.0199252
0.44659
0.0493737
0.276107
0.386277
-0.954151
0.537929
-0.023849
0.785687
-0.509392
-0.611524
-0.852108
-0.704403
0.426674
-0.685937
0.375675
0.0626359
-0.0366311
-0.421327
0.575633
0.0344393
-0.902288
-0.272942
0.237389
-0.499133
0.783808
-0.0754922
-0.6059
-0.821101
0.197215
-0.791355
-0.86511
0.12566
-0.345628
0.998523
0.497006
-0.508943
-0.567849
0.0867523
0.146272
-0.615131
0.527268
-0.0884677
0.541866
-0.0132928
0.96331
-0.80567
-1.13072
-0.258716
0.390123
0.114636
-0.400748
0.514395
0.171788
0.220422
-0.833609
-0.0363063
-0.197564
-0.694122
-0.966964
0.00219292
-0.928628
0.657532
-0.597241
-0.37622
-0.159325
0.354128
0.408437
0.114942
-0.604382
-1.36399
1.05538
0.347712
0.440105
-1.39714
-0.583699
0.770444
-0.90087
0.00260574
0.667734
-1.25453
-1.11194
0.0985212
-0.825294
0.83514
-1.46406
0.948299
-0.496906
0.0264193
-0.953377
-0.205961
-0.604516
-0.151799
-0.265979
-0.0231533
0.281796
-0.436763
0.462241
0.931449
0.913638
-0.836257
0.585861
-0.457805
-1.0802
0.741748
0.767384
0.943293
-0.243279
-0.594706
-0.459953
0.123286
0.344182
0.00919432
1.02068
-0.297319
-0.286224
0.464838
0.887662
0.860716
-0.783032
-0.74132
-0.387895
0.0505176
0.200772
0.838605
-0.0358419
0.512049
-0.528324
1.0086
-0.114404
-0.508341
-0.10791
-1.02439
-0.416062
0.24176
-0.671769
0.474117
-0.169449
-0.565676
-0.632091
-0.888388
-0.43004
-0.348032
-0.721137
0.11911
-0.510107
-0.620346
-0.921698
0.875688
0.470019
-0.745418
-0.281967
0.123542
0.0449288
-0.109148
-0.483932
-0.0719938
-0.423036
-0.0735073
-0.276101
0.557735
-0.257929
-0.656285
-0.751205
-0.174634
0.770889
-0.320758
0.794211
-1.20913
0.0669638
0.0454697
0.126564
-0.281828
-0.361369
-0.870477
0.290401
0.750171
0.508573
-0.521396
0.592409
-0.358859
0.412069
-0.396306
-0.190859
-0.630809
0.462014
1.08979
0.953142
-0.231768
-0.040352
0.286378
-0.0333919
0.537285
0.1458
0.0206602
0.657097
-0.889235
-0.163512
0.66971
-0.0217641
0.924746
-0.0145757
-0.214889
-0.954545
0.40928
-0.909128
-0.142324
0.978456
0.693597
0.681308
0.0596942
0.75044
-0.302125
-0.187464
0.314777
-0.294892
-0.764441
-0.996096
0.0816483
0.581991
0.730584
-1.01673
-0.476249
0.481702
-0.647142
0.582145
-0.878855
0.812341
0.683238
-0.77878
0.244111
0.879066
0.170042
-0.391803
-0.52445
0.890555
0.384939
-0.754282
-0.552048
0.868434
-0.428231
0.787869
-0.675872
0.675754
-0.386336
0.730352
-0.719661
-0.463404
-0.840948
-0.230477
-0.26268
0.554033
-0.768378
-0.13266
0.325519
-0.306006
-0.389976
-0.57241
-0.836091
0.825433
-0.823607
0.0725475
0.106233
0.747343
-0.0605578
0.264472
0.331917
-0.082535
0.868691
-0.660241
-0.511429
0.404172
-0.87891
0.197594
0.531159
-0.197231
0.441932
0.0970602
0.613223
-0.707168
0.705087
-0.405283
-0.974724
-0.132945
0.4316
0.759968
0.312085
0.12105
-0.787666
0.0563089
-0.921214
-0.869236
0.452921
-0.0484621
-0.486649
0.120172
0.363108
-0.0550302
-0.470318
0.087522
-0.250244
-0.364381
-0.137432
-0.703339
-0.252243
0.978042
-0.770199
0.944344
-0.715044
-0.985052
0.118815
0.0224947
-0.664266
0.721586
-0.955158
0.0573339
0.183135
-0.809103
-0.701485
0.0380644
-0.830164
0.301339
0.374718
0.970778
-0.400549
-0.846742
0.278252
-0.156063
0.727947
-1.00606
-0.476229
0.688149
0.0151686
0.370905
0.348801
0.81874
0.499586
-0.611825
-0.286793
0.647559
-0.657222
0.15662
0.242336
0.0624586
0.675727
-0.705488
-0.554153
0.997664
-0.45018
0.0273691
-0.871021
-0.56977
-0.0215621
0.538782
0.784889
-0.405089
-0.0661748
-0.108248
0.0670158
-0.0332439
-0.424807
-0.959528
0.51871
0.355631
-0.640794
-0.58113
0.507742
0.00980614
0.764414
-0.941886
0.342551
-0.216798
0.0623492
0.765314
0.755882
-0.0517944
-0.157383
-0.748145
-0.955338
0.185541
-0.358212
-0.673874
-0.472302
0.642638
0.204197
0.540769
-0.105777
-0.628346
0.639718
-0.695205
-0.686386
0.595593
0.565502
-0.337973
0.279366
0.71588
0.584455
-0.529027
1.08007
-0.837451
-0.178259
0.093744
0.756147
-1.18095
-0.137564
0.0579512
0.72645
0.254094
0.860283
-0.548986
-0.137455
-0.530798
-0.515715
0.120728
-0.711374
-0.484012
0.217696
0.866975
-0.234035
0.0373099
-0.440615
-0.213079
0.979763
-0.933885
0.315498
0.493334
-0.191018
-0.635626
0.239622
-0.265186
-0.424016
-0.561585
-0.276891
0.81692
0.0521595
-0.230031
-0.784994
0.183578
-0.337256
0.820155
-0.873261
0.0287107
0.525106
0.212865
0.0505932
-0.640537
0.627222
-0.0516035
0.0682355
-0.391283
-0.14317
-0.940199
0.13123
0.246669
-0.125052
0.388553
-0.38651
-0.388128
0.0438918
0.297404
0.62977
0.878151
-0.481016
0.42462
-0.563979
0.74971
-0.392346
-0.520324
0.124684
0.118519
0.446941
-0.13198
-0.533229
0.0787347
-0.998712
0.250372
-1.14017
0.0692518
0.693061
0.631367
0.587207
-0.163499
0.208008
-0.0497201
0.340587
-1.19826
-0.529602
-0.685044
0.0901858
0.439797
0.291849
-0.623118
0.342544
1.03679
0.227069
-0.326858
-0.753346
0.580188
-1.15034
-0.727413
-0.146831
0.734464
0.139779
0.428857
1.18944
0.11221
-1.03607
-0.912493
0.590354
0.0975705
0.161381
-0.280938
0.645637
-0.447023
0.0199382
0.282833
0.0189497
0.0521732
0.66111
-0.362047
0.68455
-0.747775
-0.334226
0.97147
0.0963532
-0.205439
0.431157
0.347614
-0.0783178
-0.940379
-0.921424
0.525002
-0.119288
-1.01583
-0.589857
-0.24422
-0.319321
-0.711556
0.84984
-0.90153
-0.800623
0.992548
-0.210619
0.47671
0.86752
-0.902528
0.940857
-0.786281
-0.731243
-0.0636826
0.512021
0.429673
-0.656199
-0.495487
0.137664
0.330402
-0.336255
-0.860666
-0.770912
0.350815
0.0970547
-0.151173
0.763131
-0.843126
0.576881
0.762129
0.607227
-0.279788
-0.982773
-0.950482
-0.0475892
0.900593
-0.549702
-0.558654
-0.374281
-0.96662
0.127177
-0.943553
-0.241297
-0.890527
-0.161286
0.438474
-0.493651
0.349
0.239014
0.933196
-0.40931
-0.304123
-0.862869
0.36349
0.2847
0.966762
-0.6325
-0.264159
-0.887757
0.342861
-0.0346241
-0.667972
0.23501
-0.703493
0.785619
0.444777
-0.499953
-0.105934
0.248567
0.176249
-0.923147
-0.486559
-0.733738
-0.279354
-0.339209
0.92181
-0.345258
0.670868
0.781218
0.154088
0.052933
0.771035
-0.381966
0.166974
0.836943
-0.750637
0.792276
0.0364119
-0.773538
0.555077
0.987088
-0.54524
0.715385
-0.123672
-0.597324
0.700351
-0.79007
0.460613
-0.850875
-0.727346
0.181953
0.665113
0.414304
-0.0766981
0.517118
0.813498
-0.388074
-0.742758
0.223827
0.684103
0.0188003
0.96262
-0.766933
0.717265
-0.706449
-0.00116376
0.538618
0.777401
-1.10187
-0.950763
-0.0750831
0.0388675
-0.330486
0.226086
-0.620839
0.586595
0.359124
-0.937567
-0.007335
0.37397
0.791661
-0.793047
-0.690402
0.129527
1.05616
0.631242
0.921096
0.111463
0.376299
-0.251128
0.0652702
-0.605465
-0.615753
-0.445824
-0.260851
1.06878
-0.370532
-0.702501
0.637484
-0.237538
-0.763358
-0.646256
-0.761601
0.710922
-0.904504
0.552747
0.208645
0.221592
-0.445126
0.182884
0.271879
-0.09689
-0.891535
-0.911649
0.282866
-0.558558
0.290894
0.427443
0.434742
-0.369711
0.265393
0.422029
-0.501721
0.0214209
0.0646892
0.2199
-0.705012
0.917349
-0.0272506
-0.984145
-0.365057
0.684671
-0.671451
0.933641
0.381569
0.721487
0.306917
0.40846
0.6006
-0.139398
0.768815
-1.00209
0.522271
-0.570083
-0.72362
0.0704819
-0.748453
-0.101342
-0.610252
-0.245158
0.209805
-0.558667
-0.854756
0.932898
0.00781048
-0.802781
-0.6908
-0.749997
0.578384
0.870111
-0.375005
-0.546237
-0.148868
0.57075
-0.604596
0.111785
0.55476
-0.207115
-0.713625
0.72334
-0.447661
0.173547
-0.238216
0.734393
-0.362096
-0.734732
0.242517
-0.368272
-1.07967
0.183157
0.199485
-0.278721
0.829128
-0.396413
0.183104
-1.31941
-0.0559387
0.487522
-0.925088
-0.127181
0.483162
0.456031
0.700182
-0.618106
0.43408
0.687942
-1.09283
-0.521606
0.622309
-0.0468359
0.228417
-0.593498
-0.812918
-1.06926
0.323977
0.0294916
0.0653459
0.170086
-0.716364
-0.983066
-0.0214135
-0.411329
-0.945749
0.314944
0.245974
-0.218295
0.11898
-0.479369
0.101437
0.600316
-1.02539
-0.610962
0.38476
-0.768576
0.0101557
-0.235971
0.677772
1.03457
-0.899328
-0.363546
-0.131898
0.714266
-0.797786
0.685276
0.182334
-0.880629
0.689933
0.0271451
0.300697
-0.898599
0.673861
0.40764
0.239649
-0.427997
-0.0381076
-0.801959
0.595465
-0.603079
0.764135
0.989973
-0.93978
-0.836843
-0.199323
0.285013
0.857756
0.0370969
-0.607855
0.888987
-0.22599
-0.264714
0.574464
0.857084
0.622134
0.459929
0.766586
0.717336
-0.349452
-0.669343
0.377492
0.321928
0.750165
-0.561941
0.0137227
-0.982881
0.599419
0.279318
-0.569743
-0.883174
-0.467966
-0.190717
0.0236047
-0.369485
-0.300742
0.323356
0.753371
-0.554365
-0.84926
0.527308
0.69484
-0.821446
0.11468
-0.666876
-0.385553
-0.669681
0.879462
0.357992
-0.0180933
0.386062
0.148862
-0.465638
-0.411806
0.855244
-0.207195
0.655133
-0.618373
-0.602272
0.0313238
-0.529408
0.271295
0.940871
-0.44174
0.595228
0.046568
0.930202
-0.524691
0.1539
-0.94205
-0.689974
-0.149526
0.579593
0.589686
0.680268
-0.595117
-0.385213
-0.24728
-0.0570744
-0.288676
0.0510519
0.125652
-0.464665
0.240382
0.778911
-0.546018
-0.899523
0.420855
0.502565
0.126945
-0.728558
0.954055
0.0356536
-0.253986
0.306602
-0.458412
0.450574
0.325635
0.113863
-0.82172
0.0763103
-0.988483
-0.486829
0.499572
-0.0603685
0.785259
0.113969
0.804869
-0.249386
-0.650882
0.945963
-0.848072
-0.971968
0.0691885
0.29927
0.719429
-0.840129
0.983174
-0.626729
0.170583
0.00605168
0.734686
-0.627842
-0.532678
-0.246241
0.53138
-0.529654
-0.594067
-0.67477
0.869817
0.73798
-0.802727
1.25879
-0.115904
0.417965
-0.108013
-0.930531
-0.547305
-0.217175
0.0868017
-1.08511
-0.286281
1.03408
0.534373
-0.709484
0.184264
0.544565
0.230865
-0.937206
-0.826596
-0.797088
-0.176571
-0.209859
-0.986235
-0.11185
-0.224916
0.508979
0.116576
-0.0965132
0.822882
-0.598737
0.708562
0.0899694
-0.420207
-0.0710941
-0.640589
-0.447569
0.967924
0.0446391
-0.11655
0.958753
-0.410906
-0.0113631
0.532179
-0.599163
-0.291902
-0.282148
-0.553232
0.729203
0.502365
-0.46659
1.15539
-0.967584
-0.401965
-0.0544486
0.337346
-0.412277
0.56037
-0.234649
-0.444494
-0.306743
-0.714584
0.921964
0.580457
-0.581512
-0.0887871
-0.489548
0.464421
0.589277
0.84541
-0.546822
-0.2845
0.944527
-0.474583
0.622814
-0.696319
0.687558
0.661932
0.554076
-0.775768
-0.942639
0.362443
-0.374936
-0.691258
0.117866
-0.31159
0.0677141
0.580027
-0.760874
-0.853344
0.94571
0.535307
-0.55065
-0.811401
0.00197763
0.784236
0.974107
-0.101725
-0.53963
-0.649376
0.0621251
-0.728946
-0.796424
1.1025
-0.340577
0.0522175
-0.784054
0.637981
-0.604413
0.765993
-0.9008
-0.737762
0.343005
-0.745225
-0.568428
0.561495
-1.00934
-0.720658
0.505674
-0.292187
-0.666375
0.694723
-0.855174
1.13784
0.148533
0.285424
0.353938
-0.701812
0.15478
-0.244552
0.919052
-0.336412
-0.215919
-0.664195
-1.04827
0.548688
0.424196
0.931077
-0.72801
-0.969251
-0.234494
-0.000562211
0.755134
0.202585
0.608839
0.394979
-0.514936
-0.646849
0.759838
-0.0212859
-0.592096
0.99835
0.296582
-0.273399
-0.340591
-0.552694
0.913688
0.397266
0.900436
0.659846
0.700083
-0.355248
-0.0740396
0.536099
-0.135959
-0.0188
0.0826983
0.809446
-0.837482
-0.14159
0.416918
0.0659825
0.316653
-0.749813
0.301563
-0.138868
-0.383945
0.906398
0.0890667
0.955598
-0.0312716
-0.631878
0.540436
-0.801386
-0.221779
0.0558918
0.0568154
-0.0857597
-0.541945
-0.0998733
0.38792
-0.763497
0.420401
0.924364
-0.544108
-0.164875
-0.76426
-0.433966
0.872885
0.713678
-0.906499
0.473298
-0.80845
-0.0513969
0.0648686
0.878617
0.703874
0.760933
-0.78133
0.0108913
0.849312
-0.197351
-0.43855
-0.231581
0.0189847
-0.363261
0.750506
0.352062
-0.762329
-0.452405
0.18899
0.0236232
0.698194
0.475259
-0.354529
-0.184122
-0.845176
0.846437
-0.902908
0.844374
0.372588
0.301594
-0.0250709
-0.0914864
0.161937
-0.207754
0.368648
0.254283
0.511437
0.611961
-0.494734
-0.67739
-0.316182
-0.568643
0.410523
0.219081
-0.420462
0.206519
-0.717519
-0.0533255
0.247917
0.0995207
-0.385145
0.990851
0.244049
0.15015
-0.891827
-0.688106
-0.418417
0.0624959
0.623516
-0.222839
-0.872659
0.983593
0.0715657
0.423178
-0.619451
-0.584757
0.716546
0.865347
0.0360529
0.421638
0.586682
0.733776
0.421078
-0.359871
-0.726547
-0.799627
0.524855
-0.927048
0.464365
-0.563042
0.75314
0.636846
-0.768256
0.325752
0.0776636
-0.403092
-0.438632
0.818637
-0.898921
0.646328
-0.135272
-0.598339
-0.907675
0.201127
0.953333
0.887001
-0.87785
-0.5157
0.171962
0.782092
0.892895
-0.939442
0.0429513
0.565885
-0.516509
0.30533
-0.554984
0.342641
-0.107718
-0.860706
-0.568115
0.425589
0.782024
-0.00662137
0.00664273
-0.133266
-0.689814
0.966709
0.440477
0.540382
-0.400009
-0.729691
-1.0247
0.800941
-0.0797514
-0.435618
-0.848501
1.03318
-0.800633
0.78224
-0.493499
-0.520544
0.881975
-0.927258
0.907621
-0.620805
-0.458496
0.564777
-0.0805865
0.0568489
0.752105
-0.554336
-0.0930458
1.04354
-0.471243
-0.145842
0.230813
-0.922473
-0.668197
-0.248346
0.276525
-0.288512
0.178387
0.248275
0.0748866
-0.13054
0.992836
-0.553432
0.20209
-0.848334
0.859714
-0.511381
0.226647
-0.814701
0.394936
-0.309568
1.04686
0.734316
-0.224464
-0.000266158
0.292319
-0.332168
0.451835
0.771787
-1.16969
0.683872
0.717829
-0.16281
0.104998
0.0832361
0.211309
0.0389169
0.395329
0.476038
0.97079
-0.0188292
-0.845225
1.02102
0.951691
0.115964
-0.472764
-0.199812
0.474399
-0.686751
0.136298
-0.197766
1.08507
-0.712919
-1.05381
0.658197
0.128335
-0.802223
0.866563
0.459211
-0.3317
-0.867294
0.349689
-0.459769
-0.446361
-1.05282
-0.822539
0.339925
0.337121
0.459396
-0.296264
-0.452442
-0.131843
0.702446
0.20847
0.0580769
-0.28763
0.611327
0.222672
-0.91012
-0.487854
-0.223964
0.804888
0.427334
-0.507812
0.387744
-1.00207
-0.131307
-0.904631
-0.366685
0.631963
0.492732
0.540864
-0.397634
0.662156
0.332818
0.503018
0.27292
-0.144497
0.515276
0.240744
-0.252568
-0.284809
-0.5145
0.0306114
-0.953768
0.427371
-0.299078
-0.929807
0.480436
-0.166323
0.296707
0.0458206
0.652697
-0.248639
0.830599
0.0610547
0.826385
-0.0533032
0.468894
0.0632369
-0.448288
-0.870672
-0.788489
0.422479
-0.99526
-0.0776354
-0.826878
-0.41289
0.319032
-0.23902
-0.234747
0.278308
0.387463
0.774773
-0.520604
-0.0534045
0.357605
-0.171364
0.299992
0.980987
0.950837
-0.347278
-0.206769
-0.753691
-0.103837
-0.618115
-0.585759
-0.763383
-0.0143524
-0.426719
0.681364
0.580964
-0.198318
-0.734182
-0.354051
0.0446986
-0.0379129
-0.32197
-0.658504
0.127079
-0.836967
-0.070292
-0.120287
0.0604379
0.737741
-0.89664
-0.257424
0.119941
-0.590344
0.148561
0.615291
-0.817851
-0.332097
0.525756
-0.512218
-0.643165
0.95257
-0.811623
-0.127017
-0.614044
0.942097
0.145272
0.771448
-0.841133
0.105358
0.121412
0.0583053
0.0978593
0.408679
0.36889
0.88605
0.0749897
-0.37305
-0.342349
-0.809914
0.295429
-0.923008
0.0918092
0.119657
-0.488131
0.0831771
-0.426009
-0.503151
0.0507014
-0.750727
0.376177
-0.0221002
-0.313983
-0.609005
-0.840037
-0.946364
0.754809
0.558811
-0.109438
-0.294478
0.678767
0.0399901
-0.192093
0.868719
0.734056
-0.354862
0.57458
0.261294
0.287317
0.53463
-0.855516
0.177969
0.313021
0.105619
-0.73576
-0.953274
0.749872
0.507015
0.435713
-0.223349
-0.426886
0.364853
0.0400415
-0.177762
0.914006
0.320492
-0.92415
-0.601418
0.162299
0.629245
-0.192916
-0.8419
0.711205
-0.591914
-0.944016
0.756989
-0.826033
0.655138
-0.389323
-0.0351463
-0.853335
0.309298
0.251616
-0.48105
-0.138202
0.985125
0.669284
-0.439
-0.20509
0.114993
-0.983464
-0.0223181
0.873507
-0.428765
-0.779006
-0.315816
-0.77792
-0.794336
-0.248975
0.120682
-0.55307
0.498283
0.668798
-0.00870649
-0.500681
-0.046368
-0.954363
0.464516
-0.977162
-0.0678573
0.0235866
-0.995608
0.367949
0.429855
0.0427942
0.18729
-0.219923
1.01826
0.717618
-0.263286
0.32146
0.310283
0.496272
-0.884353
0.337041
-0.883029
-0.393587
0.484503
-0.652185
0.615231
0.423997
-0.102321
-0.969496
0.38948
-0.779161
0.657366
0.20769
0.539806
0.00438147
1.05646
-1.04895
-0.766386
0.904379
0.297932
-0.800442
0.332357
-0.999674
0.329746
-0.769396
0.722766
-0.631277
0.529736
-0.923132
-0.531651
0.339873
0.124547
-0.276772
0.235982
0.57688
-0.810567
0.421473
-0.256937
0.572345
-0.47454
0.486355
0.509374
-0.256664
-0.283641
-0.0437378
0.908724
-1.07584
0.984109
-0.675967
-0.186942
0.278086
0.443156
0.117928
0.461675
-0.281331
-0.0683598
-0.506039
-0.5031
0.109066
-0.962606
-0.239512
-0.935876
-0.57145
0.419658
-0.65933
0.0928446
-0.187728
0.881506
0.377219
-0.50301
-0.406968
0.557324
0.184199
-0.286391
0.890984
0.706709
-0.902914
-0.475857
0.111403
-0.866555
-0.797925
0.970779
-0.407847
-0.787002
-0.616804
0.509407
-0.924246
0.0803751
-0.0938503
-0.317784
-0.257781
-0.699937
-0.525788
-0.801788
0.522992
-0.748696
-0.660342
0.240372
-0.0288566
0.334093
0.688261
-0.671039
0.179933
1.06361
0.352525
-0.95422
0.376191
0.0970346
-0.825409
0.679617
-0.223539
-1.06341
-0.171992
-0.764997
0.0188414
-0.657249
-0.333732
-0.786285
0.191866
-0.865223
0.339906
0.630081
-0.997344
-0.616861
0.555216
0.126729
0.685586
0.161803
-0.635113
-0.539992
-0.369573
0.545467
0.310471
0.178236
0.232053
0.557589
0.00529918
0.596554
-0.20022
0.705983
0.238112
0.346451
-0.166992
0.588552
0.145532
-0.638914
-0.988766
0.752499
0.589022
-0.285568
0.676247
-0.993378
0.94675
0.119543
-0.638614
-0.866874
-0.808837
0.00605453
0.733332
0.916184
-0.374961
-0.516246
0.708563
-0.885827
-0.329366
-0.54174
0.293713
-0.557761
0.597751
0.100806
0.886272
0.739601
-0.674775
0.418163
-0.241221
-0.855459
0.585385
0.104454
-0.273041
-0.98782
-0.146857
-0.203451
0.240015
0.132185
0.949931
0.410742
0.368034
0.574091
0.811234
-0.827864
0.671708
0.850072
0.660383
-0.0459215
-0.889841
-0.002823
-0.761015
0.718967
-0.481864
-0.305283
-0.559245
-0.3937
-0.765182
0.944894
-0.547017
0.495356
-0.581765
0.859364
-0.369577
0.136828
0.974144
0.140147
-0.401662
0.649835
0.336163
-0.86564
-0.727695
0.302198
-0.963374
0.684561
-0.105926
0.611005
0.092188
0.382755
-0.531455
-0.383474
-0.746035
0.961978
-0.165701
-0.686242
-0.0354759
0.110868
-0.154164
-0.840588
-0.390483
-0.692814
-0.828905
0.146411
0.332564
0.819634
0.175011
0.617862
0.153391
-0.938569
-0.251363
-0.741123
0.00130858
0.23634
0.229473
-0.9554
-0.531997
0.940106
0.1443
0.918058
-0.968839
0.935607
-0.10408
0.967211
0.93755
-0.432827
-0.563192
0.476304
-0.355053
0.534154
0.600496
0.698933
0.928225
0.25699
0.819597
0.95331
-0.955987
0.94108
0.630265
-0.709096
-0.0239289
-0.118996
0.66321
0.0585519
0.966661
-0.845579
-0.818314
-0.638966
-0.881363
-0.563763
0.0860041
-0.299427
0.949455
-0.270802
0.950045
-0.180606
0.530561
-0.963481
-0.745468
0.0721634
-0.0472964
-0.0265603
-0.544758
-0.197421
-0.574017
0.687764
0.289439
-0.721556
-0.826862
0.440442
-0.728739
-0.393688
0.73575
-0.749031
-0.860631
-0.145339
0.945514
0.29241
-0.1937
-0.252184
0.35717
0.726818
0.0210853
0.308217
0.529686
-1.05234
0.182386
-0.774742
-0.00532585
0.152001
1.10848
0.181272
-0.495619
-1.03705
-0.107131
-0.373642
-0.0661123
-0.346702
-0.0128909
0.752013
0.932168
0.739114
0.423399
-0.0653066
-0.292579
0.0891045
0.0100559
0.0994839
0.603329
-0.340444
0.997747
-0.277375
0.237711
-0.921817
0.567003
0.921301
0.199911
-0.872116
-0.72411
-0.723168
-0.523772
-0.667861
0.718117
0.102734
0.0437947
-0.10889
-0.480189
-0.56623
-1.1242
0.456215
-0.494475
0.917108
-0.86858
-0.0972565
0.643099
0.459354
0.531736
0.664615
-0.778359
-0.693178
0.604487
-0.186231
-0.528906
0.174211
0.873718
-0.803754
-0.872617
-0.671951
0.931615
0.145098
0.0547353
-0.952511
-0.103995
0.420575
0.551353
1.05025
0.980718
-0.90005
0.639389
0.248289
0.728183
-0.851055
0.934524
-0.501592
0.409991
0.996726
-0.770565
-0.112195
-0.78866
-0.5767
0.794261
-0.606542
-0.82662
-0.0640946
-0.694827
0.404797
0.667909
0.279376
0.571572
-0.222032
0.324658
0.18246
-0.571116
-0.175739
0.759858
-0.800029
-0.407051
0.180322
-0.0117912
0.694322
-0.00712814
-0.546436
0.683311
-0.567017
-0.991155
-0.114902
-0.00727019
-0.498912
0.201091
-0.529039
-0.300644
0.466302
0.685559
0.209216
0.862097
0.950777
0.457213
-0.477124
0.210789
0.924555
-0.38015
0.141501
-0.169596
-0.077142
0.981092
-0.778421
-0.412056
0.88813
-0.564351
-0.810285
0.592398
0.680772
-0.175996
-0.257326
0.00776085
0.73703
0.619266
-0.792065
-0.560643
0.446393
-0.0718698
-0.759892
0.235236
-0.54113
-0.699581
-0.757345
-0.256322
0.866177
0.632506
-0.800872
-0.650249
0.349201
-0.743163
-0.295187
-0.820837
-0.418656
-0.329392
-0.437374
-0.163763
-0.00905342
0.33429
-0.640694
0.516494
-0.772726
0.566376
0.624561
0.461924
0.358171
-0.296418
-0.557556
0.786536
-0.0417251
-0.215873
-0.740728
0.514401
0.096783
0.664368
-0.966977
-0.995587
0.616458
-0.446176
0.199167
-0.688874
0.172867
0.500127
-0.447687
-0.821421
-0.0947801
-0.609896
-0.702892
-0.527903
0.481438
-0.758551
0.409348
0.16615
0.618747
0.985011
-0.856294
0.83386
-0.388561
0.0814504
-0.671344
-0.781268
0.396775
-0.383765
-0.138109
0.219921
0.131393
0.712038
0.553422
0.48235
-0.164924
-0.856739
-0.00887144
-0.484117
0.584572
-0.700776
-0.363485
-0.465913
0.583019
0.309368
-0.682985
-0.432512
0.586952
0.597374
0.824848
-0.88456
0.515664
0.865205
-0.143831
-0.1928
0.73612
0.124274
0.376666
-0.0653998
-0.1613
-0.919581
0.915443
-0.464435
0.532592
0.509786
0.0620065
0.715574
0.662643
-0.0856638
-0.840674
0.529219
-0.457996
-0.149367
-0.619856
0.571756
-0.648799
0.534789
0.51335
0.848791
-0.0811588
-0.916576
-0.678
-0.0467227
0.698266
-0.476344
0.237413
0.675479
-0.180517
0.0807297
-0.251305
0.924879
0.729234
0.742648
0.515312
-0.174632
0.047261
0.277665
0.984543
-0.992258
-0.108048
0.5682
-0.631212
0.401145
0.722482
0.282042
0.714314
-0.0285555
0.965914
-0.588801
0.0956122
0.0992268
-0.490475
0.379221
-0.759415
0.0417536
-0.119807
-0.72693
-0.736369
-0.626533
0.69212
-0.711745
-0.56714
-0.874254
0.33718
0.170093
-0.589014
0.183164
0.422746
-0.82729
0.4432
-0.141149
0.727261
-0.525975
-0.08442
0.45464
0.325757
0.875803
-0.66504
0.103341
-0.898014
0.387174
0.784269
-0.169243
-0.76675
-0.209042
-0.106379
0.186232
-0.496117
0.137356
0.013636
0.411393
0.767071
0.323032
0.413009
-0.182518
-0.776892
-0.423668
-0.543169
0.901492
0.590982
-0.734586
0.429856
1.01017
0.734657
0.933212
-0.430243
-1.04249
-0.605667
-0.0483913
-0.0667061
-0.0305807
-0.424639
-0.960017
-0.930629
0.33604
0.0530845
-0.53401
0.578811
-0.879804
-1.02139
-0.688267
-0.144956
0.751275
0.834425
0.0916985
-0.383955
0.386892
-0.154508
-0.897278
-0.799915
-0.632896
-0.441832
-0.303673
0.144619
-0.689514
-0.773958
-0.530043
-0.746895
-0.800627
0.231116
-0.247856
-0.157923
-0.431397
0.725477
0.207987
0.51085
-0.0677817
-0.918312
-0.349642
-0.916689
0.229483
-0.057928
-0.391388
-0.785964
0.918585
0.927448
-0.594689
0.877477
0.946404
0.247829
-0.88163
-0.619676
-0.697953
0.984112
0.909905
-0.357544
0.315291
-0.118187
0.0106851
-0.865233
0.0369663
-0.428945
-0.779123
-0.154376
0.234298
-0.876705
-0.46524
-0.76356
0.406694
-0.487217
0.0816279
-0.936097
-0.152652
0.0964783
0.118157
0.398925
0.616406
0.311686
-0.888091
-0.285164
-0.359594
0.998828
0.243314
-0.908659
-0.300144
0.460496
-0.223368
0.908911
-0.972699
0.603794
-0.550361
-0.903051
0.0734347
-0.109528
0.786013
0.133757
0.652348
0.458845
-0.281407
0.160089
-0.607109
0.566613
0.264941
-0.216035
-0.188779
-0.607702
-0.407481
0.0479723
0.754039
0.683063
0.781327
0.337253
-0.701363
-0.701545
-0.94521
0.493731
-0.947782
-0.0135743
-0.602882
0.0181056
0.177595
0.851394
0.901398
-0.606596
0.774168
-0.729971
0.227782
0.87072
-0.76574
0.480587
-0.341738
-0.434331
-0.110292
-0.414155
0.594649
0.472103
0.176458
0.935776
-0.288633
-0.102516
-0.131826
0.674735
0.858596
-0.46704
-0.810581
-0.205623
-0.233501
-0.557636
-0.0630994
-0.175117
0.334139
0.536843
0.622679
0.18333
0.782472
-0.00264591
0.405332
0.448696
-0.728543
-0.177137
-1.51423
-0.350464
-0.439151
0.435223
3.14206
-0.107376
-0.338209
1.33483
-0.838752
-0.275265
1.71741
-0.483672
-0.725932
4.09333
0.371533
-0.300197
-2.60362
-0.461342
-0.719141
-0.165643
-0.130278
-1.822
0.549925
-4.03363
-0.302532
-1.6918
2.06815
-0.611745
1.24352
-1.20549
2.01777
-0.184097
-1.37187
3.6942
3.26337
-0.858744
-1.31873
-0.376578
1.81292
-0.349605
-2.30765
1.03803
0.996606
0.348614
1.74289
0.998409
-1.07734
-0.591271
-0.520857
2.08358
1.46589
-0.161319
-1.87618
0.89288
-1.70776
-1.26618
0.0497548
-0.539208
0.263374
2.45475
1.46988
2.10251
2.33319
-3.48075
-0.64512
-1.00486
-0.881463
-0.212852
0.213962
-3.10611
-2.82083
-0.878276
-0.0510812
1.9972
2.73962
-0.0359627
-0.699313
-0.551677
-0.242358
-0.10279
1.2224
-1.70227
0.36404
2.53261
-1.24411
-0.683872
0.623053
-0.19814
-1.85478
2.19574
-0.842295
2.36975
-2.60951
-2.19759
3.04615
-2.08801
0.473357
0.801723
2.75544
-2.87571
1.04058
-2.29442
1.30697
-2.3935
1.45543
-1.67028
1.97252
0.56084
0.710725
0.838045
0.74702
0.141129
0.0672956
0.363898
1.81299
-1.09784
-2.95376
-0.498366
-0.364511
0.632003
-2.51727
0.39133
-1.11842
-1.22115
-1.68997
0.74523
2.04806
-0.259501
3.13578
-1.90136
-2.95535
-1.67709
3.36027
2.68805
-2.24684
-1.28183
-2.02865
-1.72441
-0.141485
1.9884
-2.76334
1.74168
-3.16207
4.01637
-2.40792
0.157363
-0.852417
-3.68875
0.292907
-1.27195
0.530403
-2.56367
0.113039
-1.30916
-2.5014
-3.04887
-2.61118
2.17293
3.27434
-1.50527
-2.79218
1.92885
-1.92355
-1.51044
2.40507
0.998607
-1.88639
-0.60898
1.2771
-3.19461
1.83
-4.67791
1.54347
-4.16404
2.41886
2.05317
-3.89217
-3.87415
0.286965
0.319932
-2.16416
0.308433
-0.527747
-0.708311
-1.91278
1.22253
-0.393953
-2.19914
-4.07945
3.95814
-0.991965
2.03409
-4.34828
-0.404866
1.88724
-4.89244
-2.96217
1.88836
-2.72769
1.25694
3.9551
-0.399293
-2.62213
-4.04495
-3.08487
0.920373
1.56853
-2.16875
-1.83192
-0.333227
-0.518098
-3.23825
2.02864
0.390654
-1.91856
-3.98816
2.30391
1.22435
-3.02024
-3.74242
-1.36833
-2.25572
-1.80959
-1.77672
-1.57841
-1.85321
-0.479884
-0.995638
-2.44515
-2.15792
