1
0.6
1
784
2
10
10
10
-0.729046
0.670017
0.937736
-0.557932
-0.383666
0.0944412
-0.623236
0.985763
0.992923
0.93539
0.451678
0.962219
-0.780276
0.596212
-0.405941
-0.990433
-0.775071
0.279527
0.756861
0.00732535
0.595857
-0.277412
-0.576151
0.362719
-0.202523
0.481294
-0.0504826
-0.155825
-0.65227
-0.396174
0.59456
-0.366899
0.744858
-0.701772
0.988137
0.643807
-0.749634
0.5275
-0.0188219
0.327211
-0.748207
-0.579582
-0.897567
-0.927117
-0.182538
-0.0840217
-0.0248621
0.58795
0.84175
0.615062
0.411549
-0.994363
0.421408
0.287922
-0.0879344
0.547834
0.147509
0.753515
0.616351
-0.964452
0.642492
0.641682
0.880148
-0.174667
-0.15367
0.161913
-0.683885
0.523462
-0.539688
0.619469
0.977043
-0.335103
-0.400337
-0.972922
-0.565524
0.814729
0.696936
0.910035
0.557795
0.974919
-0.864809
0.587195
0.189007
0.465597
0.390466
0.35964
-0.215359
0.123115
-0.583864
0.0547429
-0.191583
-0.294475
0.185648
-0.28731
0.929933
-0.691123
-0.210184
-0.225408
0.453909
-0.22286
0.854986
-0.127765
0.725356
0.24072
-0.760906
-0.0560864
-0.319561
0.059684
0.432201
0.976759
0.440987
0.825155
0.010997
0.116538
0.00638004
-0.0750516
0.0931839
-0.104831
0.708902
0.208463
-0.00291163
0.211618
-0.579433
-0.394184
-0.207605
-0.496874
-0.862343
0.544501
-1.85548
-0.924078
0.606369
-0.734008
0.684859
-0.658907
-1.84494
0.670229
-0.837634
-0.171796
-2.16741
-0.561433
-1.17795
-0.0919647
-0.600898
-1.47223
0.116598
-0.823346
-0.853035
-1.35
-0.545268
0.477961
0.0178446
-0.597406
-0.289858
-0.904111
-1.47158
1.04002
-0.359449
-0.246282
-1.96436
-1.23485
0.546306
-1.44026
-0.743991
0.0913713
-0.55316
-0.76763
1.26182
-1.04425
0.58103
-0.985422
-0.449047
-1.06094
-1.30058
-1.43435
0.923355
0.618274
-0.682057
-0.533208
-0.152175
-0.175975
-0.418868
-0.944003
0.200452
0.404505
-1.29021
-0.159889
-0.31214
0.90126
0.34412
-0.442089
-0.0159979
-0.385414
0.429762
-1.08554
0.315931
-1.7006
-0.219916
0.740374
-0.827863
0.979069
-1.12175
-0.720714
-0.60036
0.862653
0.85939
-1.24621
-1.29605
-0.184972
0.559379
-0.596308
0.225109
-2.17246
0.799365
-0.611115
0.7368
-0.238383
-1.4307
-0.850087
0.637104
-0.0539699
-1.36994
0.433934
-0.943232
0.167763
0.453203
-0.32592
0.239984
-0.311716
-1.00444
-0.69473
-0.100888
-0.915892
0.594728
-0.664888
0.662429
-0.350073
0.31156
-0.15962
0.563818
-0.773615
0.987069
-0.636854
0.525863
-0.468159
-0.511723
-0.798523
-0.311344
-0.436745
0.937281
-0.572455
0.211856
-0.546897
-0.620189
-0.196857
-0.173419
-0.659695
-0.401896
0.272937
-0.696852
0.538486
0.767937
0.918443
-0.963867
0.165693
0.533708
-0.344404
-0.741868
-0.416078
0.694219
-0.538471
0.00394877
-0.996804
-0.974922
-0.426827
-0.802602
-0.23049
-0.289303
0.439942
-0.86911
0.0277184
-0.152043
0.379603
-0.492114
-0.196961
-0.471047
0.868501
-0.0549495
0.221832
-0.0231962
0.0290391
-0.509962
-0.33399
0.00472475
0.192116
-0.379688
0.925995
-0.535199
0.493808
-0.354934
-0.363536
0.904944
0.0694421
0.74361
0.869205
0.334228
-0.420621
-0.868951
-0.536223
0.409447
-0.609785
-0.155563
0.87211
-0.715566
0.286362
-0.0545357
-0.126134
-0.511361
0.0118388
0.813888
-0.846992
0.427808
0.23441
-0.621832
-0.206036
-0.444672
0.716199
0.817873
0.234558
-0.638363
0.0300474
0.649263
-0.281351
0.632234
-0.413224
-0.655764
-0.0144208
-0.60935
0.728615
-0.591606
0.232545
0.756101
-0.215062
0.893155
-0.666603
0.943755
0.12793
0.196738
-0.737556
0.133555
0.108761
-0.37902
-0.758702
0.475582
-0.514553
0.645718
-0.629048
-0.374646
0.763451
0.348426
0.478595
-0.874914
-0.736877
-0.820094
-0.983371
-0.0869792
0.268607
0.059526
-0.00426114
-0.328404
-0.494353
-0.532649
-0.653674
0.191962
0.453786
0.755146
0.414319
-0.530469
-0.0440085
-0.963576
0.494662
0.309447
-0.843866
-0.0544618
0.99295
0.064195
0.798872
0.545802
-0.592481
0.814217
-0.250375
0.696178
-0.346602
-0.346527
0.318421
0.17353
-0.902034
1.16625
-0.0726322
-0.384012
-0.141974
0.179161
0.88348
0.949493
0.107806
-0.248363
-0.855672
0.266727
-0.23777
-0.787997
-0.279652
0.285786
0.412242
0.0116465
-0.313912
-1.09732
0.963942
0.49797
0.365933
-0.33212
-0.593756
-2.05578
0.458241
-2.16265
-1.56129
0.57371
-1.94072
-1.49611
-1.05999
-0.811118
-0.157679
1.33231
-1.384
-0.401578
-0.0695719
-0.371433
-0.839694
-2.17547
-1.2746
-0.466219
0.80895
1.51153
1.22375
-2.46352
0.575688
-1.14942
-0.36323
-1.0952
-1.38212
-0.954047
0.803355
0.310426
-0.912145
1.26478
-2.8134
-0.109053
0.435167
-0.836511
-1.09306
-1.44237
0.192048
0.116358
-0.184996
-0.404925
0.496742
-0.816112
-0.430394
-0.323901
0.195321
-2.17977
0.402091
0.549431
-0.455321
0.769885
-0.434938
-0.597017
1.03618
0.896563
1.1134
0.271953
0.346364
1.19158
-0.945254
0.554765
-0.948082
0.525042
-0.403994
-0.334906
-0.708643
-0.639358
0.601983
-0.908421
0.748282
-0.500273
-0.916785
-0.588089
0.199554
-2.21778
-0.957636
-0.433102
-0.116017
0.644907
-1.40783
1.37852
-1.30995
1.13545
0.689713
0.583789
0.61225
0.546
1.02986
0.182744
-0.826224
-2.03089
-0.610303
0.403523
0.537495
0.53474
0.204457
-0.28897
-1.54398
0.675518
0.300487
-0.79217
-0.972832
-0.742772
-0.776769
0.535607
-0.285872
0.0240917
0.762783
-0.517027
0.668241
-0.0737416
-0.932649
0.553923
-0.0400721
0.142843
-0.832419
-0.935248
0.715047
0.65022
-0.748731
0.321156
1.39163
-0.355822
-0.26761
-1.50275
-0.989016
0.759847
-0.532713
0.616117
0.113064
0.887185
0.00740693
0.332834
-0.694069
0.946458
0.267534
-0.6427
-0.851714
-0.0100504
0.57196
-0.0706405
0.766063
0.294738
0.806482
-0.988053
0.387124
0.170179
-0.789277
0.98064
-0.540016
-0.334184
0.378766
0.922841
-0.546802
0.848483
0.752492
-0.136511
-0.0582252
0.124205
0.675231
-0.703382
0.278556
0.991187
0.278788
-0.120963
-0.943223
-0.833698
0.0607344
0.564003
0.47329
-0.619678
-0.476345
-0.0955105
-0.0799462
0.347274
-0.646094
-0.624338
-0.807026
-0.352251
-0.659347
-0.950532
0.661286
-0.510343
-0.71593
-0.689116
-0.393979
-0.932855
-0.181421
0.566247
-0.113256
-0.965024
-0.428431
0.902793
-0.65737
-0.8117
-0.452177
-0.597272
0.506233
0.601759
0.172168
-0.00601096
0.181946
0.137583
-0.629804
0.803313
-0.951076
-0.471247
0.565031
0.199404
0.112431
-0.806935
0.853574
-0.203217
-0.920194
0.170234
-0.17357
-0.740933
0.217878
-0.889187
0.696592
-0.0958722
-0.0299712
-0.865106
-0.557988
0.288729
0.951664
0.898685
0.472945
-0.158293
0.371468
0.372432
-0.537467
0.98955
-0.128814
0.487585
-0.323899
-0.274168
0.979767
0.450157
0.675013
-0.203929
0.703391
-0.656794
0.894789
-0.298207
-0.230243
-0.20054
0.436733
0.671835
0.901748
-0.872037
0.329051
-0.647377
-0.258084
-0.6632
-0.773595
-0.694853
-0.208966
-0.20705
-0.944071
-0.134351
-0.635965
0.843722
-0.0621174
0.358382
0.454055
-0.0515613
0.253038
0.649631
-1.29512
-0.882603
0.469134
0.564684
-0.726742
0.767956
0.207921
-0.266293
-0.949017
-1.25632
-0.164573
-0.837881
-0.341177
-0.44696
0.72394
-0.756093
-0.865129
-0.188062
-0.191487
-0.290211
-0.669418
1.58309
0.329075
-0.865247
-0.249104
0.00197512
-0.0964316
-0.783829
-0.386799
0.602489
0.297889
-1.67027
1.33958
-0.295048
-0.913936
0.253338
0.507818
-1.73181
-0.159307
-1.76921
-0.912638
-0.785236
-2.66814
1.7145
-0.396462
0.156318
-0.22492
1.88856
-1.01736
-0.590332
-0.382986
-0.946359
0.183093
-0.709277
-0.525334
-0.833566
0.275906
-0.477214
2.15027
-1.30306
-1.25197
1.68134
-0.147889
-0.151832
-0.135431
-1.83985
-0.552294
0.895866
-0.277154
0.257359
-1.73807
-0.52696
3.96704
1.06243
0.250505
1.16974
-0.486264
0.240814
-0.459124
0.204638
1.90224
-0.0873682
-1.63412
4.00234
0.946727
1.32448
2.56138
-0.914285
1.64597
0.560251
0.352329
1.00379
-1.07578
-1.36646
2.12248
0.0580468
0.78288
1.68197
-0.65872
2.54168
0.558114
0.60655
-0.359361
0.632884
-1.05229
2.0587
0.657912
-0.668941
2.64874
-1.09344
1.79752
0.365154
0.360954
-0.493912
1.09432
0.394271
-0.453069
1.01521
0.0780751
2.06634
-0.957817
0.235077
0.674553
1.23103
-2.61646
-0.982767
0.194657
0.203439
0.659408
-3.26118
1.3302
-2.07589
-0.495855
0.0383651
0.532678
0.173383
-0.807501
-0.424537
-2.25435
0.409037
-0.0985605
-1.1121
-2.11866
-0.933525
-0.213236
0.24641
0.489729
-1.61155
-0.805734
0.382811
-0.334679
-1.25714
0.138327
-1.27667
-0.334183
-0.830732
1.44492
-0.754582
-0.873732
-0.89997
0.294539
0.252898
-0.593678
-1.2478
-0.144668
-1.83969
0.231636
1.48979
0.949445
0.471846
0.458573
0.472135
0.378641
-1.15647
0.489126
0.257074
0.146778
0.187517
0.291782
-0.914164
-1.01704
-0.288063
-1.29731
0.587012
-0.296746
0.852232
0.359375
0.188833
-0.264279
-0.764217
0.19725
-0.966835
-0.0644456
-0.786984
-0.322542
-0.826216
-0.589684
0.0355581
-0.0464416
-0.92962
0.706278
0.901228
0.705871
0.960601
0.724615
0.642614
0.837248
0.196464
0.653549
0.0752123
0.826277
-0.664435
-0.962223
0.713
0.682753
0.576374
0.459037
0.469095
0.172927
0.12646
0.848465
0.210474
-0.797356
0.238029
0.46764
-0.418072
-0.36275
0.147786
0.282527
-0.889157
0.95983
0.585033
0.27836
-0.351347
0.945358
0.0104699
0.842887
0.139224
-0.107307
0.928931
-0.759607
0.969848
-0.54006
0.193992
0.140695
0.529287
-0.175635
-0.88823
0.0120034
-0.655917
0.0580519
0.0690341
0.36537
-0.0551445
-0.338371
-0.25097
-0.724148
0.458779
-0.341401
0.321014
-0.872513
0.814771
-0.790684
-0.801497
-0.21496
0.331339
-0.00880319
-0.0752157
-0.577427
-0.180994
-0.784551
-0.0213578
-0.776354
-0.282802
-0.418675
-0.344393
-0.481943
0.0904144
-0.860736
-0.965317
-0.730162
0.79308
0.484645
0.207326
0.905771
0.828326
-0.515297
0.804135
-0.148149
0.292312
-0.28604
-0.921395
-0.0123085
-0.310225
0.0192686
0.200321
2.00324
0.325877
-0.324776
0.549872
1.13254
0.311446
-1.20744
-1.51349
-0.37248
0.277611
-1.2744
2.42943
0.978961
0.705565
0.61635
1.40113
-0.146259
-0.0240092
0.129509
1.0845
-1.53441
-0.591831
2.93003
0.0869775
-0.123315
-0.0919023
2.0724
1.83466
0.302983
-1.14086
-0.566795
-0.0881864
-1.74981
1.20733
-0.309374
-0.76125
1.48981
0.129288
-1.01759
-0.916597
-0.241459
-0.177315
-0.146346
-2.77405
2.72156
-1.49491
0.95295
1.99373
2.24832
-3.08313
-1.72105
-0.376525
0.275261
2.02006
-4.15927
-0.839055
-2.46809
-0.193815
0.762799
2.81077
-2.76423
-1.34416
1.96662
0.456288
1.38826
-0.651566
-1.56918
-1.47495
0.414974
0.268571
1.35039
-1.94111
-1.39027
3.94663
0.515359
1.16131
-1.06477
-1.52142
-2.68801
0.748007
1.6495
1.14345
-2.43441
-2.50907
2.33612
0.861109
1.01144
-0.250439
-2.68155
-2.47202
0.628286
0.692656
0.414245
-2.17242
-2.61029
1.80119
1.96195
1.05014
0.364331
-0.552231
-2.57666
0.274989
0.278753
2.68582
-1.62343
-1.06035
5.15148
1.24261
0.508136
2.77327
-1.11979
-0.401114
-0.78243
0.036857
-0.0680503
-1.68443
-2.53695
0.899697
2.03995
1.85972
1.55482
-3.4441
-1.48741
0.734173
2.56029
-1.40262
-0.0516196
-1.47923
1.82884
2.67028
-1.43822
1.28228
-1.69075
0.0871332
0.561762
0.439903
0.456618
0.132789
-1.07765
-0.962689
1.16336
-0.837741
3.51073
-2.25152
-1.94812
-0.945784
1.27313
-1.04873
-0.772449
-2.1817
-0.323609
0.684368
-1.97447
0.69014
-1.06957
-2.10179
-0.0797436
1.78756
2.24834
-2.22344
-1.02093
-1.41781
-0.326377
-0.352787
-1.30843
-2.90101
-1.80351
-0.498338
1.48846
-0.330794
-2.54585
0.119079
0.683497
-0.53442
-1.05298
0.263457
-1.10598
-1.88284
-0.682086
0.613334
0.123643
-2.59244
-1.73212
-1.05669
-0.338445
-1.57297
-1.3984
0.0761875
-2.03341
0.301795
-0.13739
-0.963428
-1.39921
0.356296
0.702734
0.210928
0.764921
1.79172
0.221022
-0.287104
0.11827
-1.14347
-0.316303
-0.882697
0.941348
-0.946477
-0.145291
-0.377631
1.4355
0.563472
-0.254269
0.697622
-0.746544
-0.0461392
0.570222
0.996082
0.588935
-0.945401
0.918626
-0.329014
-0.905958
0.211875
0.948114
0.3828
0.348969
-0.598377
-0.58221
0.726699
0.731075
0.44224
-0.959664
-0.250698
-0.373478
-0.00338942
0.458367
0.429882
-0.747969
0.601227
-0.338425
-0.172612
-0.34165
0.230824
-0.372185
0.567689
0.340897
0.0748618
0.443271
0.459565
0.278964
0.272398
-0.79598
-0.770554
0.11216
-0.0660737
0.487209
-0.816557
0.59413
0.0912765
0.940937
-0.58839
0.801572
0.470233
0.579944
-0.205033
0.818205
-0.77083
-0.701667
-0.570585
-0.739016
-0.861288
-0.820939
0.193487
0.913887
-0.758309
0.711142
0.644461
-0.0559292
0.345207
-0.671988
0.531887
-0.516817
0.07472
0.445944
-0.589045
0.168249
-0.711044
-0.0855487
-0.165703
-0.208272
-0.0981139
0.248587
0.120213
0.565655
-0.397525
0.612649
0.404378
-0.312701
-0.958791
-0.22599
-0.364884
-0.508525
0.634744
1.00409
-1.22548
0.472887
-0.590031
0.21867
-0.099391
3.12968
-0.552099
-0.224125
0.847242
1.6926
1.12325
-0.689011
0.551315
0.378608
-1.339
-0.456442
2.64926
-1.11616
0.441362
-0.716236
2.89476
1.95747
-0.0984533
-0.0849672
-0.614798
-1.10745
-1.9139
1.30337
-0.687826
0.4907
-0.566438
2.0729
1.17654
0.0240004
-1.25021
0.462403
-1.8487
-1.13632
3.03565
-1.31913
-0.692723
1.50331
5.432
0.261035
1.36586
-0.621178
0.465984
-0.0395375
-2.68014
4.71434
-0.874236
-0.173111
1.54618
0.41144
-2.88795
-1.57447
1.1279
0.604294
-1.70549
-1.32015
-0.752595
-2.23276
0.802861
-0.447173
1.25606
-2.67473
-1.956
0.73117
0.516089
-0.384574
-1.9452
-1.41841
-2.23286
-0.165576
-0.589426
-0.589045
-4.92577
-0.551327
1.89723
1.67443
-0.938667
-0.264878
-3.11317
-4.09394
-0.764503
-1.2006
1.24907
-1.99349
-2.05792
1.74701
2.24848
-0.546824
2.52409
0.151382
-3.30253
0.949773
-0.69789
2.39577
-2.53962
-2.43553
0.11928
0.919378
2.86752
1.17523
-1.01458
-3.68887
0.986128
-0.302382
0.0584458
-3.96353
-3.84401
2.24952
0.137814
1.0623
1.73445
-1.28262
-2.74113
-0.637849
0.380496
2.0389
-5.375
-3.47482
1.41661
0.416505
1.51613
1.84503
-1.99381
-3.73453
0.713558
-0.741216
-1.07159
-1.99523
-3.38441
1.99338
0.94515
1.89523
3.00751
-1.91329
-3.25756
0.478181
-0.235834
-0.791879
-1.43483
-2.70397
0.338637
1.77379
-0.341076
2.01594
-1.49782
-1.41555
-0.248037
-1.90995
0.124563
-0.381072
-2.13568
-0.807942
-0.012375
0.52609
2.09977
-1.7022
-1.66524
-0.95079
-0.241726
0.943412
-2.74685
-1.46314
-1.93475
0.619521
-1.29858
0.436278
-2.30126
-1.88317
0.442608
0.558781
1.87309
-1.04696
-0.479001
-0.124833
0.692909
2.46187
1.18725
-1.31874
-0.674941
-0.455043
-0.419498
-0.914014
-2.31447
0.0179129
1.42096
0.441473
0.512603
4.51682
-0.0500327
-0.788963
-0.236982
-0.562739
-1.36321
0.321307
0.0271025
0.480498
0.831284
0.22317
2.01852
0.560453
-0.109768
0.136099
-1.57568
-1.85529
0.296074
0.0204327
0.294629
0.57616
0.175178
2.71351
1.22483
0.580505
0.481367
0.0412635
0.440894
-0.754259
0.365069
0.435912
0.34951
0.332674
-0.0543561
-0.885296
-0.247796
0.249402
-0.771404
0.0673391
0.309193
0.913389
0.910936
0.794347
0.812309
-0.709882
-0.247316
0.36433
0.06663
0.431118
0.64798
-0.991481
0.362059
0.482403
0.836078
0.160476
-0.958209
0.674348
0.194132
-0.450463
-0.369657
-0.988321
-0.0362784
-0.663044
-0.249789
0.0266024
0.951938
-0.664425
0.733906
0.453871
-0.178046
0.36026
-0.273243
-0.408897
-0.0778814
0.38068
-0.69602
-0.848056
0.181532
-0.0334316
0.616399
0.931694
-0.792057
0.396422
-0.0520936
-0.783496
-0.562259
-0.151663
-0.621694
-0.784258
-0.228445
-0.832809
0.108199
-0.965322
0.99305
0.998386
0.285778
0.207725
0.44979
0.551557
-0.605723
-0.797774
-0.543907
-0.231161
0.407723
-0.325221
0.892334
0.61351
0.0761005
0.615292
-0.765331
-0.400281
-0.243392
0.476831
0.589539
0.662735
-0.0584577
1.14031
0.708011
0.279488
0.568708
0.303296
-1.10959
-0.72561
0.589001
-0.0986899
0.63218
-0.0570596
1.22735
0.239908
-0.64418
-1.01322
-1.48745
-1.51045
2.81198
-0.525148
0.0530378
0.148287
3.23568
1.22796
0.310634
-0.453552
-0.3674
-0.79589
-1.43638
2.47278
0.0723905
0.209234
1.20781
3.26181
-0.478744
0.783838
-2.38349
-1.40672
-0.374717
-0.632655
3.89313
-0.814769
-0.826604
1.06115
2.81624
0.343825
0.868748
-1.40363
0.145408
0.7646
-1.90704
3.75489
-2.79447
0.324474
1.5904
2.17444
-1.79272
-1.72626
-2.97148
-0.15411
2.01636
-3.18553
1.3701
-3.54187
0.623113
-1.33147
-2.36786
-3.76693
-0.390173
-1.76146
0.3082
0.969224
-1.69485
-2.12632
-5.432
0.014222
-1.36182
-1.11357
-3.48974
-1.64404
-1.43967
1.19893
-0.375
1.80487
-1.33215
-0.605725
-0.0948158
-0.854911
-1.80914
-4.11352
-2.98843
-2.90585
-0.980405
-0.122723
-0.197982
-1.75519
-1.38223
-0.416187
-0.564516
0.323464
-1.61094
-2.63133
-3.72019
-1.19148
-1.18993
2.01818
-0.440738
-3.40974
-0.137437
-1.50618
1.3821
-3.00786
-1.66495
0.386521
-1.24631
-0.319671
2.13265
0.508831
-3.82867
-0.0758872
-1.6948
0.523699
-1.92066
-2.90797
-1.01242
-0.531022
1.4191
1.5252
-2.03626
-2.26888
0.118608
-0.787276
-0.00206845
-0.644877
-3.67532
0.885247
1.19874
-0.538776
1.77277
-1.48767
-0.505171
-0.237965
-0.769387
-2.1702
-1.64905
-0.974482
-0.0119852
-0.798923
-1.12072
2.23728
-0.772125
-0.773769
-0.217706
-0.153385
-1.11477
-2.50688
-1.91059
-0.0959891
1.01781
0.742962
2.52315
1.60401
-1.34154
-0.83737
-1.1856
0.228107
-1.33201
0.18369
-0.721224
0.91185
1.88361
3.04148
1.38151
-3.91734
0.348669
-2.77092
2.46745
-1.05351
1.49504
-1.75588
0.432815
2.48448
2.21926
-0.414646
-0.785616
0.603422
-1.77319
-0.158431
-0.131455
0.573871
1.6201
1.12285
1.66516
2.84448
0.357363
-0.932357
-0.804879
-0.147299
-0.623142
-0.0794808
0.716839
-0.89774
0.178292
0.436647
2.91431
0.993962
-0.0857518
-0.0150452
0.8795
-1.33718
-0.212599
0.119845
-0.282474
0.2111
0.203462
0.502238
-0.84259
0.90886
0.0606902
0.419331
1.33846
-1.3715
-0.796346
0.466789
-0.94029
0.654188
-0.407144
-0.48523
-0.445456
0.538731
0.397646
0.973096
-0.20246
0.687609
-0.0125189
0.574155
0.1218
0.868613
0.834428
0.535653
-0.522142
0.455385
-0.4018
0.688943
-0.961099
-0.717397
0.0430083
0.423638
-0.287202
-0.924919
-0.489796
-0.883495
0.128683
0.416589
-0.716374
-0.447797
0.217682
-0.430459
0.0363242
-0.692453
0.655371
0.0796393
0.314122
-0.478667
0.653939
0.63762
-0.564674
0.549345
-0.95256
-0.320363
-0.468537
-0.429713
0.186202
-0.291705
-0.566656
0.341087
-0.875118
-0.258567
-0.255171
0.955862
0.506922
0.48276
0.963805
0.762492
-0.311233
-0.201126
-0.264672
-0.929526
0.162486
-0.0977311
0.503941
-0.865223
0.491235
-0.427663
-0.507061
0.0211301
0.233179
-1.38728
0.272792
0.520138
-0.145564
-0.616134
0.842376
-0.364585
-0.63807
-0.789998
0.372796
1.122
0.776494
0.518751
-0.832865
1.52177
0.528832
-0.426433
-0.942311
-0.0851155
0.997204
0.683877
0.813876
-0.259877
-0.264105
-0.539859
2.43002
0.0588286
0.784531
0.180336
-1.24727
0.203129
-0.908874
0.529697
3.01884
0.982951
-0.0914585
0.0877972
-0.0549936
0.0494779
-0.640492
2.38183
0.832307
0.836546
-1.05716
2.13869
0.270015
-0.710674
0.331753
-1.10675
-1.13968
-1.77345
1.27827
-0.719901
-0.0153304
-0.0870781
5.69759
-1.19697
-0.649894
-2.40406
-0.544061
2.75616
-2.42821
2.50723
-1.78394
-0.357339
-0.120366
3.09802
0.00984664
-1.81469
-0.980981
-1.30547
1.53306
-0.421183
1.52657
-3.27487
0.06294
-1.55028
1.97455
-4.42911
0.557753
-3.42502
-0.605341
1.16431
2.73321
-1.5566
-1.05931
0.364071
-0.826992
-2.28423
-3.41214
-1.58408
-2.67447
-1.17039
1.54314
-0.0838588
-3.08082
0.658639
0.108656
-2.03478
-0.226
-1.11196
-1.35673
-0.913926
-0.844129
0.939873
-0.34187
-2.64192
-1.15594
0.546655
-1.86372
0.814042
0.139855
0.110417
-1.96823
-2.18724
1.29584
1.30707
-0.10947
0.307971
-0.290953
-1.10434
-3.0574
-2.10185
-1.55151
0.19717
-0.784428
-0.360893
1.00281
1.44874
0.813893
0.478758
-2.44224
-1.03781
-0.284094
-0.394133
0.950208
-2.28936
0.570135
3.00504
1.2312
2.28919
-0.574648
-0.893904
-2.19309
-0.670413
-2.28986
1.01271
-1.67524
1.32256
-0.151979
-0.496598
1.96407
-0.55286
-0.469543
-0.306047
-1.98425
-0.170342
-0.983266
-0.0935296
1.96647
2.58362
0.790832
1.83539
0.370479
-0.775888
-1.34378
-0.703093
0.995367
-1.99537
-2.19409
-0.275225
-0.485822
0.309031
0.478947
-0.00602214
-1.78643
1.09378
-2.47444
0.338202
-5.0513
-0.206681
3.15165
1.63722
2.89853
-0.715518
-0.936069
-2.61679
1.5627
-2.64336
0.346655
-2.01666
-0.625069
1.93782
2.08225
-1.39835
-2.23938
0.540288
-1.68596
0.264816
0.746497
0.324789
-2.07711
0.278732
1.8341
-1.06001
0.642009
-1.05586
-0.430772
-1.04025
-0.0835022
-1.12758
0.731299
-0.73932
-0.338554
-0.3562
-0.329505
-0.210172
-0.319385
0.935368
-0.656169
-0.872286
-0.0638084
0.947725
-0.173175
0.581622
0.770505
1.62378
0.186797
0.624882
0.258801
0.865304
1.16005
0.0499438
0.109248
-0.923986
0.609062
-0.648128
-0.880843
-0.152787
0.847937
0.674559
-0.633324
-0.442354
-0.107395
0.215569
-0.950326
0.97968
0.739778
-0.547927
0.742768
0.74514
0.07632
-0.0539855
-0.26195
0.542437
0.696995
0.841626
0.358569
-0.897155
0.0450786
0.230311
0.916566
-0.365239
-0.44603
-0.178518
0.543065
0.900392
0.10789
-0.841583
0.585507
0.361652
0.10041
-0.124041
0.234584
-0.763126
0.00177208
-0.418999
-0.0317895
0.661458
-0.266855
0.275876
0.20674
-0.164942
0.163142
0.442051
0.690134
0.888896
-0.731189
-0.859389
0.334133
-0.149953
-0.0774682
-0.912396
-0.535361
0.734728
0.847766
-0.257194
0.229591
-0.340722
0.839468
-0.54753
-0.726097
-0.350056
0.523544
-0.0404838
-0.934038
-0.797918
0.257228
-0.398794
0.505551
0.711859
0.491497
-1.05638
0.560069
-0.612788
-1.72322
0.631122
-0.347655
0.264453
-0.594494
-0.738168
0.401335
0.76398
0.117389
-0.812824
-0.87142
-0.165638
0.256166
-0.334781
1.95806
-0.621939
1.78918
1.20671
-0.404893
0.385585
-1.48374
-0.798381
0.539928
1.26199
0.200483
-0.476677
2.17875
0.529269
-0.776381
0.576573
-0.639623
-0.285385
-1.72011
1.32209
2.80091
0.945173
-1.80149
2.38133
-2.05737
0.979328
-1.23678
-2.28607
-0.704039
-2.29306
1.21893
-0.444796
0.273076
0.564675
1.65612
0.599689
-0.0731224
-2.37759
-2.22663
-0.683547
-1.94695
0.0593797
-1.7056
0.228825
0.695222
1.37274
-0.396267
2.39388
0.290311
-0.80418
0.00979096
-0.216295
1.15717
-2.40902
-0.197185
0.807026
0.0806699
-2.18364
-0.525903
-0.366861
-2.22992
1.4571
-0.748951
-0.994628
-1.64408
0.390823
-0.927833
2.1181
-2.05683
0.323637
-1.20565
-0.436925
-1.15287
2.69937
-2.01509
0.28216
0.65065
-2.00955
-1.16467
0.477319
-0.662149
0.361193
-2.17334
-1.26345
1.16918
-1.32423
-0.0271105
-0.0194196
-2.05941
-0.105259
2.72964
0.152812
1.20311
-0.121653
-0.577794
1.97435
2.27532
-0.558553
-0.39511
-4.08035
-1.3299
1.61411
-1.06002
-0.0282823
0.575483
0.507114
2.36156
2.37291
1.29976
0.67621
-4.76549
-0.98882
1.77473
-1.11191
1.206
-0.883473
0.805952
1.74494
2.32451
3.41455
-0.578701
-1.36313
-2.44152
3.97396
-0.298175
0.734889
-2.01787
0.914963
0.633689
-0.678585
0.4343
-0.21891
0.0746106
-0.883228
3.26356
1.83704
-0.464692
-1.34369
0.488772
-0.727675
0.802227
0.458352
-0.735201
0.244841
-0.503492
0.0627959
2.23048
-3.96951
-3.74294
0.260039
0.00390539
1.51502
-0.931755
-0.630185
-1.45059
-0.545636
-1.54287
2.16743
-2.96837
-1.4647
1.48862
0.981624
1.28132
-0.393813
0.879278
-2.62701
1.25844
-0.924189
0.148691
-4.50509
-1.21766
2.61734
2.31059
1.20704
-0.930972
-0.902873
-1.06025
-1.6031
0.778129
1.47319
0.0927839
-0.921136
-0.211606
-2.94654
0.0923373
-2.96082
-0.178021
-0.939849
-1.0182
0.935284
-0.627767
1.03128
0.421838
1.5747
0.691775
0.0528405
-0.494881
-0.342209
-0.213535
-1.10228
-0.817566
0.123556
-0.870777
-0.592494
0.82149
-0.231829
-1.09613
-1.51818
-0.202623
0.618251
0.70445
0.514403
-0.807764
-0.123004
0.541525
0.425194
0.324558
-1.43087
0.117761
0.194804
0.423876
-0.542856
0.214641
-0.383385
-0.704985
-0.133537
0.126354
-0.502028
-0.282602
-0.823148
0.687454
0.20607
-0.961341
-0.576839
-0.736314
0.191833
-0.469298
0.924208
0.575403
-0.5643
-0.186656
-0.89576
-0.119397
-0.245512
0.849294
0.981544
0.735845
-0.866459
0.179109
0.383324
-0.211061
0.593939
-0.0774822
-0.620633
-0.154219
0.815778
-0.274195
0.920429
0.276574
-0.593472
0.608886
-0.858532
0.76633
-0.545559
-0.0844213
0.627639
0.479866
-0.596082
-0.679137
0.0916406
-0.567808
-0.144627
-0.860919
0.173001
-0.0480372
0.188494
0.0514387
0.923531
0.88967
0.832588
0.280013
-0.128094
-0.362367
0.510635
0.249201
-0.596435
0.533903
-0.629064
-0.217461
0.914369
0.0896913
-0.162835
0.57765
0.139563
0.915746
0.807353
-0.545225
2.24047
-1.92868
-0.223417
0.774873
-0.826539
-0.651015
-0.721719
-1.94382
-0.501098
1.98852
0.178343
-0.409478
0.887806
-0.937446
0.0295326
-0.775377
1.20919
-0.822048
-1.24897
1.30846
1.48175
0.987816
-1.6807
0.0366157
-0.374738
0.848938
1.43962
0.779434
-1.01359
-1.8658
0.612323
3.66233
-0.9728
-0.686856
-0.575717
0.14652
-0.818954
0.664844
-1.04261
-0.454302
-4.27829
0.944409
-3.8158
0.0648078
0.814542
-0.741131
-1.55217
0.600834
-1.13067
-0.332311
0.569865
-4.34212
-0.574275
-2.4434
0.296804
1.09249
1.01415
-0.441157
-1.20944
0.814027
-0.279602
-0.417293
-1.18042
1.77554
-2.87892
0.546085
-0.349493
1.42954
1.1867
0.194066
-0.126817
-0.842497
-2.27071
-0.723287
-1.16642
-1.49244
0.867939
-0.244752
0.109721
0.88187
0.541677
1.54878
-0.118939
0.308182
-0.94108
-2.60482
-1.57591
0.622235
-0.268683
-0.111537
-0.51352
-0.895989
4.56584
0.716471
-2.18211
2.596
-1.96395
-2.23128
-0.574046
-1.57364
0.341473
2.70485
-1.27411
2.69381
0.392328
-0.913253
-0.229579
-0.0736201
-2.74311
-0.883017
-1.83323
-1.34713
4.58518
0.116732
2.74946
0.0627986
0.126458
2.84873
3.19415
0.520005
-0.442838
-4.81455
-1.15239
2.61726
0.186965
2.96942
0.0668412
2.2744
5.53662
3.7445
2.48888
-0.962801
-1.70608
-0.452532
4.46585
-1.01622
-0.120713
-2.3019
1.36352
-0.599768
0.657016
3.23648
0.341335
-0.459294
-0.102288
4.05776
1.67173
-1.23586
-4.37773
0.184249
0.00403941
0.712369
-1.8714
-0.314677
-0.907948
-0.985098
1.18766
2.43468
-4.0954
-4.02629
-0.00253937
-1.33966
3.34347
1.10608
-0.80327
-1.60751
-0.170277
-0.624163
1.37525
-3.47722
-1.37344
2.66326
2.66437
2.87963
-0.941858
-0.188728
-1.30046
1.13644
2.11615
1.1097
-4.93383
0.0300089
1.83217
-0.179893
0.449461
0.654927
-0.384995
-1.12579
1.62923
0.974311
0.63173
-3.70636
-0.263292
1.4889
-0.655339
-1.28956
-3.42534
0.498925
-0.533299
-1.19017
0.783691
0.134624
-0.171478
0.759133
1.92509
-0.916059
-1.58601
-2.03955
-0.678469
-0.511838
-0.912398
-0.0783986
0.396013
-0.397853
0.676323
0.822885
-0.846858
-1.5514
-1.62837
0.842307
0.153517
-0.248066
0.690729
-0.764738
-1.37507
-1.16686
-0.209259
0.275031
-0.429572
0.0345788
-0.356035
0.689309
-0.607207
-0.493194
0.190484
0.0140047
-0.274886
0.737491
-0.238506
-0.54428
0.192536
-0.157
-0.10309
-0.482256
0.953578
0.848903
-0.885618
0.0328325
-0.167082
-0.708652
-0.174211
0.622129
0.0668536
-0.791468
-0.296281
-0.676695
0.629609
-0.083156
-0.0709272
-0.931336
0.480935
-0.443616
-0.320892
-0.272666
0.678412
0.160736
0.847002
0.931705
0.491898
0.259446
-0.907781
-0.8604
0.215782
-0.903458
-0.803927
0.916929
-0.202836
-0.539524
0.0794377
-0.840079
0.784845
-0.671942
0.498737
-0.538505
-0.966067
0.980278
-0.177218
-1.21761
-0.338168
-0.0915314
0.203848
-0.067166
-0.237073
-0.60528
-0.405454
0.744234
-0.948535
-0.12879
-0.11579
-0.279429
-0.0591801
-0.523719
0.719896
-0.202776
-1.26656
0.188055
0.444856
-0.0578637
0.46444
-1.11922
-0.454249
0.370995
0.230052
0.816575
-0.849026
-0.678748
1.34553
2.01703
0.124769
1.26267
-2.38805
-0.619742
0.430962
2.142
0.941952
0.275386
0.188216
2.18488
3.70523
-0.859915
1.69399
-2.55975
-1.08716
-0.24201
1.87376
0.241094
-1.26925
-1.3597
2.03581
3.27607
-0.608975
0.814948
-1.90849
1.00104
0.197068
1.23437
0.437211
-0.78757
-3.12387
-1.00242
-3.8561
0.463454
3.22351
-3.29351
1.26126
0.527949
1.99592
0.844424
-0.221846
-3.54336
-0.0767347
-4.65838
0.676594
-0.164041
-0.425542
1.79892
-0.537866
0.921609
-0.416936
0.292527
-0.96402
-1.97958
-2.37837
0.451998
1.17047
1.03382
0.695648
-0.429302
1.11733
-1.08074
1.70653
-0.680257
-0.455795
2.02899
0.599063
-0.887197
-1.69448
-3.14808
-1.52205
1.72797
1.21216
-1.99892
0.100355
-2.36765
0.807386
0.568262
-0.615555
-0.849831
0.894443
-1.50396
3.62576
0.363553
-1.7217
1.67593
-2.22337
-1.76225
0.0893456
-1.31056
-0.431548
1.7066
-0.425276
3.4526
0.92838
-1.49345
1.85771
0.13381
-2.40655
-0.0112558
-3.30544
-1.67726
2.16394
-0.741565
4.44704
-0.67967
1.19572
4.54379
0.379521
-1.23569
0.651546
-1.74657
-0.340901
3.6422
0.561858
3.78957
-0.244702
-0.424469
4.8252
1.94861
0.352686
0.133846
-0.827704
-3.56987
3.2898
2.02408
0.580762
-2.39787
0.0260972
1.22978
1.1945
0.901939
0.625433
-0.618636
-1.63511
1.11417
2.16556
0.504365
-3.38644
1.27447
-0.551276
1.64316
-1.18028
0.833118
-1.88224
-3.97264
0.619811
2.48917
-3.08152
-3.63985
-1.6486
-0.801699
1.80681
0.229127
-0.683268
-2.14654
2.64055
1.46434
1.06913
-3.22073
0.386652
3.14788
3.83127
2.6604
1.97364
0.736045
-1.58002
0.945848
1.21715
1.08768
-3.07692
0.914926
1.07978
0.704935
1.77639
1.38291
-0.605183
-1.46757
0.41521
3.08295
-0.339531
-2.29664
-0.0993941
1.96721
-0.351752
-0.0788176
-3.02764
-0.17661
0.0745604
-1.60062
0.0810286
0.650617
-1.28442
-0.315175
1.59878
-1.57288
-1.68469
-2.03142
0.440579
0.783464
0.727341
-1.38545
0.143377
-2.21774
0.467811
1.38647
-0.21524
-1.72303
-2.04283
-0.687197
-0.670907
0.43795
-0.863758
-1.0506
-1.478
0.162248
0.713507
-1.19426
-0.596245
0.813525
-0.361177
0.879662
-0.495447
-0.535833
-0.0505275
-0.812863
-0.556371
0.238187
0.887227
0.0376979
-0.849901
0.436847
-0.253338
-0.756972
0.39485
-0.191986
-0.467592
-0.754091
0.841709
0.935995
-0.0743455
0.0348733
-0.109397
-0.958312
-0.762861
-0.756382
0.479348
0.962982
0.984072
0.543155
0.226717
0.893617
0.888137
-0.900631
-0.3491
-0.644024
0.283315
0.870447
0.373849
-0.6394
0.241628
-0.966906
0.676911
-0.582047
0.368746
0.116433
0.824527
-0.681147
0.887587
0.859428
0.820438
-0.232967
0.604979
-0.575984
0.897673
-0.663366
-0.257554
-0.50114
0.919567
-0.238661
-0.365365
0.830032
-0.97096
-0.936893
-0.833332
0.828299
-0.316648
1.15186
0.333655
-0.665532
-0.936149
0.683535
-0.385202
-1.03301
-1.76788
0.574483
-0.0023034
-0.789554
1.59084
0.675289
-0.160363
1.1117
0.868067
0.185686
-0.630682
-0.524302
0.746332
2.39302
-0.481286
0.694943
-1.23083
-1.13139
0.680305
2.75891
0.868174
-0.314035
0.467474
3.87197
4.66434
0.219049
-0.107665
-1.23209
-0.688771
0.846839
1.49171
0.581048
-1.702
0.497123
3.42163
2.16944
-0.326907
-0.496775
-4.68808
1.4101
-0.00021739
1.24367
0.229283
-1.91355
0.850624
2.16125
-1.99502
0.808271
0.00579787
-4.12662
-1.12953
0.398456
0.600854
-0.976407
-1.64548
0.117036
1.03901
-1.5511
-0.549358
2.10129
-2.45585
0.956203
0.463574
1.25697
-1.61927
-0.574034
-3.26797
-2.2079
-4.84062
-0.543468
2.26241
-0.68401
0.16867
-0.146357
2.3779
-0.406074
-0.76882
-0.776993
-1.30681
-1.31516
0.0332068
1.51795
-1.15808
-1.56385
-0.170334
1.64432
-0.234445
1.07731
-1.35088
-1.72214
-0.878167
0.622316
-1.22974
-1.35133
-0.2593
-0.35057
3.69963
-0.395711
0.498039
4.97999
0.400169
-0.375012
0.424367
0.706942
1.19214
0.225318
-0.790123
3.80884
-0.340483
-0.580113
-0.0373275
-1.48193
-3.19668
0.318705
-0.0697451
-2.24965
3.38124
-0.676667
1.548
-0.998383
-2.19696
0.0147763
1.1541
-0.4873
0.235099
0.733464
-0.72548
1.44376
1.51293
0.695891
-1.19359
-0.0371012
3.26285
0.0361356
1.57497
0.610035
-0.274871
-3.03889
0.462795
0.591819
-2.41376
-1.85947
0.798508
-2.06829
-1.15105
-0.223022
0.377536
-1.05534
-2.1232
-0.959419
1.40291
-3.39463
-2.22915
0.54395
2.05746
1.67959
-0.0611659
-0.157512
-0.515689
1.39373
-0.963213
1.60628
-4.23851
-0.513506
1.41316
1.32163
-0.439629
-0.475714
0.636814
0.0450502
1.21828
0.178304
0.0810388
-2.85892
0.949232
1.59671
1.45787
2.93065
1.52209
-0.0166608
-2.22079
2.77177
2.45054
1.12001
-3.52802
-0.521033
3.1238
0.549521
0.67487
-1.20473
-0.330487
0.0117506
0.633931
0.178654
-0.643725
0.933889
0.718287
2.91288
-1.49847
-1.38396
-1.02711
-0.198586
0.341009
-1.10212
0.317795
0.400411
-1.53559
0.375987
1.4813
-2.39758
-1.33287
-1.46353
0.578521
-0.835209
-1.54866
-0.421303
1.04433
0.00674232
0.684183
0.977148
-0.669757
-0.708606
0.694994
-0.608099
-0.240297
0.947426
-0.530188
-1.03629
0.405704
-0.612478
0.581255
0.00343365
-0.229456
0.393992
-0.645526
0.343843
-0.837426
-1.05061
-0.113302
-0.457449
0.415381
-0.751636
0.552991
-0.379345
-0.987477
-0.917235
-0.819925
0.646827
0.0901589
-0.23702
0.60156
-0.553008
0.00614189
-0.580764
0.584679
-0.497328
-0.292236
-0.877186
-0.549994
-0.771171
-0.36802
0.996823
0.46338
-0.704948
-0.403231
-0.437841
0.18856
0.105518
-0.272878
0.808613
0.416035
0.364933
-0.581939
0.119488
-0.374157
0.451599
-0.538185
0.909863
0.326635
-0.971794
-0.369252
-0.2569
0.0828305
0.444251
0.56248
-0.705341
0.568291
-0.567684
0.865484
0.77636
0.250065
-0.993985
0.356222
0.906961
0.51832
-0.642151
-0.684034
-0.932033
0.324655
-0.786329
-0.229647
1.05987
0.572995
0.639328
-0.881733
0.163973
-0.556343
0.49645
0.0898319
-0.158446
0.130356
-0.0693027
-0.205601
0.0528453
-0.411946
-0.985778
2.05383
-0.253809
-0.500984
2.03565
3.05544
2.5266
0.550767
0.464362
0.0170699
0.0160424
-0.5313
3.5785
1.27271
-0.707195
-0.106774
1.64083
0.658747
-0.206464
1.14123
-0.966318
-1.2676
-0.117159
3.75034
0.894466
-1.17372
1.10936
4.26066
1.60054
0.788681
-0.0693847
-3.1206
0.107106
0.049896
2.2516
0.740761
-2.30389
0.549719
1.54534
0.572567
0.458748
1.78468
-3.84118
-1.30293
-0.0413675
3.19684
0.638354
-2.69525
-0.290994
2.50049
-4.32399
-0.260173
3.56372
-2.29983
-0.563535
-1.08125
2.26197
-0.984965
-2.17343
-2.07628
0.332925
-8.03442
0.0277633
1.39589
-2.01467
-1.91035
1.27322
0.315715
-1.44157
-2.0331
-0.796966
-0.886461
-4.77052
-0.527443
1.14111
-1.25528
-1.84271
-1.37783
2.00456
-1.90954
-1.20216
-0.0859861
-1.16929
-4.47885
-0.0745197
2.07143
-0.0619399
-1.42972
-0.288378
1.26438
-2.52408
0.289321
-0.29293
-0.209919
-1.08961
0.903891
-1.85465
-3.5007
1.33011
-0.935064
2.33356
-0.793251
-1.33616
1.39691
2.40641
-1.42424
0.186322
-1.60524
-0.680441
2.64087
-0.0831159
-0.167303
-0.0486167
-3.5982
1.34426
2.35044
1.32139
0.766355
-0.00226687
-3.45846
0.317911
-0.072046
-1.16162
-1.75329
-1.45072
-2.00159
-0.0816805
-1.86963
-0.537519
1.25656
-0.0208956
0.457996
-0.526403
-2.49233
-2.37556
0.145852
-1.76013
-0.238611
-0.0557434
-0.684002
0.0505289
2.31092
-0.743424
0.00480826
-2.59782
-1.90045
1.69017
0.235946
-0.0290542
-0.423547
0.184799
2.18842
2.0377
-1.5858
1.44585
-4.13234
-0.017612
2.52049
1.64886
-0.123344
2.63057
0.0366223
-1.0952
2.92182
2.32275
-0.71472
-3.3026
0.908464
0.684846
0.12189
1.32781
-0.895681
-0.73777
0.482582
3.47047
-1.158
-0.32828
-0.188463
-0.250629
0.911399
-0.432977
0.876254
-0.552717
0.709729
-0.055078
-1.29034
-0.423441
0.579426
-0.582744
0.795538
1.04532
-0.878341
0.707487
-1.4611
-0.978556
0.314658
-1.06937
0.987164
0.962678
-0.10572
-0.317686
0.0213813
-0.693435
-0.531425
0.0213686
-0.639584
0.18683
0.446134
-0.891314
-0.34001
-0.561382
-0.834605
1.24564
-2.11887
-1.91004
0.269285
0.89439
-0.183468
-0.740656
-0.514305
-0.18587
-0.470623
-0.564006
-0.606153
-0.824263
-0.820242
-0.469081
0.807845
-0.213642
-0.305566
-1.18251
0.498334
-0.439774
0.340377
0.568942
-1.162
-0.215059
-0.0534159
-0.743768
-0.555956
0.146366
-0.364352
-0.934685
-0.773685
0.122258
0.157663
0.624399
0.456314
0.0546468
0.169192
0.259392
0.668641
-0.357065
-0.632665
-0.869821
0.748134
-0.212505
-0.883183
-0.943139
0.864158
0.734129
0.58033
-0.746232
-0.596861
0.704347
-0.231937
0.673697
0.955779
-0.388929
-0.246981
0.381232
0.960924
0.987266
-0.210187
-0.573555
-0.304782
0.721372
0.901854
-0.857601
0.450044
0.75978
-0.127949
0.0395976
-0.21066
-0.231849
0.675495
0.013653
0.776339
-0.338296
-0.240705
-0.285716
0.0520104
0.113645
0.231408
0.0339582
-0.0946918
-1.37261
-0.657131
1.22667
0.986124
0.923834
2.47395
1.31258
0.335798
-0.873059
-0.467483
1.09249
-0.58642
-0.989646
0.53271
0.578762
-0.572462
-0.366
1.38755
0.212402
-0.765608
-0.379465
1.55763
0.570373
-0.898817
3.31973
1.28482
0.928425
1.08873
4.18942
2.18018
0.491931
1.01709
-1.03882
-0.188255
-0.263227
2.36254
0.841727
-1.53696
0.658408
1.09874
2.5583
0.306059
0.544824
-1.79224
-0.629856
1.2213
2.43787
0.550568
-1.23063
2.55416
3.73851
1.23196
0.513017
0.805603
-3.69054
-0.901416
0.00422003
1.77363
1.07402
-1.81446
1.68494
0.746998
-0.462851
-0.882318
2.18603
-4.77767
-1.31166
-0.878566
1.93135
-0.18283
-2.17643
0.688725
1.43853
-2.92875
0.453659
3.03612
-3.52584
-1.9634
-1.137
0.593772
0.75597
-4.37939
-0.711793
0.538732
-4.18213
0.395948
2.79462
-0.501761
-0.169339
-1.79423
0.724441
-1.59448
-0.384466
-2.18165
-1.41466
-3.04574
-0.109164
-1.12902
-1.00799
-2.13406
-2.45266
1.55485
-3.00616
-0.730277
-0.7061
0.714696
-3.54473
-0.819253
-2.62282
-0.351647
1.29722
-1.00763
0.125406
-1.42834
-0.835558
-3.18108
0.817078
-3.54671
0.0285342
-2.8223
0.522401
0.66984
-0.864834
0.467655
-0.589856
1.00269
1.11286
2.13289
-2.88264
-0.260461
0.817669
1.99127
-0.90068
0.431867
-1.92777
-0.925227
1.69088
-3.72678
-3.22192
-2.04473
-0.692596
0.818333
1.32186
-0.59643
1.15051
-2.68329
-2.12198
-0.0472094
1.80621
1.13351
-0.514059
-0.730361
1.49534
-0.589188
-1.92544
1.53541
-0.449016
-1.21074
1.95873
2.56786
-0.408804
1.35044
-0.990623
1.46236
1.45701
1.29752
1.18523
-1.60273
0.864714
3.84487
3.26116
2.23746
1.91672
-0.956298
0.517395
2.91618
0.414084
0.640409
-2.08253
0.674009
2.25469
0.258342
1.41069
-0.145286
0.941645
-0.117146
0.648747
2.8665
0.587354
-1.18361
-0.342447
-0.0409167
-0.618701
0.280706
-2.60757
0.0218692
0.105209
0.226167
-0.547436
-0.681838
-0.509919
1.04941
1.60842
0.18937
-0.87618
-0.928171
-0.846193
0.454977
0.0955327
0.483092
1.02709
-0.950725
-0.546802
0.458449
0.0226066
-0.603367
-0.0540096
0.259769
-0.37808
-0.45733
-0.662035
-0.193451
-1.18485
0.0471131
0.954217
-1.29156
-0.881412
-0.593878
0.32657
0.284178
-0.246366
-1.11007
0.0619565
-0.106086
-0.858262
-0.308636
-0.210045
-0.218999
0.385268
0.75783
-0.884556
-0.468121
-0.2144
-1.09423
0.112344
-0.788841
-0.847708
0.0961297
-1.29059
-0.8964
0.644652
0.317791
0.0214874
0.565701
-0.331401
0.273092
-0.80795
0.424034
-0.938696
-0.889295
-0.300389
0.69499
0.736103
0.938687
-0.417893
0.919102
-0.770295
-0.424987
0.194178
0.63922
0.197349
-0.792251
0.431057
-0.670578
0.343143
0.153572
0.24694
0.924551
-0.0493624
0.324171
-0.426406
0.647601
0.792375
0.350046
-0.298153
-0.665507
0.572823
0.921358
0.79382
-0.405689
0.57191
0.994498
0.157004
-0.510189
-0.090523
-0.303315
0.354276
0.974755
-0.0207886
0.389438
0.759996
-0.561432
0.035998
-0.878563
0.173683
0.704389
0.165427
-0.351938
-1.84814
0.208319
1.00491
1.01846
0.650633
2.03974
1.31728
2.30533
-0.630997
-1.22736
1.4896
-0.619668
-0.363694
0.392355
-0.144071
1.18584
2.74459
2.80004
0.575947
0.433638
-0.518038
0.851561
-0.405356
-1.44584
1.41949
1.2608
-0.264462
2.88529
2.61591
1.33344
-0.713723
0.999901
-0.750385
-1.0361
0.735501
1.02519
-0.489884
-0.641311
1.11561
2.5208
3.43661
0.612979
0.642644
-2.01399
-0.391638
0.703597
1.27105
0.542476
-0.189348
0.396645
0.934627
3.17564
0.11162
0.222431
-2.00529
-0.513268
3.07562
2.09368
1.46621
-0.98873
2.73079
0.721773
1.3388
-0.454189
1.14822
-1.45552
-0.362317
-0.923057
-0.288375
-0.80782
-2.18047
0.881003
0.721544
0.0857294
-0.91696
-0.174562
-2.47278
-2.31381
0.060101
-0.492093
0.07956
-2.40942
2.40044
-1.75339
-0.99354
0.105261
0.443684
-5.30586
-2.59823
0.335278
0.559244
-1.92471
-3.02132
-0.202438
-3.38941
0.646133
0.579002
-0.496894
-5.02175
-1.41537
1.64253
0.520879
-1.08165
-2.40933
-2.3796
0.187487
-1.62333
0.051947
-2.76151
-1.08673
-1.23903
-0.859578
-0.48787
-1.4743
-0.42575
-2.50155
1.64274
-2.55679
0.231753
-1.38273
-1.73234
1.65811
0.638386
1.37336
-0.107285
-0.320222
-0.764415
-0.170478
-1.58704
0.946049
0.616191
-0.387687
0.685374
-0.662341
1.19852
-1.28663
0.571336
-3.23386
-0.695846
0.272048
0.583172
2.1295
0.882989
-1.35821
-1.21671
-0.456061
-1.89345
1.73109
-1.08842
-1.93145
-0.774181
-0.272898
1.49067
1.67819
0.21896
-0.247168
0.672312
-0.517217
2.85794
0.441948
-2.00175
1.83664
-0.907829
0.701293
2.16188
0.226635
0.245666
0.491491
-0.0705189
2.24076
1.24456
0.821482
1.13372
0.148706
-0.0966283
1.61594
0.458466
-1.24168
-0.970187
0.465501
2.94765
-1.05886
-0.0639448
0.265364
0.4145
-0.0776294
1.30811
-2.40917
0.380042
-3.46412
-0.767817
0.965141
-0.505241
-1.9832
-2.16747
-0.853156
-1.04554
-1.53951
-1.45693
0.257271
-3.24462
0.653511
0.705503
0.458585
-0.185237
-0.333613
-0.86745
-1.23136
0.401825
-0.723019
-0.137429
-1.52791
-0.283877
0.0686935
-0.213651
-0.11598
-0.852912
0.0433664
1.05682
-0.0387868
-0.349713
-1.16842
-0.0573551
-0.52644
0.634359
0.569926
-1.47878
-1.04521
0.585233
-0.378133
0.287013
-1.35799
-0.90377
0.728054
-0.735389
-0.782438
0.0159075
-0.170415
-0.860744
-0.603558
0.622131
0.377535
-1.48027
0.0709898
0.772525
0.474673
-0.44603
0.151195
-0.452019
-0.0792461
-0.229432
-0.920986
-0.46705
-0.474004
-0.625942
0.301926
0.990967
-0.20515
-0.952506
-0.476185
0.101364
0.0160891
0.00716625
0.743095
-0.262394
-0.986752
-0.730398
-0.845753
0.363115
-0.533326
-0.594299
0.309709
0.623379
0.627141
0.390619
0.0745345
-0.826793
0.572739
-0.737057
-0.986472
-0.323905
-0.279847
-0.0856298
0.933527
-0.632628
-0.674234
-0.412404
0.838882
-0.590875
0.209745
0.0684403
-0.928114
-0.812556
-0.717571
-0.641829
0.0283023
-0.183089
0.198132
-0.462225
1.32419
0.154459
-0.569944
0.387932
-0.274358
0.267966
0.975213
-0.411217
-1.15918
-0.301516
0.149908
0.43151
-0.332283
0.063783
1.2188
1.56124
1.62724
0.472736
-0.455053
1.05717
-1.01296
0.0313317
0.884718
-0.163039
0.949145
1.97554
2.33915
2.01776
0.698142
0.444801
-0.998798
-1.08061
-1.7087
1.42556
0.542006
0.256869
2.67547
2.32376
3.06591
0.733927
1.24956
-1.05417
-2.21343
-0.749087
1.79647
0.702365
-1.47941
1.90159
1.6467
3.19457
-0.69731
-0.278428
-1.96306
-1.25108
1.59343
-0.07671
0.253691
-0.685445
1.32295
-0.0548344
4.05932
0.0158902
-0.662395
-1.20414
0.0381537
1.71271
-0.057642
-0.65935
-0.613595
1.36346
-0.624622
1.34649
0.395707
-1.12163
0.650086
-1.0482
2.4173
-0.606146
0.00602163
1.19385
0.873131
-0.837565
4.40425
-0.352823
-2.04941
-2.28444
-2.16736
2.17385
0.0957178
-1.30546
-0.84591
0.995887
-0.274897
2.24806
-0.62097
-0.832871
-3.97761
-3.24537
2.70814
-0.944799
-1.22581
-2.64006
-0.497073
0.167787
-2.20296
0.168414
-2.00901
-1.84773
-1.12924
1.65829
-2.24527
-1.4672
-3.19515
0.23539
-0.134693
2.51285
-0.418896
-2.14657
-0.776727
-0.242706
1.03513
1.15966
-1.60903
-1.06691
-2.62349
-0.00384173
-2.21796
-0.113106
-2.81967
3.16429
0.877289
-0.479714
-1.1787
-0.583117
1.00856
-2.13289
2.0644
-1.72759
-0.319761
0.383704
-0.84838
0.132023
0.849912
-0.63203
-1.04451
1.50293
-2.78115
0.0963036
-1.21622
-0.368628
2.35536
-1.89557
1.87284
1.00006
-0.967686
-2.46602
-1.95392
-6.55954
0.78648
-0.145155
-0.919058
2.78929
-0.365339
1.24199
0.251684
-1.01268
-1.00136
0.215404
-1.42831
1.50525
-0.482883
0.795682
1.42816
1.38442
1.45297
0.310175
-0.390975
-0.373213
-0.538744
-1.80184
0.498837
0.108357
-0.832557
-0.520338
0.839053
-1.0913
-0.719121
-1.51398
0.11434
1.69391
-0.476958
1.67585
-0.930118
-0.231828
0.848581
2.6239
-0.704641
1.27177
-2.23551
-0.612973
-0.437393
0.159572
1.48318
-0.576466
-0.523409
0.475532
-0.496244
-1.02544
-0.573568
-1.70403
0.176795
0.305843
-0.34021
0.380517
-0.577329
0.327446
-0.411489
1.01956
-0.0827692
0.598528
-0.988938
0.401894
1.36666
-0.515136
-0.695285
-0.769061
0.0857628
-0.93856
0.344482
-1.00871
-0.463161
-1.26092
-0.118455
-0.382783
-0.708863
-0.976963
-0.2395
-0.283436
-0.0314159
-0.58603
0.37831
-0.311151
-0.315327
-0.715595
-0.0634204
0.687247
-0.266056
0.873757
-0.406573
0.208345
-0.19253
0.0604373
0.298896
-0.32022
-0.933324
-0.55643
0.0763132
-0.00557846
0.395377
0.598641
0.0841311
-0.82652
-0.024834
-0.157703
0.00346203
-0.304763
0.48699
-0.24959
-0.155898
0.909101
0.586506
-0.0542906
0.00249521
-0.263352
0.0800336
-0.207075
-0.143053
-0.276151
0.93139
-0.622789
0.577638
0.769941
0.399176
0.531181
0.319726
-0.569912
-0.510506
-0.197853
-0.670023
0.0987742
0.746082
-0.690755
0.727079
-0.773391
0.143747
-0.177785
-0.0777805
0.169395
0.740178
-1.32245
-0.843137
0.0474305
0.00271609
0.17269
0.393593
0.895055
-1.46726
0.0851083
0.429791
-0.489363
-0.318406
1.38133
-0.87117
2.14716
-0.299438
-1.53729
0.816165
-1.65459
0.266924
0.305688
1.0731
0.407806
1.98514
0.241931
1.52406
-0.0867576
-0.241081
1.63681
-2.17822
-0.764589
-0.647672
0.868184
0.0144043
3.15323
2.39993
3.51891
-0.0745981
-1.17224
0.768097
-1.44844
-0.696478
0.952273
0.0413219
-0.35095
2.12601
1.19061
3.18606
0.0119099
-1.04606
-1.00206
-1.24036
-0.0116459
0.883491
0.932024
-0.789061
2.00745
2.02124
2.04053
-0.151356
-1.89292
-1.36509
-1.91702
-0.476597
1.55592
0.111273
-0.743549
1.94068
0.597992
0.105007
-0.414096
-1.08274
-1.39035
-1.95211
2.64284
-0.13311
-0.352967
-0.345455
0.617923
-0.715204
-0.861822
-0.16065
-1.63749
1.1875
0.823124
0.522417
-0.159564
-1.12286
-0.596377
0.945606
-1.9375
-3.03197
-0.656923
-1.66968
0.476033
0.066916
2.24448
-0.368761
-0.779945
-0.150411
1.66399
-0.0250191
-0.714444
0.540532
-2.90232
-0.149119
-1.57607
1.28329
-1.65213
-2.70661
-2.02552
-1.04816
-2.84138
0.684881
-0.549465
-1.1273
0.988573
0.0854928
1.80539
-1.18007
-1.90832
-0.173673
-0.866282
1.40482
0.129685
-0.883171
-2.78364
0.982492
1.4997
0.0858304
-0.497929
-0.334152
1.45161
0.467896
-0.0459281
-0.499523
-0.277737
-0.462483
1.24821
2.35531
0.4265
0.740717
-0.364266
0.485117
0.272759
0.486835
2.57987
-0.644824
-2.9028
1.34717
1.41547
-2.68624
-0.839541
0.0220041
0.927922
0.662405
0.567419
0.517976
0.862063
0.497286
-2.18777
2.54754
-1.26763
1.01978
-0.866601
0.0412516
-0.402327
-0.646132
-1.59047
0.591475
1.17278
1.7383
-0.352128
-0.00522185
0.35151
-0.956526
-0.378226
1.46991
1.48217
-0.80726
-0.499162
-1.45335
5.77206
-0.582716
0.0224701
1.70578
-0.144239
2.48328
3.80684
1.20173
0.226088
-0.424381
-0.227259
2.87159
-0.831531
-0.663123
-0.868583
-0.862109
1.02049
0.99837
2.00257
0.0318249
-0.510876
-0.470086
-0.684211
-1.37536
-0.478286
-0.608195
0.340691
0.157947
1.95424
-1.16642
0.108884
-0.313667
-0.418462
1.37355
0.427945
-0.0809498
-2.61629
0.501797
-1.0408
0.656875
0.345055
-1.80359
0.254042
1.01591
-0.926173
0.168435
-0.904654
0.482562
0.0980736
0.257993
0.931906
0.745567
-0.0336395
0.836246
0.713653
-0.008469
-1.83835
0.61001
0.396399
-0.950557
0.290821
0.0448266
-1.34208
0.617836
0.334918
-0.000208424
-0.632358
-1.16453
-0.838141
-1.5357
-0.974307
0.205872
-0.148286
-0.823607
0.252179
-0.0905036
0.899953
-0.603302
-1.27532
0.556431
-0.743917
0.47302
-0.864832
-0.163964
-0.193068
0.179823
-0.860036
-0.702913
0.791181
0.906871
-0.817262
0.851978
0.145638
-0.577618
-0.797348
-0.773478
0.70182
0.81976
0.53205
-0.255348
-0.696944
0.0203458
0.588726
-0.631895
-0.117413
-0.657695
0.668549
-0.0391721
-0.0130037
0.399527
-0.865589
0.856651
0.298409
0.427093
0.0598422
0.168782
-0.0511355
-0.73417
0.666946
0.321233
-0.0554945
0.743111
-0.414568
-0.477469
-0.185929
-0.726098
-1.03233
0.0237411
0.314231
0.925537
0.313646
0.303107
0.265238
-1.50402
-0.88414
0.840945
-0.138875
-0.960237
1.68845
0.291111
1.07934
0.961924
-1.09649
0.614754
-2.87415
0.588064
0.541707
1.18662
1.68
2.85292
2.11701
2.60207
-0.167533
-0.890953
0.835761
-0.589218
0.529706
1.71051
1.11502
1.10756
3.37637
1.7302
2.29283
-0.143219
-1.33635
0.568565
-1.83133
-1.01037
0.983714
0.968815
-0.199612
2.83397
1.47342
1.31797
0.347948
-1.59294
-1.86224
-0.0219633
0.335027
2.02541
-1.29837
-1.17682
1.93445
1.59056
-0.33557
-0.874005
-3.36607
-2.70784
-2.89813
0.0435681
0.59809
0.243527
-0.275656
2.73843
-0.981012
0.98744
0.991698
-3.89677
-0.0868968
-0.871661
0.831332
-0.549447
0.11217
0.103201
2.16783
-3.0272
-1.72442
-0.942569
-2.36519
0.398853
-0.349916
0.508498
-1.17606
-2.70911
-0.749113
0.880133
-2.55402
-0.872079
-0.581565
-1.05556
2.14731
0.541899
0.194151
-0.758883
-3.20392
-3.18591
-0.140649
-0.963542
-0.938006
-0.104045
-2.98006
3.69675
-0.255879
-0.050551
-2.7576
-2.99445
-0.658329
-1.02699
1.18261
-0.608279
0.247111
-2.12082
3.33103
-1.42773
-1.75365
-3.81056
-0.99591
1.30441
-1.40535
1.85928
-0.626063
-0.850623
-1.68246
1.51983
-1.02679
-1.57794
1.08288
-2.04697
1.46248
0.428842
0.890465
0.522603
0.238003
-3.34752
1.79755
0.273501
-0.442347
-2.60101
-1.28766
1.39887
-0.174714
3.36139
5.00333
-0.755034
-1.04189
0.0630103
2.81449
-0.880733
-0.660917
-0.899038
-1.8328
-2.35104
-0.579442
0.497757
0.780963
-0.126329
-1.07781
2.43802
0.0560849
-2.90943
-1.71504
-2.84081
-1.00682
0.312415
1.20804
-0.747291
1.9237
3.58993
-1.1284
0.230852
0.745703
-2.39411
-0.36133
3.00276
0.168247
0.00653615
-0.465564
0.267701
4.31744
-2.19159
1.32657
-0.912212
-0.350809
-0.929527
2.523
2.80556
-1.47343
0.731909
-0.26965
3.3953
0.40224
0.883611
-2.62015
0.0200535
0.741079
1.52598
1.4445
-2.3072
0.895977
0.608189
-0.408757
2.65998
1.46276
-1.46898
0.136116
-0.957484
1.73248
1.20021
-1.19441
0.802795
-0.314073
1.40906
1.24859
-0.231855
-2.77428
-0.696891
0.44871
1.16926
0.888347
-0.907255
-0.815756
-0.77547
1.45702
1.51751
-0.551131
-0.639275
0.0637584
-0.841467
-0.952012
-0.527844
-1.04479
-0.249135
-0.253553
0.646054
0.891691
0.345502
-0.730794
-0.716445
0.874295
1.01824
0.623059
-1.41841
0.424461
-0.982242
1.2367
-1.12065
-0.726574
-0.581362
-0.421715
0.196415
0.747678
0.0786003
-0.179974
0.862611
0.179012
-0.0572761
-0.513768
0.543157
-0.676703
0.507241
-0.566875
-0.494792
0.0365517
-0.000432957
0.989859
0.161889
-0.490713
0.346681
-0.417841
0.64511
-0.851421
0.926568
0.341179
0.28198
-0.818234
0.266026
-0.203339
0.984238
0.791704
0.544482
-0.925828
-0.469909
-0.370966
0.981294
0.958582
0.99096
0.3808
-0.463417
-0.265536
0.874896
-0.451718
0.399712
-0.239833
0.58798
-0.819918
-0.97207
-0.285513
0.401304
0.440689
-0.956358
0.896821
0.112847
-0.241803
-0.50584
-1.30482
0.315603
0.411534
0.934379
0.939803
0.65444
-0.183001
-1.78724
0.32184
0.762156
-0.305844
0.669728
0.686994
-1.32974
2.5026
0.629314
-0.952489
-0.397476
-2.11056
0.626553
1.05225
0.0778441
-0.735504
2.03935
0.071067
1.13767
-0.92214
-1.4793
0.339657
-1.8281
0.107161
0.189137
0.299785
1.31223
2.72808
-0.588307
2.97261
-0.319344
-2.58064
-0.871606
-1.81202
0.281615
1.66783
-0.351888
-0.15769
2.99591
0.614973
0.127031
-0.598444
-0.957162
-3.78145
-2.20972
-0.625714
1.81941
0.129413
0.0446823
0.698652
-2.22547
-1.23637
-0.577936
-2.90698
-3.65411
-1.07918
0.459709
1.33629
-0.229319
-0.937598
3.10713
-1.15417
1.99109
-0.555806
-3.186
-3.37345
-0.990891
0.570692
0.48307
-2.10729
0.305967
-0.61792
-3.90149
-1.97349
-0.780572
-0.694094
-0.0268226
0.895056
-1.59774
-1.92293
-2.82749
-2.85321
0.100857
-4.04585
0.818559
-0.224359
-0.35419
1.4215
-2.26518
-0.0907689
-1.87151
-3.3334
-2.38489
0.681659
0.361188
1.60965
-0.593545
-1.63685
2.81786
0.373283
-0.443377
-3.08848
-2.86006
-1.41201
1.35657
0.933702
2.57917
0.64931
-3.63825
-1.54663
-2.37676
-1.39506
-0.914374
-3.2956
0.36565
1.56564
0.956502
2.22793
-0.21977
-2.18891
0.200555
0.618194
-0.226801
-3.31902
0.622035
1.10557
1.0607
2.85619
1.37837
-0.0262901
-2.158
-1.77649
1.1396
-1.2409
-0.793353
-0.88903
-0.86409
-0.994758
2.15316
1.46505
0.859931
-0.577255
0.030723
2.55166
0.422034
0.108457
-2.64232
-0.882395
-0.260536
0.629668
-1.56244
0.768356
1.87936
-2.62224
-0.682778
-0.522748
3.59149
-1.60904
-1.55476
1.38975
-1.19086
-2.37605
0.36611
2.33467
2.28572
-1.81132
-0.36688
0.0332112
-2.45944
-1.48795
2.46607
-1.68519
-3.80936
0.828238
0.718201
3.81896
-4.26819
0.379873
0.630724
-1.60284
0.423001
2.98559
0.975483
-2.0596
-0.338631
1.10488
-1.14822
-0.193355
1.83242
-1.13092
0.536326
0.398418
2.08399
-0.0863763
-3.23496
0.481798
-0.595816
0.729035
0.53157
0.348956
-1.1375
-0.0442539
1.2325
1.66235
0.901291
-1.46644
-0.925295
0.0218166
1.4982
1.44944
0.515818
-2.47552
-0.721934
-0.65118
2.28966
0.972617
-1.08841
0.706941
-0.480321
1.53091
1.48593
-0.00597825
-1.44155
-0.43268
-0.315925
0.895682
0.744701
-0.102491
0.594873
-0.398436
1.47984
-1.45415
-1.07876
-0.0919886
-0.37614
0.267663
-0.970166
0.155247
-1.14488
0.545244
0.754124
-0.112484
-1.30205
0.808607
-0.35467
-0.626912
-0.378751
-0.214281
-0.252777
-0.899184
0.180789
-0.729862
1.20953
-0.0889398
-0.0203776
-0.785646
0.448295
-0.887377
0.569955
0.261299
-0.00560503
0.936878
0.882806
0.5615
-0.0275651
0.0688543
0.471512
0.966717
0.23199
-0.620845
-0.959487
0.253993
-0.235351
0.893684
0.387075
0.845898
0.990371
0.00469255
-0.341628
-0.383627
-0.670121
-0.761088
-0.0799323
-0.150457
0.522424
-0.43225
0.308884
0.758822
0.0400811
0.760758
0.424723
0.628811
0.487399
0.315
-0.97732
-0.38366
-1.26742
0.132802
-0.656088
0.00488074
0.325566
0.0366512
-0.658657
-0.594637
-0.13662
0.807855
1.1871
-0.985473
-1.62603
-0.460975
1.2946
-0.464762
0.428515
1.2491
-1.31358
1.78965
-0.33017
0.746319
-0.930312
-0.747388
-0.99007
0.393387
0.915536
-0.151908
1.83081
-0.433263
2.17983
0.854041
-0.449027
-0.744341
-0.65076
-1.09078
1.0934
0.0533639
0.648978
2.52562
-0.959176
1.50743
0.075182
-0.23497
-1.34819
-0.484665
-0.421653
1.62819
-1.03602
0.926427
0.900124
-1.55759
-0.728922
-0.0424858
-2.045
-2.24297
-1.83961
-1.7897
1.60883
1.5233
0.804745
1.45476
-2.87067
1.87492
-0.0553305
-0.874449
-2.93427
-0.096075
-0.0715572
0.88924
-0.00301015
1.07781
0.330607
-1.78839
0.169048
-0.204929
-3.91509
-2.2133
-2.59497
-0.999236
-0.0102246
-0.402636
0.893864
1.51165
-1.62429
3.1225
0.0470224
-2.41925
-0.857383
-1.90243
-0.639568
-2.92764
-2.54322
-0.615498
-0.494263
0.0194871
1.24841
0.873616
-1.12077
-0.525322
-3.58624
0.0212758
-1.79837
-1.81602
-1.51853
-0.928127
-1.78435
0.568427
-0.60253
-2.14075
0.993528
-2.60584
-1.95693
-2.07569
-0.644143
-0.0810101
-0.107532
-0.995981
3.66757
-0.923798
-3.02627
2.845
-1.91093
-0.890177
0.0421169
-0.167689
0.626796
1.38631
-1.98306
1.27896
0.472836
-0.785745
0.267536
-2.00029
-1.32056
-2.59816
-1.05019
0.0720556
-0.311441
-0.634507
1.35713
-0.396916
-1.67585
-0.59898
2.31069
-1.05389
-0.366486
0.409078
0.229163
0.288115
0.951425
-1.78808
0.687302
1.54256
-1.05968
-0.0924256
0.460767
1.10258
0.00288321
-2.82233
-2.13166
-0.317105
-3.16967
-0.544627
1.51461
-0.403124
1.37288
-0.40209
-1.30374
-1.7708
-2.91813
-3.09012
-0.278214
-2.96042
-0.0355921
1.45133
-0.483126
-4.06873
-1.14414
1.82796
-1.5055
-2.40096
2.78674
-1.66363
-0.964228
0.878096
-1.20335
-0.370801
-2.86735
0.262583
-3.89015
-2.33466
-1.2723
-0.420881
-0.648607
-0.884477
0.832909
-0.0516227
0.667462
-2.22883
1.11208
-2.75127
-1.60496
-0.741855
1.01392
0.544171
-0.894444
0.416406
-0.569167
0.307176
-0.641898
-0.467392
-0.269769
1.01353
0.311392
1.7818
1.67528
-0.978881
0.111498
-0.90541
1.98699
0.473938
-0.338094
0.1251
0.238935
-0.34816
0.687961
2.05721
-1.10684
-0.0596632
-0.887507
1.7165
-1.35336
0.685148
0.107145
0.407329
-0.243774
-0.792587
-1.28756
-0.0816
0.566238
-0.988118
1.05807
-0.311705
0.560328
-0.344882
-0.985023
-0.821199
-0.939945
-0.121999
-0.98994
-0.825443
0.508463
-0.197781
-1.48232
-0.778809
-0.0307511
-0.696803
0.960393
0.00967051
-0.586839
0.0875089
0.0438721
-0.412665
0.0501775
0.375293
0.632766
-0.0178942
-0.358093
-0.793636
0.175281
-0.932054
0.207397
0.879743
0.82725
0.858979
-0.754864
0.00847582
0.381249
0.941937
0.513789
0.0588209
0.573559
-0.56959
-0.289056
-0.807552
-0.523869
0.385471
-0.73725
0.666431
0.0425285
-0.175822
0.223782
-0.79169
0.887341
0.0659092
-0.0483653
0.402453
0.0403089
-0.166174
-0.76493
0.284292
0.879695
0.373337
0.532142
-0.598782
0.863542
-0.860593
0.262725
-0.0419791
0.363002
-0.0511561
-0.64132
-0.753777
0.969464
-1.21982
0.385365
0.899194
-0.148572
0.164584
-2.33111
-0.393254
0.79779
0.340825
0.63855
1.69705
-1.33085
1.16425
0.758099
-0.883184
-0.756717
-0.896988
0.141429
1.48732
1.06617
0.517193
0.691621
-2.1937
2.23135
0.787186
-0.840115
-1.59679
-1.69429
-0.855333
0.135158
0.200224
0.986397
1.24195
-1.26031
2.10951
0.610772
-0.342873
-1.59855
-0.98092
-1.08299
2.54274
0.566105
-0.329099
0.372062
-0.692506
0.941561
0.210902
1.25866
0.129997
-2.36496
-0.945288
0.830272
-0.355392
1.79097
-0.758612
-3.69494
0.0487668
0.245096
-1.86623
-0.888209
-1.96368
-1.43929
1.33602
-0.457557
0.360508
-0.304265
-3.77837
1.09843
0.19334
-3.03146
-2.37167
-0.0725497
0.507904
0.338243
-1.12658
2.57601
0.0395205
-3.56263
0.43148
0.091275
-3.1897
-0.105034
-0.730413
-0.466863
-1.34447
0.846196
1.81527
0.580639
-2.26979
3.20229
-0.223879
-0.361271
0.850181
-0.705596
-0.914233
0.161211
-0.696111
0.32602
1.29005
-4.0404
1.98861
0.666873
-0.446714
-0.259789
-0.492969
-0.663975
1.36506
-0.494676
0.636185
-0.0927156
-2.45943
2.57911
0.557089
-0.764809
-1.88931
-2.38657
-2.31986
-0.321358
-1.26681
0.80669
1.32409
-2.82678
1.8266
-0.797917
-1.4448
0.895798
-0.682196
-0.0559623
-1.50445
0.712361
-0.175708
0.463428
-0.344084
0.615566
-0.0032137
-0.0216252
1.20213
-0.225073
0.418017
0.0185154
0.947903
-1.57542
0.232403
0.344026
-1.30724
0.0319664
2.07083
0.8483
-1.27231
1.6296
0.202346
-0.264174
-0.620548
-1.06991
-1.31346
-2.37904
0.572482
4.18169
-1.43687
-2.56648
0.675163
0.652575
0.238777
-1.46911
4.13364
-3.27714
-0.236392
0.323314
2.0829
-1.45528
-4.06516
-0.0582472
-2.978
-1.57342
-3.14599
-0.729629
-2.2531
-3.86526
-0.92891
1.19992
-1.05072
-4.18332
0.15863
-1.35484
-0.990677
-2.3204
1.11578
-1.43555
-1.19967
0.0620935
0.694919
-2.42024
-1.47016
-0.393242
-2.07807
-1.10742
-3.62764
-0.177892
-1.78832
-1.06133
0.92243
0.795483
0.0163949
-0.131228
1.09237
0.164521
0.995458
-1.66233
0.204183
2.61245
-1.58101
0.0203736
1.29593
-0.704446
0.836943
1.01205
0.619955
0.392093
-0.132974
0.901639
1.22505
0.0432828
0.9734
1.05506
-1.10773
-0.881652
-0.162342
-0.427349
0.107332
0.568344
-0.669817
-0.0723543
0.900582
-0.333355
-0.53854
0.773876
-1.48871
-1.14176
0.196328
0.0496835
0.68316
-0.851502
0.458558
-0.0916952
0.505624
0.74372
-0.596995
-1.13624
0.0320578
-0.931819
0.0951541
0.342281
-0.430307
-1.20287
-0.0829209
0.908346
0.505452
-0.0447616
-0.332873
0.957321
-0.674575
-0.723617
0.774387
0.743261
0.844535
0.636225
0.839216
-0.295696
0.160754
0.373296
0.289568
0.0444669
0.952675
0.536717
0.918092
0.153784
0.0760358
-0.0162531
0.644478
-0.548983
0.292666
0.230712
0.35226
0.0606221
-0.333178
-0.565043
-0.22354
0.480697
-0.533601
0.948911
0.909496
-0.254076
-0.71955
0.452616
0.251498
0.04672
0.346616
-0.816361
0.755883
-0.66474
0.271129
0.402425
0.101789
0.465615
-0.49724
-0.57004
-0.969205
0.328324
-0.62543
-0.951898
-0.477339
-0.300919
-0.180847
0.226929
-0.218849
0.14662
0.611798
0.261094
1.26529
-0.82758
0.00107693
0.537929
-0.728148
-0.7888
-1.87818
-0.530927
-0.583949
-0.619776
0.684374
1.85866
-0.595415
2.67395
-0.0366311
-1.60172
-0.56619
-1.08907
-0.947299
1.15768
0.24895
0.326838
3.22768
-0.946037
1.92518
-0.821101
-0.101094
-1.19738
-0.954879
-0.602122
1.82403
0.970145
-0.0939455
0.833835
-1.21546
0.399127
0.146272
-0.918103
0.116363
0.176002
-1.43921
1.60743
-0.210383
-0.0487705
-3.62905
-5.04959
0.327457
0.114636
-1.22725
-0.386353
0.925776
-1.48136
1.63774
-0.735933
0.535861
-1.13907
-4.98496
-1.18063
-0.928628
-0.293414
-0.847543
-0.268036
-1.97758
2.99805
0.179285
1.33311
-1.25049
-5.48136
2.66385
0.347712
-0.0986665
-1.73565
0.993652
-0.757999
-0.0797565
0.633954
0.921417
-0.193837
-3.63583
1.39321
-0.825294
-0.111988
-2.5527
1.09732
-1.80367
2.75289
-0.294739
0.21651
1.31266
-4.47269
3.07678
-0.0231533
0.0204742
-1.63349
1.81973
-0.288204
-0.208714
-1.22472
-0.256144
1.13606
-2.80189
3.58447
0.767384
1.38163
-1.68627
1.0203
-1.60439
1.32315
-0.645199
-0.746282
-0.845707
-1.96845
-0.753404
0.464838
0.385498
0.296473
0.455025
-1.95888
-3.73433
-1.41558
-0.853194
-0.188428
-1.56435
1.19248
-0.528324
0.999306
1.5981
-0.173124
-0.259354
-2.69413
-1.09295
-1.29737
-0.717401
0.549233
1.42378
-0.565676
1.14789
1.94238
0.225237
-0.0824065
-3.00637
-0.567765
-2.31619
-2.53428
-3.41087
0.837168
0.470019
1.07002
-1.1399
-1.07249
0.338745
-2.48428
-0.223927
-2.32556
-2.04662
-3.46446
0.673517
0.557735
1.37587
-1.58899
-3.07776
0.459542
-2.25505
-1.93541
-0.115392
-0.468639
-3.25229
-1.09778
0.126564
0.466966
-1.31965
-4.02866
0.477447
-2.12119
-1.12145
-3.65064
-1.00536
-2.88954
1.86906
-0.396306
0.782171
-1.21767
-0.483037
0.863999
0.629676
-1.60445
-2.30197
0.283195
-0.436628
1.44405
0.1458
0.466056
-0.284217
-1.31694
0.329423
1.31082
0.57269
-0.847695
1.6293
0.994567
-0.996885
0.40928
-1.40847
-2.40169
0.471749
0.87099
1.0358
0.0678908
0.605455
0.393988
0.903142
0.348021
-0.294892
-1.10971
-1.54899
-0.215764
0.628519
0.689855
-0.923387
-0.281122
0.573297
-0.933869
0.657146
-0.878855
1.01579
0.635711
-1.57106
0.059211
0.763404
-0.119244
-0.340176
-0.682616
0.379783
0.385643
-0.754282
-0.552048
0.868434
-0.428231
0.787869
-0.675872
0.675754
-0.386336
0.730352
-0.719661
-0.463404
-0.840948
-0.230477
-0.26268
0.554033
-0.768378
-0.13266
0.325519
-0.306006
-0.389976
-0.57241
-0.836091
0.825433
-0.823607
0.0725475
0.106233
0.747343
-0.0605578
0.264472
0.331917
-0.082535
0.868691
-0.660241
-0.511429
0.404172
-0.87891
0.197594
0.531159
-0.197231
0.441932
0.0970602
0.613223
-0.707168
0.705087
-0.405283
-0.974724
-0.132945
0.4316
0.759968
0.312085
0.12105
-0.787666
0.0563089
-0.921214
-0.869236
0.452921
-0.0484621
-0.486649
0.120172
0.363108
-0.0550302
-0.470318
0.087522
-0.250244
-0.364381
-0.137432
-0.703339
-0.272479
0.890383
-0.770964
0.944314
-0.647165
-0.928962
-0.269315
0.0413518
-0.664264
0.767948
-0.955158
-0.0188587
-0.688838
-1.55872
-0.687074
-0.42765
-0.720037
0.516283
1.54087
1.17137
0.239038
-0.846742
-0.0540646
-1.69283
0.632725
-0.941422
-0.531417
0.933687
0.18472
1.78961
-0.324988
0.788474
0.499586
-1.26825
-1.75349
1.16809
-1.42562
-0.509038
-0.0785325
0.826204
0.747415
-1.75753
0.160849
0.997664
-0.603197
-0.850826
0.402537
-2.37771
1.03718
-0.816397
0.712366
-3.18148
-2.94448
0.0979021
0.0670158
0.135383
-0.253663
0.640939
-1.7344
1.86706
-1.81304
0.872409
-1.67294
-2.9881
0.474113
-0.941886
0.0644051
-0.101917
1.61571
-1.49017
2.43029
-1.3166
0.69279
-1.51058
-4.67304
0.0263989
-0.358212
-0.429568
-0.199399
1.09765
-1.9451
1.68003
0.242417
0.915049
1.1545
-3.92984
-0.175378
0.595593
-0.4147
-2.12257
0.473735
-0.874933
0.488021
-0.213198
1.33397
1.34043
-1.10941
3.62648
0.756147
-1.2984
-1.89222
0.113719
-0.842099
-0.0756886
0.977331
0.884371
0.1416
-2.62511
2.88249
0.120728
-0.0162394
-2.7136
0.295834
-0.521503
-0.62389
0.0665185
1.90556
-0.759724
0.70097
0.0565941
0.315498
0.963633
0.630288
0.938577
-1.0224
0.883064
-0.525093
-1.56697
-0.371684
1.73781
1.46553
-0.230031
0.976639
1.3361
0.766896
0.408971
-1.57258
0.711309
-0.919258
-0.414789
0.314991
1.36549
0.627222
1.15329
0.259129
1.51964
-0.143046
-3.89727
0.303137
-1.25271
-1.84266
-0.0102018
-0.274937
-0.388128
1.77051
-2.04934
0.0695512
1.78528
-2.49898
0.135556
-1.17627
1.18332
-4.63689
1.68727
0.124684
0.294417
-3.45888
1.22885
-0.249862
-3.6735
-2.49063
-1.37163
-2.28689
-2.62118
2.30977
0.631367
2.09254
-2.08771
0.469849
-0.393529
-1.0317
-2.98422
-2.98607
-1.43396
-1.22489
3.43697
0.291849
-0.946666
-1.9541
2.09881
0.164148
-1.44371
-2.62703
-1.05809
-2.06079
-0.988896
2.32176
0.734464
-0.14806
-2.2145
0.548825
0.128161
-0.936443
-1.2474
-0.573823
0.448688
0.503871
0.868782
0.645637
-1.00467
-2.30237
-0.338281
0.139443
0.386974
0.565266
-0.474434
1.47957
-0.125993
0.12455
0.97147
0.106124
-0.471619
-0.412731
0.224689
-0.212577
-1.15325
-0.437157
0.498156
-0.580904
-1.05241
-0.589857
-0.24422
-0.319321
-0.711556
0.84984
-0.90153
-0.800623
0.992548
-0.210619
0.47671
0.86752
-0.902528
0.940857
-0.786281
-0.731243
-0.0636826
0.512021
0.429673
-0.656199
-0.495487
0.137664
0.330402
-0.336255
-0.860666
-0.770912
0.350815
0.0970547
-0.151173
0.763131
-0.843126
0.576881
0.762129
0.607227
-0.279788
-0.982773
-0.950482
-0.0475892
0.900593
-0.549702
-0.558654
-0.374281
-0.96662
0.127177
-0.943553
-0.241297
-0.890527
-0.161286
0.438474
-0.493651
0.349
0.239014
0.933196
-0.40931
-0.304123
-0.862869
0.36349
0.2847
0.966762
-0.6325
-0.264159
-0.887757
0.342861
-0.0346241
-0.667972
0.23501
-0.703493
0.785619
0.444777
-0.499953
-0.105934
0.248567
0.176249
-0.923147
-0.486559
-0.733738
-0.279354
-0.339209
0.92181
-0.345258
0.670868
0.781218
0.154088
0.052933
0.771035
-0.381966
0.166974
0.836943
-0.750637
0.792276
-0.0153514
-0.995664
0.179215
0.959093
-0.587239
0.746169
-0.104666
-0.792658
0.396593
-1.87704
0.460613
-0.839494
-1.44815
-0.56787
0.670911
0.230191
0.053778
0.73525
1.98325
-0.205482
-0.902016
0.223827
0.935758
-1.69662
0.562174
-0.764769
1.0835
-0.495931
0.860204
1.17784
0.0867345
-2.45575
-0.950763
-1.19677
-0.154833
0.852197
-0.723267
-0.755039
-0.744767
2.70348
-2.09471
-1.41653
0.355773
0.791661
-1.0964
-0.305999
2.16012
-1.02015
0.921139
-0.441918
2.52259
-2.54822
-2.55969
-2.34865
-0.605465
0.24959
-1.01745
0.513197
-1.23132
-0.644564
-1.57061
1.7724
-1.57384
-3.50836
-0.155813
-0.761601
0.655198
-1.86443
1.07575
-1.97497
-1.64608
-1.57455
1.11344
-1.07804
-2.25171
-1.73537
-0.911649
-0.182197
-0.598147
0.789624
-1.21242
-0.502413
-0.519442
1.57271
-0.514615
-3.43126
-0.227154
0.0646892
-0.131878
-0.552249
2.63951
-1.61193
-3.51583
0.156395
4.15229
-0.475476
-0.121717
1.84771
0.721487
0.29148
-1.57942
0.121472
-1.42162
1.24407
-0.861723
1.69295
-2.63179
-2.48357
-3.66932
-0.748453
-0.761489
-1.34744
-0.334145
-0.363668
-1.19702
-0.72116
0.103332
-0.0664875
1.17203
0.121743
-0.749997
0.114818
-0.648095
1.96302
-0.667472
-0.578759
1.36313
-3.04414
-0.511485
3.04165
-2.72454
-0.713625
1.72834
-2.06447
2.42423
0.707646
-0.0887452
0.745878
-2.88268
-2.85495
-0.825493
-2.0162
0.183157
-1.46364
-2.88406
3.59951
0.77492
-1.99443
-2.35448
-0.0982173
-3.26669
-3.57379
1.59959
0.483162
1.05969
-1.76354
2.13854
0.361973
-1.20281
-3.13395
-1.39258
-0.384813
-1.9586
-1.04373
-0.593498
-0.228312
-4.42498
1.33365
0.92052
-1.61858
-2.08061
-1.05974
-1.57371
-2.41342
1.09378
-0.945749
0.275741
-3.56835
1.06275
0.659145
-1.4064
-0.767403
0.545139
-0.256281
-1.32446
1.88506
-0.768576
-0.50115
-3.23294
2.31974
1.73064
-2.27647
-0.892644
0.132646
0.124399
0.190862
1.85901
0.182334
-1.04064
0.376762
-0.530064
0.056669
-1.06091
0.436472
0.988463
-0.0994804
-1.27276
0.429587
-0.801959
0.537159
-0.666023
0.803948
0.933076
-0.96028
-0.940884
-0.166724
-0.0761085
0.388932
0.462721
-0.607855
0.888987
-0.22599
-0.264714
0.574464
0.857084
0.622134
0.459929
0.766586
0.717336
-0.349452
-0.669343
0.377492
0.321928
0.750165
-0.561941
0.0137227
-0.982881
0.599419
0.279318
-0.569743
-0.883174
-0.467966
-0.190717
0.0236047
-0.369485
-0.300742
0.323356
0.753371
-0.554365
-0.84926
0.527308
0.69484
-0.821446
0.11468
-0.666876
-0.385553
-0.669681
0.879462
0.357992
-0.0180933
0.386062
0.148862
-0.465638
-0.411806
0.855244
-0.207195
0.655133
-0.618373
-0.602272
0.0313238
-0.529408
0.271295
0.940871
-0.44174
0.595228
0.046568
0.930202
-0.524691
0.1539
-0.94205
-0.689974
-0.149526
0.579593
0.589686
0.680268
-0.595117
-0.385213
-0.24728
-0.0570744
-0.288676
0.0510519
0.125652
-0.464665
0.240382
0.778911
-0.546018
-0.899523
0.640167
0.852086
-0.0493791
-0.762467
0.683744
0.0452069
0.232587
0.0208172
-0.0960704
0.398126
0.325635
0.333175
-0.472199
-0.100014
-1.02239
-0.75714
0.509125
0.426204
0.499475
0.476311
0.752421
-0.249386
-0.547219
0.673472
-0.95652
-0.964273
-0.0383421
0.188918
1.13498
-1.09877
0.647376
-1.58303
0.170583
0.322296
0.269869
-1.01048
-0.525107
-0.607382
0.551729
1.11519
-0.031724
-0.154053
0.839384
0.73798
-0.714091
0.5733
-0.245621
0.543918
0.274803
-0.637606
1.4883
0.209469
0.167937
-1.76545
-0.286281
0.974117
1.12099
-0.940379
-0.202988
0.528344
-0.691338
2.27601
-1.39899
-0.542538
-0.740246
-0.209859
-0.731797
0.185763
0.428568
-0.935223
0.423863
-0.992992
2.89561
-1.92564
-0.480582
-1.80221
-0.420207
0.0908401
0.85898
-0.869175
-1.15892
-0.540434
-0.98132
3.5619
-2.01265
-1.49347
-0.689157
-0.599163
-1.85111
-0.193367
-0.62791
-0.162822
-1.22494
-1.79918
3.33934
-2.17205
-0.521175
-0.542865
0.337346
-1.13196
1.95705
-1.23147
-1.48996
-1.37401
-0.262264
3.42266
-1.59355
-3.19667
-2.76801
-0.489548
-0.86552
-0.0906648
-0.801668
-0.464731
-0.449762
0.238165
1.29214
-0.875561
-1.93925
-0.120594
0.661932
-1.54704
-1.12602
-2.67469
0.141703
0.428935
-0.0855204
-1.48204
0.0926049
1.7468
-1.95914
-0.760874
-2.52575
2.40786
0.70301
0.132726
-0.617688
-0.755147
0.351403
-0.0431107
2.22101
-2.45275
-0.649376
-1.11657
-0.012613
0.977874
1.68578
-2.64359
-0.547881
-2.04357
-1.30962
0.437452
-1.35362
-0.9008
0.147949
-2.33957
0.45001
0.57383
-2.09365
-2.55442
-1.23159
-3.27657
-1.35817
-1.90391
0.694723
-0.114812
-2.00364
1.60608
1.38769
-1.40539
-3.08564
-0.426647
-2.27657
-1.33005
-1.21815
-0.215919
-1.19997
-3.12526
1.84427
0.888176
-0.16875
-1.60826
-0.082905
0.464394
-1.09248
0.8881
0.202585
0.413206
-2.22
0.510851
-0.319473
-0.0215322
-0.773693
0.986368
2.11645
-0.595733
0.433988
-0.340591
-0.846011
0.443952
0.404235
1.10036
0.36114
0.405458
0.904233
-1.0967
-0.431351
0.240713
-0.0188
-0.35766
0.561098
-0.393409
0.190954
-0.00147671
-0.0312007
1.40445
-1.87411
-0.430781
0.337418
-0.383945
0.906398
0.0890667
0.955598
-0.0312716
-0.631878
0.540436
-0.801386
-0.221779
0.0558918
0.0568154
-0.0857597
-0.541945
-0.0998733
0.38792
-0.763497
0.420401
0.924364
-0.544108
-0.164875
-0.76426
-0.433966
0.872885
0.713678
-0.906499
0.473298
-0.80845
-0.0513969
0.0648686
0.878617
0.703874
0.760933
-0.78133
0.0108913
0.849312
-0.197351
-0.43855
-0.231581
0.0189847
-0.363261
0.750506
0.352062
-0.762329
-0.452405
0.18899
0.0236232
0.698194
0.475259
-0.354529
-0.184122
-0.845176
0.846437
-0.902908
0.844374
0.372588
0.301594
-0.0250709
-0.0914864
0.161937
-0.207754
0.368648
0.254283
0.511437
0.611961
-0.494734
-0.67739
-0.316182
-0.568643
0.410523
0.219081
-0.420462
0.206519
-0.717519
-0.0533255
0.247917
0.0995207
-0.385145
0.990851
0.244049
0.15015
-0.891827
-0.688106
-0.418417
0.0624959
0.623516
-0.222839
-0.872659
0.983593
0.0715657
0.642489
-0.26993
-0.761081
0.682637
0.595036
0.0456061
0.90821
0.300897
1.09612
0.368631
-0.359871
-0.507236
-0.450106
0.348531
-0.960958
0.194054
-0.553489
1.23971
0.351062
-0.405914
0.273305
0.0776636
-0.048589
-0.227136
0.908961
-0.89717
0.378364
-0.210765
-0.10335
-1.23791
0.531431
1.07791
0.887001
-0.177971
-0.499197
-0.296875
0.78956
0.983095
-0.720517
0.734859
-0.0830721
-1.10269
-0.629793
-0.554984
1.28414
-0.521838
-1.1231
-0.560654
0.93255
1.21801
1.11962
-0.298888
-0.844337
-1.49878
0.966709
0.621903
0.412732
0.223157
-0.53269
-0.488602
1.16246
1.14687
-0.392732
-0.684722
0.820837
-0.800633
0.748334
-0.923798
-0.391732
0.405088
-0.777734
-0.487936
0.657985
-1.02789
-0.2214
-0.998908
0.0568489
0.381136
-0.549343
0.0430766
0.00611631
-0.798573
-1.67316
0.90983
-1.44355
-1.00148
-0.537575
0.276525
-1.32937
0.660363
0.0610318
-0.549691
-0.146107
-0.482172
0.573216
0.386079
-2.14546
-0.855962
-0.511381
-0.940895
-0.380903
-0.0493171
-1.17263
-0.0771975
-0.695619
0.971321
-1.13072
-1.07238
-0.0345484
0.451835
0.908095
-1.50208
-0.494279
0.0438534
-1.18758
-1.37608
-0.372318
-2.13878
-1.87826
-1.42799
0.476038
0.323685
0.912912
-2.42869
0.529209
0.622847
-1.1964
-0.315478
-1.82419
0.476512
-1.72444
0.136298
-1.55689
2.39054
-1.09981
-1.44614
-1.74647
-1.58959
-2.45202
-1.10543
1.70475
-3.11697
-0.867294
0.328344
-0.398444
-0.0676689
-0.778651
-1.72881
-1.49978
0.452035
-1.40231
-0.220296
-2.94869
-0.131843
-0.0111751
-0.5181
-0.490267
-0.430429
-0.195975
-1.7224
-0.586442
-2.28544
-2.06105
-0.145049
0.427334
-0.564184
-0.80043
-0.979428
-0.240135
-1.11381
-1.44238
0.254601
-0.620556
-0.0758342
-1.23023
0.662156
0.141386
-0.238692
0.0508293
0.275394
-0.110217
-0.719473
0.781891
0.526573
-1.06252
-0.241325
-0.953768
0.241288
-1.3099
-0.0948091
1.29808
-0.341409
0.0517639
0.614719
-0.477908
-0.0366971
0.859017
0.0610547
0.373609
-0.238714
0.837034
0.453413
-0.792345
-0.864194
0.326231
-0.398413
-1.26011
0.167536
-0.826878
-0.483614
0.319023
-0.27514
-0.234013
0.332145
0.387083
0.834292
-0.578316
-0.0547342
0.552113
-0.171364
0.299992
0.980987
0.950837
-0.347278
-0.206769
-0.753691
-0.103837
-0.618115
-0.585759
-0.763383
-0.0143524
-0.426719
0.681364
0.580964
-0.198318
-0.734182
-0.354051
0.0446986
-0.0379129
-0.32197
-0.658504
0.127079
-0.836967
-0.070292
-0.120287
0.0604379
0.737741
-0.89664
-0.257424
0.119941
-0.590344
0.148561
0.615291
-0.817851
-0.332097
0.525756
-0.512218
-0.643165
0.95257
-0.811623
-0.127017
-0.614044
0.942097
0.145272
0.771448
-0.841133
0.105358
0.121412
0.0583053
0.0978593
0.408679
0.36889
0.88605
0.0749897
-0.37305
-0.342349
-0.809914
0.295429
-0.923008
0.0918092
0.119657
-0.488131
0.0831771
-0.426009
-0.503151
0.0507014
-0.750727
0.376177
-0.0221002
-0.313983
-0.609005
-0.840037
-0.946364
0.754809
0.558811
-0.109438
-0.294478
0.678767
0.0399901
-0.192093
0.868719
0.734056
-0.354862
0.57458
0.261294
0.287317
0.53463
-0.855516
0.177969
0.313021
0.105619
-0.73576
-0.953274
0.749872
0.507015
0.435713
-0.223349
-0.426886
0.364853
0.259353
0.171759
0.737682
0.286582
-1.19446
-0.591864
0.648871
0.343461
0.169426
-0.894348
0.711205
0.253718
-0.650631
0.220285
-0.86017
0.774532
-0.0491972
0.45141
-1.52832
0.154273
0.199136
-0.48105
0.842621
1.14048
0.399229
-0.437476
-0.0833487
0.370074
-0.488491
-0.74176
0.686444
-0.304222
-0.779006
0.445694
-0.972081
-0.888067
-0.213542
0.512734
-0.307543
0.506683
0.235141
-0.558111
-0.32369
-0.046368
-0.195987
0.141874
-0.965171
-0.0324221
0.461807
-0.677596
0.382697
0.0635092
-0.501458
0.363517
-0.219923
1.60484
0.541597
-0.342791
-0.0575443
0.744072
0.814993
-0.73555
0.12623
-1.35078
-0.599897
0.484503
-0.153823
0.524522
0.301303
-0.477173
-0.567975
0.650567
-0.590393
0.40127
-0.231776
0.326553
0.00438147
0.955185
-1.10898
-0.36648
0.367546
0.311139
-2.27652
0.756933
-1.28938
0.517485
-1.76088
0.722766
0.0530758
0.693788
-1.16456
-0.965754
0.76169
0.431373
0.0906502
0.164099
0.0304314
-1.07942
0.421473
-0.0313131
0.325822
-1.51573
-0.184835
0.738928
-1.86211
0.194914
-1.79811
-1.95787
-1.45228
0.984109
-0.732132
-0.0384848
-0.659743
-0.192224
0.116235
0.159198
-0.805637
-0.797049
-1.58607
-1.16928
0.109066
-0.595911
0.0703076
-0.944697
-0.84259
0.433437
-1.97581
0.587753
-1.26942
0.77703
-0.0395882
-0.50301
-0.121249
0.101152
-0.104963
-0.928993
0.144258
-1.07868
-1.08338
-1.63342
-0.901818
-1.26763
-0.797925
0.757195
-0.860988
-1.02864
-1.05445
-0.257859
-1.47195
0.468455
-0.360052
-0.707133
-0.511743
-0.699937
-0.453006
-1.53426
1.14742
-0.788265
-0.74563
-0.188859
-0.457331
-0.381696
1.07269
-0.730941
0.179933
0.947049
-0.504589
-0.574395
0.819991
0.0548837
-1.094
0.641225
-0.769267
-0.726738
-0.133921
-0.764997
0.0441351
-1.15449
-0.341369
-0.513649
0.22475
-1.03537
-0.195587
0.0388353
-0.712879
-0.435197
0.555216
0.0560052
0.685577
0.125684
-0.634378
-0.486155
-0.369953
0.604986
0.252758
0.176906
0.426562
0.557589
0.00529918
0.596554
-0.20022
0.705983
0.238112
0.346451
-0.166992
0.588552
0.145532
-0.638914
-0.988766
0.752499
0.589022
-0.285568
0.676247
-0.993378
0.94675
0.119543
-0.638614
-0.866874
-0.808837
0.00605453
0.733332
0.916184
-0.374961
-0.516246
0.708563
-0.885827
-0.329366
-0.54174
0.293713
-0.557761
0.597751
0.100806
0.886272
0.739601
-0.674775
0.418163
-0.241221
-0.855459
0.585385
0.104454
-0.273041
-0.98782
-0.146857
-0.203451
0.240015
0.132185
0.949931
0.410742
0.368034
0.574091
0.811234
-0.827864
0.671708
0.850072
0.660383
-0.0459215
-0.889841
-0.002823
-0.761015
0.718967
-0.481864
-0.305283
-0.559245
-0.3937
-0.765182
0.944894
-0.547017
0.495356
-0.581765
0.859364
-0.369577
0.136828
0.974144
0.140147
-0.401662
0.649835
0.336163
-0.86564
-0.727695
0.302198
-0.963374
0.684561
-0.105926
0.611005
0.092188
0.382755
-0.531455
-0.383474
-0.746035
0.961978
-0.165701
-0.686242
-0.0354759
0.110868
-0.154164
-0.840588
-0.390483
-0.692814
-0.828905
0.146411
0.332564
0.819634
0.175011
0.617862
0.153391
-0.938569
-0.251363
-0.741123
0.00130858
0.23634
0.229473
-0.9554
-0.531997
0.940106
0.1443
0.918058
-0.968839
0.935607
-0.10408
0.967211
0.93755
-0.432827
-0.563192
0.476304
-0.355053
0.534154
0.600496
0.698933
0.928225
0.25699
1.44592
0.897174
-1.31637
0.940852
1.01997
-0.378523
-0.023945
-0.508201
0.145843
0.0585197
0.966661
-0.219259
-0.874451
-0.999346
-0.88159
-0.174058
0.416577
-0.299444
0.56025
-0.788168
0.950013
-0.180606
1.15688
-1.01962
-1.10585
0.0719363
0.342409
0.304012
-0.544775
-0.586625
-1.09138
0.687732
0.289439
-0.0983707
-1.01148
0.185784
-0.728964
0.0421856
1.13881
-0.742701
-1.18252
-0.657553
0.944718
0.29241
0.402177
-0.522461
0.20029
0.730748
0.485761
0.752995
0.576804
-1.32933
-0.300781
-0.790212
-0.00532585
0.747878
0.838199
0.0243914
-0.491689
-0.572375
0.337646
-0.326525
-0.3431
-0.82987
-0.0283603
0.752013
1.52805
0.468838
0.266519
-0.0613768
0.172097
0.533882
0.0571736
-0.177504
0.120162
-0.355913
0.997747
0.218898
0.0613486
-0.97403
0.192152
1.3536
0.509322
-0.679116
-0.935332
-1.1592
-0.737534
-0.667861
1.21312
-0.167564
-0.00390072
-0.0883466
-0.0234199
-0.147869
-0.930863
0.179354
-0.875194
0.844977
-0.86858
-0.151649
0.52289
0.685633
0.144652
0.71314
-0.779709
-0.609828
0.782375
-0.18173
-0.700139
0.174211
0.743448
-0.975089
-0.595173
-0.651181
0.98329
0.208724
0.245975
-0.862604
0.0309354
0.34873
0.551353
0.92416
0.980691
-0.763569
0.660156
0.238406
0.695162
-0.668278
0.934682
-0.373532
0.339164
0.996726
-0.846219
-0.112212
-0.706771
-0.56424
0.788331
-0.626355
-0.716954
-0.0639996
-0.617991
0.362301
0.667909
0.375394
0.0743398
-0.193549
0.596559
0.161507
-0.740887
-0.770752
0.226325
-0.514234
-0.419896
0.180322
-0.0117912
0.694322
-0.00712814
-0.546436
0.683311
-0.567017
-0.991155
-0.114902
-0.00727019
-0.498912
0.201091
-0.529039
-0.300644
0.466302
0.685559
0.209216
0.862097
0.950777
0.457213
-0.477124
0.210789
0.924555
-0.38015
0.141501
-0.169596
-0.077142
0.981092
-0.778421
-0.412056
0.88813
-0.564351
-0.810285
0.592398
0.680772
-0.175996
-0.257326
0.00776085
0.73703
0.619266
-0.792065
-0.560643
0.446393
-0.0718698
-0.759892
0.235236
-0.54113
-0.699581
-0.757345
-0.256322
0.866177
0.632506
-0.800872
-0.650249
0.349201
-0.743163
-0.295187
-0.820837
-0.418656
-0.329392
-0.437374
-0.163763
-0.00905342
0.33429
-0.640694
0.516494
-0.772726
0.566376
0.624561
0.461924
0.358171
-0.296418
-0.557556
0.786536
-0.0417251
-0.215873
-0.740728
0.514401
0.096783
0.664368
-0.966977
-0.995587
0.616458
-0.446176
0.199167
-0.688874
0.172867
0.500127
-0.447687
-0.821421
-0.0947801
-0.609896
-0.702892
-0.527903
0.481438
-0.758551
0.409348
0.16615
0.618747
0.985011
-0.856294
0.83386
-0.388561
0.0814504
-0.671344
-0.781268
0.396775
-0.383765
-0.138109
0.219921
0.131393
0.712038
0.553422
0.48235
-0.164924
-0.856739
-0.00887144
-0.484117
0.584572
-0.700776
-0.363485
-0.465913
0.583019
0.309368
-0.682985
-0.432512
0.586952
0.597374
0.824848
-0.88456
0.515664
0.865205
-0.143831
-0.1928
0.73612
0.124274
0.376666
-0.0653998
-0.1613
-0.919581
0.915443
-0.464435
0.532592
0.509786
0.0620065
0.715574
0.662643
-0.0856638
-0.840674
0.529219
-0.457996
-0.149367
-0.619856
0.571756
-0.648799
0.534789
0.51335
0.848791
-0.0811588
-0.916576
-0.678
-0.0467227
0.698266
-0.476344
0.237413
0.675479
0.445803
0.0245932
-0.611685
0.924651
1.11894
1.07322
0.515295
-0.563836
-0.470106
0.277633
0.984543
-0.365938
-0.164184
0.20782
-0.631439
0.79085
1.05306
0.282026
0.32511
-0.545922
0.965881
-0.588801
0.721932
0.0430903
-0.850855
0.378994
-0.369709
0.372326
-0.119823
-1.11613
-1.25374
-0.626565
0.69212
-0.08647
-0.666103
-1.19939
0.336953
0.575187
-0.23428
0.185263
0.0559788
-1.34294
0.442914
-0.141149
0.726216
-0.568802
-0.0491793
0.454641
0.341146
0.899964
-0.662924
0.125778
-0.896296
0.38692
0.784269
0.456032
-0.865714
-0.534181
-0.106605
0.591327
-0.141382
0.139456
-0.353132
-0.104256
0.766784
0.323032
0.386746
-0.22535
-0.714356
-0.419514
-0.529756
0.91905
0.629653
-0.712118
0.457185
0.995749
0.734657
0.906949
-0.473075
-0.979949
-0.601513
-0.0349784
-0.0491485
0.00809031
-0.402171
-0.932687
-0.945048
0.33604
0.0509947
-0.619664
0.649292
-0.879803
-0.990607
-0.639944
-0.140725
0.796149
0.83786
0.0911898
-0.383955
0.361674
-0.154513
-0.869981
-0.795761
-0.634872
-0.448436
-0.267118
0.144651
-0.663902
-0.788123
-0.530043
-0.772113
-0.800632
0.258413
-0.243703
-0.1599
-0.438001
0.762032
0.208018
0.536462
-0.081947
-0.918312
-0.349642
-0.916689
0.229483
-0.057928
-0.391388
-0.785964
0.918585
0.927448
-0.594689
0.877477
0.946404
0.247829
-0.88163
-0.619676
-0.697953
0.984112
0.909905
-0.357544
0.315291
-0.118187
0.0106851
-0.865233
0.0369663
-0.428945
-0.779123
-0.154376
0.234298
-0.876705
-0.46524
-0.76356
0.406694
-0.487217
0.0816279
-0.936097
-0.152652
0.0964783
0.118157
0.398925
0.616406
0.311686
-0.888091
-0.285164
-0.359594
0.998828
0.243314
-0.908659
-0.300144
0.460496
-0.223368
0.908911
-0.972699
0.603794
-0.550361
-0.903051
0.0734347
-0.109528
0.786013
0.133757
0.652348
0.458845
-0.281407
0.160089
-0.607109
0.566613
0.264941
-0.216035
-0.188779
-0.607702
-0.407481
0.0479723
0.754039
0.683063
0.781327
0.337253
-0.701363
-0.701545
-0.94521
0.493731
-0.947782
-0.0135743
-0.602882
0.0181056
0.177595
0.851394
0.901398
-0.606596
0.774168
-0.729971
0.227782
0.87072
-0.76574
0.480587
-0.341738
-0.434331
-0.110292
-0.414155
0.594649
0.472103
0.176458
0.935776
-0.288633
-0.102516
-0.131826
0.674735
0.858596
-0.46704
-0.810581
-0.205623
-0.233501
-0.557636
-0.739577
-2.56583
0.66842
0.931294
1.96708
-0.172642
0.0980206
3.01769
2.08535
-1.20773
-0.728543
-6.23078
-6.58808
-6.18951
-3.84734
-2.33476
7.0299
3.42497
1.19399
4.07217
5.22439
-0.275265
-1.74849
3.7288
0.119441
6.62069
0.64369
1.87097
-7.66313
-0.128054
0.361481
-2.81461
-0.130278
-4.5888
4.84134
-5.50969
-2.95542
-2.70724
-1.18168
3.72047
6.23967
-3.46686
6.65369
-0.184097
-0.0262535
-2.5225
-0.392935
-4.52772
-0.391286
-5.74569
3.17213
7.17832
-0.875271
2.58352
0.996606
-5.69239
-5.66919
-6.74704
-2.26131
-6.42417
-1.61263
5.72713
-0.955981
0.366468
-5.59725
0.89288
-4.98819
-1.5792
0.292574
-1.55698
-2.53158
-0.349931
4.33931
-3.10724
1.92712
-6.67344
-0.64512
-5.4694
2.66378
-0.103387
1.81624
-6.33784
-6.00096
-4.0432
-6.02894
5.80842
-4.79501
-0.0359627
-1.22755
-3.30283
8.40727
0.236523
0.233581
-4.49035
2.70212
1.55794
-0.80961
-6.31436
0.623053
-5.17278
-9.32225
0.652965
5.01012
0.313178
-3.00433
-3.41175
7.0885
-2.53265
-3.32948
0.801723
-5.39226
-0.810123
7.66571
-1.05834
-4.66947
-3.80631
0.429232
-5.72399
-7.58573
10.2158
0.710725
3.86253
2.19058
-4.33101
-3.47753
2.07387
0.827632
-1.30385
-4.8921
-2.61324
0.319512
0.632003
-1.70927
-0.250088
-3.34245
-1.31133
-1.37616
-2.46861
-2.5256
-2.6378
6.39885
-3.63562
-5.61992
-2.5853
6.42073
4.22842
-6.28432
-5.39366
-4.95483
0.648099
-0.0957664
1.31771
3.8523
-2.86579
-1.09362
6.7917
-3.68076
-3.24097
1.852
-1.00095
-1.81966
-6.30583
3.2624
-3.6426
-4.23646
-1.72194
-4.46333
-3.09168
-5.94006
4.62397
-0.803236
2.83732
-3.35706
-2.95389
-2.7369
0.207364
-0.0154528
1.68956
-2.3014
3.87335
4.5005
-3.66661
-3.05175
-5.57225
-4.30459
-4.29842
-0.623979
8.78626
-3.64127
-1.77901
1.27573
-0.678074
-4.94738
2.75157
2.26993
-5.29288
-2.45643
1.61417
4.74753
-4.40705
-0.513403
-7.69335
-6.10282
6.47667
-6.7353
-4.55261
5.1579
-2.79698
-5.13411
6.71367
-1.76824
-1.89559
-3.48273
-0.986939
-3.38819
3.61032
-2.42001
1.90047
-3.32913
-5.33783
-2.36336
4.02221
-2.19765
-7.96416
5.16208
-2.0471
7.83072
-3.24229
-4.30375
-4.73548
-1.0082
-5.02956
-1.73241
-4.85163
-3.76286
-10.4995
-6.30785
-6.02354
-3.79831
-7.0735
-5.37895
-1.4748
