1
0.6
1
784
2
10
10
10
-0.729046
0.670017
0.937736
-0.557932
-0.383666
0.0944412
-0.623236
0.985763
0.992923
0.93539
0.451678
0.962219
-0.780276
0.596212
-0.405941
-0.990433
-0.775071
0.279527
0.756861
0.00732535
0.595857
-0.277412
-0.576151
0.362719
-0.202523
0.481294
-0.0504826
-0.155825
-0.65227
-0.396174
0.59456
-0.366899
0.744858
-0.701772
0.988137
0.643807
-0.749634
0.5275
-0.0188219
0.327211
-0.748207
-0.579582
-0.897567
-0.927117
-0.182538
-0.0840217
-0.0248621
0.58795
0.84175
0.615062
0.411549
-0.994363
0.421408
0.287922
-0.0879344
0.547834
0.147509
0.753515
0.616351
-0.964452
0.642492
0.641682
0.880148
-0.174667
-0.15367
0.161913
-0.683885
0.523462
-0.539688
0.619469
0.977043
-0.335103
-0.400337
-0.972922
-0.565524
0.814729
0.696936
0.910035
0.557795
0.974919
-0.864809
0.587195
0.189007
0.465597
0.390466
0.35964
-0.215359
0.123115
-0.583864
0.0547429
-0.191583
-0.294475
0.185648
-0.28731
0.929933
-0.691123
-0.210184
-0.225408
0.453909
-0.22286
0.854986
-0.127765
0.725356
0.24072
-0.760906
-0.0560864
-0.319561
0.059684
0.432201
0.976759
0.440987
0.825155
0.010997
0.116538
0.00638004
-0.0750516
0.0931839
-0.104831
0.708902
0.208463
-0.00291163
0.314947
-0.328186
0.705861
-0.273627
-0.0596188
-0.956575
0.69494
-1.17353
0.390736
1.32903
-0.734008
1.12833
-0.291502
-0.662271
0.604094
-1.28388
-0.159065
-1.08198
-0.441385
-0.306218
0.558272
-0.600898
-1.3689
0.367846
0.276699
-0.919058
-0.912746
-0.639499
0.6284
0.699793
0.717408
0.432808
-0.904111
-1.40315
0.733473
0.591608
-0.31231
-1.36216
-1.58208
0.751203
-0.527415
0.0396669
0.814037
-0.55316
-0.664301
1.51307
0.055794
0.515007
-0.548167
-0.543279
-0.910505
-0.618632
-0.11954
1.64602
0.618274
-1.00025
-0.236847
-0.0150533
-0.242999
0.222356
-0.977862
0.232967
0.407723
-0.277972
-0.0850951
-0.31214
0.923206
0.756638
-0.222344
-0.0831354
-0.627688
0.502866
-0.118031
-0.24275
-1.13145
-0.217551
0.740374
-0.40634
0.933956
-0.158825
-0.719712
-0.804329
0.802281
0.977314
-0.567477
-0.993474
0.462899
0.559379
-0.174785
0.179996
-1.20953
0.800366
-0.815084
0.676427
-0.120459
-0.75197
-0.54751
1.28498
-0.0539699
-0.948415
0.388821
0.019691
0.168764
0.249234
-0.386293
0.357907
0.367015
-0.701858
-0.0468582
-0.100888
-0.915892
0.594728
-0.664888
0.662429
-0.350073
0.31156
-0.15962
0.563818
-0.773615
0.987069
-0.636854
0.525863
-0.468159
-0.511723
-0.798523
-0.311344
-0.436745
0.937281
-0.572455
0.211856
-0.546897
-0.620189
-0.196857
-0.173419
-0.659695
-0.401896
0.272937
-0.696852
0.538486
0.767937
0.918443
-0.963867
0.165693
0.533708
-0.344404
-0.741868
-0.416078
0.694219
-0.538471
0.00394877
-0.996804
-0.974922
-0.426827
-0.802602
-0.23049
-0.289303
0.439942
-0.86911
0.0277184
-0.152043
0.379603
-0.492114
-0.196961
-0.471047
0.868501
-0.0549495
0.221832
-0.0231962
0.0290391
-0.509962
-0.33399
0.00472475
0.192116
-0.379688
0.925995
-0.535199
0.493808
-0.354934
-0.363536
0.904944
0.0694421
0.74361
0.869205
0.334228
-0.420621
-0.868951
-0.536223
0.409447
-0.609785
-0.155563
0.87211
-0.715566
0.286362
-0.0545357
-0.126134
-0.511361
0.0118388
0.813888
-0.846992
0.427808
0.23441
-0.621832
-0.206036
-0.444672
0.716199
0.817873
0.234558
-0.638363
0.0300474
0.649263
-0.281351
0.632234
-0.413224
-0.655764
-0.0144208
-0.60935
0.728615
-0.591606
0.232545
0.756101
-0.215062
0.893155
-0.666603
0.943755
0.12793
0.196738
-0.737556
0.133555
0.108761
-0.37902
-0.758702
0.475582
-0.514553
0.645718
-0.629048
-0.374646
0.763451
0.348426
0.478595
-0.874914
-0.736877
-0.820094
-0.983371
-0.0869792
0.268607
0.059526
-0.00426114
-0.328404
-0.494353
-0.532649
-0.653674
0.191962
0.453786
0.755146
0.414319
-0.530469
-0.0440085
-0.963576
0.494662
0.309447
-0.843866
-0.0544618
0.99295
0.064195
0.798872
0.545802
-0.592481
0.814217
-0.250375
0.696178
-0.346602
-0.346527
0.318421
0.17353
-0.902034
0.657932
-0.184817
-0.0985043
-0.141747
-0.220102
0.887339
0.949498
0.15564
-0.072202
-0.904163
0.266727
0.160445
-0.516262
-0.311849
0.261051
0.736604
-0.023014
0.4282
-0.504248
-0.282659
0.611604
0.365933
-0.254511
-0.244413
-0.265292
0.388242
-1.50265
-1.7583
0.191345
-0.520527
0.0426479
-0.0248781
-0.811118
-0.258091
1.05774
0.386257
-0.475537
-0.029548
-0.552628
-0.0690957
-1.52414
0.651815
0.382844
0.80895
1.51136
1.56776
-0.535386
0.56511
-1.1449
-0.57503
0.1167
-1.14575
0.754379
1.35205
0.310426
-0.736064
0.945374
-1.12033
-0.119707
0.240746
-1.44297
-0.398396
-0.710334
1.56658
0.474294
-0.184996
-0.407973
1.18652
0.165439
-0.433413
-0.343123
0.0229214
-0.327873
0.106757
0.648598
-0.312953
0.769885
-0.0129603
-0.367404
0.894252
0.827328
0.848292
0.0616758
0.824749
1.01291
-1.32039
0.921398
-0.948082
0.620412
0.567018
-0.389809
-0.777966
-0.738678
0.764775
-0.0632934
0.0906668
-0.454595
-0.558523
-0.588089
0.311516
-0.869869
-0.97105
-0.303276
-0.0306965
0.886464
-0.572251
0.270391
-1.41785
0.865852
0.689713
0.394414
1.14261
0.755154
0.962818
0.37125
-0.640767
-0.448587
-1.20758
0.444292
0.73995
0.53474
0.719165
-0.00958695
-0.581319
0.67652
-0.0925039
-0.84916
-0.613422
-0.0825953
-0.306007
1.16812
-0.285872
0.538799
1.04217
0.445637
0.669243
-0.466732
-0.989639
0.913333
0.620105
0.613604
-0.199904
-0.935248
0.257496
0.451037
-0.560901
0.0750286
0.39024
-0.293645
0.702801
-2.01356
-0.658467
1.1699
-0.532713
0.616117
0.113064
0.887185
0.00740693
0.332834
-0.694069
0.946458
0.267534
-0.6427
-0.851714
-0.0100504
0.57196
-0.0706405
0.766063
0.294738
0.806482
-0.988053
0.387124
0.170179
-0.789277
0.98064
-0.540016
-0.334184
0.378766
0.922841
-0.546802
0.848483
0.752492
-0.136511
-0.0582252
0.124205
0.675231
-0.703382
0.278556
0.991187
0.278788
-0.120963
-0.943223
-0.833698
0.0607344
0.564003
0.47329
-0.619678
-0.476345
-0.0955105
-0.0799462
0.347274
-0.646094
-0.624338
-0.807026
-0.352251
-0.659347
-0.950532
0.661286
-0.510343
-0.71593
-0.689116
-0.393979
-0.932855
-0.181421
0.566247
-0.113256
-0.965024
-0.428431
0.902793
-0.65737
-0.8117
-0.452177
-0.597272
0.506233
0.601759
0.172168
-0.00601096
0.181946
0.137583
-0.629804
0.803313
-0.951076
-0.471247
0.565031
0.199404
0.112431
-0.806935
0.853574
-0.203217
-0.920194
0.170234
-0.17357
-0.740933
0.217878
-0.889187
0.696592
-0.0958722
-0.0299712
-0.865106
-0.557988
0.288729
0.951664
0.898685
0.472945
-0.158293
0.371468
0.372432
-0.537467
0.98955
-0.128814
0.487585
-0.323899
-0.274168
0.979767
0.450157
0.675013
-0.203929
0.703391
-0.656794
0.894789
-0.298207
-0.230243
-0.20054
0.436733
0.671835
0.901748
-0.872037
0.329051
-0.647377
-0.258084
-0.6632
-0.773595
-0.694853
-0.208966
-0.20705
-0.944071
-0.180559
-0.46992
0.89122
-0.0726864
0.131147
0.453598
0.456313
0.614773
-0.426704
-1.18835
-0.882603
-0.0391859
0.452499
-0.441234
0.768183
-0.191341
-0.262434
-0.949011
-1.20849
0.0115876
-0.886372
-0.341177
-0.196091
1.03142
-0.805991
-0.815944
-1.22568
-0.10108
0.546057
-0.225085
0.502977
-0.0588847
-0.865247
0.0311989
0.906568
0.0822214
-0.817316
-0.929411
0.0484168
1.22987
0.394093
-0.363384
-0.0591828
-0.913936
0.163766
0.445538
-0.369064
-0.150208
-1.08157
-1.11487
-0.557029
-0.55178
2.22725
0.11
0.156318
-0.568243
0.44848
0.69089
-0.419975
-1.22813
-1.09356
0.214842
1.1397
2.65406
0.168134
0.275906
0.286866
1.79504
0.420989
-1.08311
0.27675
-0.351461
-0.76685
0.236174
0.43165
0.456643
0.895866
0.79099
0.735176
-0.764451
0.0465598
1.14569
0.990501
0.0551941
1.01371
0.162209
-0.554987
-0.459124
-0.305882
0.569737
-0.286949
-1.04934
0.979844
0.766064
-0.656999
1.99549
0.0371694
-1.15317
0.560251
-0.836399
0.901196
-0.80357
-0.960569
-0.415808
-1.10464
-0.844147
0.717616
-0.471042
0.172982
0.558114
0.430313
-0.515736
-0.199531
-1.34513
0.171861
0.833435
-1.12843
1.01886
-2.40719
-0.560818
0.365154
0.0729862
-0.733948
0.318936
0.425623
-0.365541
0.973169
0.27131
-0.243259
-0.271432
0.205571
0.674553
-0.184723
-1.56773
-1.25332
-0.0655544
-0.200246
0.35596
-1.05736
-1.49664
-2.16926
-0.980928
0.0383651
0.0818429
-0.645359
0.792353
-0.310488
-0.225814
-0.317641
-0.33671
-1.10262
-0.939417
0.65084
-0.213236
-1.171
0.237665
-0.446321
-1.05412
-1.23687
-1.02735
0.149561
-0.450394
-1.79082
0.395605
-0.830732
-0.247235
-1.37405
-0.83927
-0.298103
-0.784609
0.285483
0.559058
-0.581456
0.0800993
-0.627713
0.231636
0.589521
0.419699
-0.259714
0.0732236
0.132437
0.443292
0.0136584
-0.721446
0.313031
-0.0706469
0.187517
0.875098
-1.70623
-0.935067
-0.414071
-0.577102
1.0115
-0.0112383
-0.0376209
-0.387279
-0.0274555
-0.264279
-0.764217
0.19725
-0.966835
-0.0644456
-0.786984
-0.322542
-0.826216
-0.589684
0.0355581
-0.0464416
-0.92962
0.706278
0.901228
0.705871
0.960601
0.724615
0.642614
0.837248
0.196464
0.653549
0.0752123
0.826277
-0.664435
-0.962223
0.713
0.682753
0.576374
0.459037
0.469095
0.172927
0.12646
0.848465
0.210474
-0.797356
0.238029
0.46764
-0.418072
-0.36275
0.147786
0.282527
-0.889157
0.95983
0.585033
0.27836
-0.351347
0.945358
0.0104699
0.842887
0.139224
-0.107307
0.928931
-0.759607
0.969848
-0.54006
0.193992
0.140695
0.529287
-0.175635
-0.88823
0.0120034
-0.655917
0.0580519
0.0690341
0.36537
-0.0551445
-0.338371
-0.25097
-0.724148
0.458779
-0.341401
0.321014
-0.872513
0.814771
-0.790684
-0.801497
-0.21496
0.331339
-0.00880319
-0.0752157
-0.577427
-0.180994
-0.784551
-0.0213578
-0.776354
-0.282802
-0.418675
-0.344393
-0.481943
0.0904144
-0.860736
-0.965317
-0.730162
0.79308
0.484645
0.207326
0.905771
0.828326
-0.515297
0.804135
-0.194356
0.458357
-0.238542
-0.931964
-0.239544
-0.310682
0.527143
0.562055
0.926907
0.432651
-0.324776
0.113486
0.743407
0.319988
-0.970068
-1.59357
-0.828536
0.98315
0.166699
0.832394
1.16451
0.705565
0.717833
1.79115
-0.300953
0.283498
-1.03574
1.05324
-0.0599624
0.478919
0.838219
-0.0419309
-0.123315
0.466321
1.43641
1.42799
-0.591061
-2.01658
-1.08447
0.647362
-0.269619
-0.450554
-0.217365
-0.76125
1.16657
-1.2352
-0.214243
-0.508188
-0.625322
-0.787443
-0.157751
-0.108417
2.22517
-1.71725
0.95295
0.313091
-0.352469
-0.95866
-1.14699
-0.554363
-1.21434
-0.0673402
0.186803
0.687544
-0.785932
-0.193815
1.03528
1.39087
-0.118258
-0.253551
0.172903
0.0260402
0.0179809
1.64681
0.274363
-2.03773
0.414974
0.403061
3.25497
0.67918
-1.63303
0.962735
-0.896107
-0.763105
0.848991
-0.213518
-3.17545
0.748007
1.12717
0.840258
-1.54787
-1.01605
-0.337653
1.10469
-1.10609
-0.501885
-2.11264
-3.91842
0.628286
0.400789
1.99746
-1.01796
-0.562537
-0.16286
1.8681
0.0694089
0.221901
-0.529189
-2.15084
0.274989
0.293818
2.50156
-0.954775
-0.32462
0.186162
1.0082
-0.296349
0.664982
-1.25848
-0.723945
-0.78243
-0.336978
0.992736
-1.10938
-0.522807
-0.55254
1.90046
0.544939
-0.165589
-0.880831
-0.60037
0.734173
1.51187
-0.708934
0.810909
0.284384
1.04789
2.02464
-1.20011
0.242273
-2.78786
-0.980124
0.561762
0.317533
-0.717778
-0.145892
-0.507961
0.196069
1.90836
0.0594503
-0.302647
-0.0487143
0.463381
-0.945784
0.602299
-2.41536
-0.433377
-0.681163
0.987925
0.831024
-1.34667
-1.09379
-0.952964
0.302229
-0.0797436
-0.414
0.76082
-1.21913
-0.153677
-0.717491
0.192087
-0.0273774
-0.936779
-1.56231
-0.830384
-0.498338
-0.339421
0.00766709
-0.836036
0.250694
-0.685662
1.01943
0.670987
-1.98269
-1.71713
0.090991
-0.682086
0.151739
-0.821087
-0.912531
-0.7463
-0.209761
0.777405
-1.10954
-1.08922
0.0668771
0.0535529
0.301795
0.224513
-1.06948
-0.749872
0.289782
1.35839
0.509655
0.737812
0.686292
-0.265576
-0.467887
0.11827
-0.56015
-1.10837
-0.80072
0.815339
-0.226271
0.279193
-0.0921228
0.545648
-0.183182
-0.470557
0.697622
-0.746544
-0.0461392
0.570222
0.996082
0.588935
-0.945401
0.918626
-0.329014
-0.905958
0.211875
0.948114
0.3828
0.348969
-0.598377
-0.58221
0.726699
0.731075
0.44224
-0.959664
-0.250698
-0.373478
-0.00338942
0.458367
0.429882
-0.747969
0.601227
-0.338425
-0.172612
-0.34165
0.230824
-0.372185
0.567689
0.340897
0.0748618
0.443271
0.459565
0.278964
0.272398
-0.79598
-0.770554
0.11216
-0.0660737
0.487209
-0.816557
0.59413
0.0912765
0.940937
-0.58839
0.801572
0.470233
0.579944
-0.205033
0.818205
-0.77083
-0.701667
-0.570585
-0.739016
-0.861288
-0.820939
0.193487
0.913887
-0.758309
0.711142
0.644461
-0.0559292
0.345207
-0.671988
0.531887
-0.516817
0.07472
0.445944
-0.589045
0.168249
-0.711044
-0.0855487
-0.165703
-0.208272
-0.0981139
0.248587
0.120213
0.565655
-0.397525
0.612649
0.404378
-0.312701
-0.958791
-0.22599
-0.364884
-0.944911
0.245606
1.01263
-0.988109
0.392811
-1.04609
0.924209
1.34171
1.53265
-0.366553
-0.224125
1.01554
0.351294
0.67544
-0.751257
-0.362897
0.0700627
-0.786644
1.23955
1.15476
-0.511564
0.441362
-0.597453
1.33906
1.60159
-0.631574
-1.47548
-0.983051
0.549095
-0.398174
-0.31995
-0.470152
0.4907
-0.424664
-0.691674
1.38009
-0.205061
-2.15673
-0.268358
-0.583361
1.05881
0.760627
-1.22058
-0.692723
0.281959
0.547461
-0.162186
0.400724
-1.47296
-1.25979
-1.06862
2.75571
1.74002
0.110788
-0.173111
1.12281
-0.373251
0.248444
-0.883773
-0.475442
-1.73568
-0.958926
1.36901
-0.649418
-0.180471
0.802861
-1.09625
1.51645
-0.388366
-1.04145
-0.612009
-1.2487
-1.88357
1.04689
0.224524
-1.50614
-0.165576
0.158217
0.488216
-1.91386
-0.0111764
0.962643
1.28834
-1.69993
0.353587
-2.17825
-2.52284
-0.764503
-1.37757
2.31536
-1.46988
0.319198
0.0934684
1.0556
-0.324394
0.527597
-1.25164
-2.1588
0.949773
-2.23541
1.70815
-0.524487
-0.00282182
-0.948897
1.45764
0.571468
0.288573
-0.399724
-2.66821
0.986128
-0.703772
1.02909
-0.281729
-1.33586
0.114003
1.52299
1.02971
-0.321704
0.188371
-1.91535
-0.637849
-0.144265
1.70297
-2.20306
-1.38284
0.183558
2.51418
1.22489
-0.325641
0.992536
-2.87363
0.713558
-1.21862
0.00990364
-0.0220449
-1.27002
-0.856078
2.46579
0.489321
0.10582
0.846074
-0.954477
0.478181
-1.09213
0.395827
-0.0602025
-1.20826
0.983986
2.49144
0.430538
-1.14122
0.0681081
0.136916
-0.248037
-1.08213
-1.75153
1.37277
-0.986138
1.33129
-0.441567
0.923195
0.986033
-1.12126
-0.0247409
-0.95079
-1.00957
-1.10394
-0.427802
-1.27813
-0.0944623
1.49158
-0.463617
-1.97836
-1.48995
0.542634
0.442608
0.34181
-0.792877
0.50165
-0.172908
0.679576
3.57922
0.70641
-0.462012
0.0781568
0.520034
-0.455043
0.296345
0.112396
-0.693372
-0.498466
1.12584
3.22549
0.823059
0.6628
-0.607633
0.062406
-0.236982
-0.290472
-1.10623
0.958028
0.272341
1.83631
2.30823
0.361118
0.0305598
0.455179
0.0652663
0.136099
-1.21378
-1.96135
0.945409
-0.0460814
0.950287
0.874887
0.148069
1.60808
0.738235
0.399722
0.481367
0.0412635
0.440894
-0.754259
0.365069
0.435912
0.34951
0.332674
-0.0543561
-0.885296
-0.247796
0.249402
-0.771404
0.0673391
0.309193
0.913389
0.910936
0.794347
0.812309
-0.709882
-0.247316
0.36433
0.06663
0.431118
0.64798
-0.991481
0.362059
0.482403
0.836078
0.160476
-0.958209
0.674348
0.194132
-0.450463
-0.369657
-0.988321
-0.0362784
-0.663044
-0.249789
0.0266024
0.951938
-0.664425
0.733906
0.453871
-0.178046
0.36026
-0.273243
-0.408897
-0.0778814
0.38068
-0.69602
-0.848056
0.181532
-0.0334316
0.616399
0.931694
-0.792057
0.396422
-0.0520936
-0.783496
-0.562259
-0.151663
-0.621694
-0.784258
-0.228445
-0.832809
0.108199
-0.965322
0.99305
0.998386
0.285778
0.207725
0.44979
0.551557
-0.605723
-0.797774
-0.543907
-0.231161
0.407723
-0.325221
0.892334
0.61351
0.0761005
0.615292
-0.765331
-0.400281
-0.243392
0.476831
0.589539
1.01755
-0.952191
1.19659
0.432664
-0.469986
0.58328
0.132352
-0.747185
0.365911
1.51758
-0.0986899
1.26798
-0.0783205
1.22959
0.265565
-1.69806
-1.39868
0.0327358
0.34208
0.999468
-0.683964
0.0530378
-0.0740759
0.478782
1.50013
-0.289229
-1.77531
-0.700804
0.78054
0.9558
0.900715
0.122611
0.209234
0.422123
0.883737
0.457853
-0.440129
-2.62742
-2.74618
0.0556154
2.40053
0.610067
-1.36031
-0.826604
0.272083
-1.31492
0.871403
-0.246031
-0.706085
-2.12946
-0.395921
0.895626
0.51703
-1.42727
0.324474
0.716319
0.447764
-0.741026
-1.56341
-1.72365
-1.28222
0.219806
0.972737
-0.0172446
-0.945956
0.623113
-1.25118
-0.165236
-0.292371
-0.0233652
-1.89052
-1.58655
-0.43352
0.570602
0.0715175
-1.28028
0.014222
-0.962393
1.08618
-0.176073
-0.710485
1.4248
0.645175
-0.769899
-1.90117
0.338226
0.260141
-0.0948158
-0.889047
-0.383853
-1.35403
-0.646243
0.694482
-0.229422
-1.09556
-2.17944
-0.409035
0.980639
-0.416187
-0.268916
2.46429
-0.130402
-1.17978
-0.783682
0.272282
0.319734
-2.19987
-0.624789
-0.751625
-0.137437
0.151532
1.70646
-1.1276
-0.927531
0.545468
0.267688
0.718095
-0.3279
2.35016
-1.41667
-0.0758872
-0.258766
1.41604
0.983367
-0.751923
-0.225382
1.52003
0.67466
0.364468
1.24178
-0.455783
0.118608
0.0961438
0.876828
0.661669
-0.87913
0.562687
2.27358
-0.181942
1.20978
1.06645
-0.567122
-0.237965
0.0887389
-0.147219
-0.730253
0.24628
-0.537765
1.14999
-0.0740793
1.73157
-0.587561
-0.0243725
-0.217706
-0.126117
-0.81828
-0.87559
-0.60576
0.536863
2.88768
0.920727
1.44754
1.73852
0.0616517
-0.83737
-1.06272
-0.858114
-0.312233
-0.0553056
1.30946
2.78398
0.538809
0.915782
1.1416
1.15298
0.348669
-1.4469
0.813412
1.00868
0.307814
1.01247
2.6045
1.30929
0.403069
1.3568
1.3946
0.603422
-1.64374
-1.10159
0.73048
-0.0921178
1.70005
3.0163
-0.937993
-0.0413772
1.56342
-0.690324
-0.804879
0.111909
-0.163002
0.642534
0.933032
0.136254
0.807554
0.972416
0.821283
0.842688
-0.455916
-0.0150452
0.586164
-0.613984
0.137224
0.425284
0.211768
0.341383
0.170896
-0.0811646
-0.399715
0.50992
0.0606902
0.249275
1.2055
-0.944611
-1.02839
0.482218
-0.957014
0.757001
-0.559453
-0.109496
-0.298164
0.538731
0.397646
0.973096
-0.20246
0.687609
-0.0125189
0.574155
0.1218
0.868613
0.834428
0.535653
-0.522142
0.455385
-0.4018
0.688943
-0.961099
-0.717397
0.0430083
0.423638
-0.287202
-0.924919
-0.489796
-0.883495
0.128683
0.416589
-0.716374
-0.447797
0.217682
-0.430459
0.0363242
-0.692453
0.655371
0.0796393
0.314122
-0.478667
0.653939
0.63762
-0.564674
0.549345
-0.95256
-0.320363
-0.468537
-0.429713
0.186202
-0.291705
-0.566656
0.341087
-0.875118
-0.258567
-0.255171
0.955862
0.506922
0.48276
0.963805
0.762492
-0.311233
-0.201126
-0.264672
-0.929526
0.162486
-0.0977311
0.503941
-0.865223
0.491235
-0.427663
-0.507061
0.0211301
0.235414
-1.41496
0.523095
0.565354
0.0564949
-0.667684
0.811715
-0.840854
0.405105
-0.206968
0.372796
1.40127
0.581897
0.638914
-0.776143
0.747569
0.420781
-0.161991
-0.675557
0.885285
1.20171
0.683877
0.673236
-0.641502
0.260298
-0.431148
0.89417
-0.231317
0.720073
0.754744
-0.428252
-0.15387
-0.908874
-0.0731816
-0.252903
0.653543
0.120528
0.153555
-0.348912
-0.339842
0.97904
1.11893
-0.0899477
0.836546
-1.41611
-1.01483
0.338098
-0.132449
0.187662
-1.60917
-0.697695
-0.781509
-1.00521
0.00689996
-0.0153304
-0.812084
0.777919
-0.00770281
-1.36107
-1.18742
-1.17583
0.471973
0.448878
-0.11088
-1.24953
-0.357339
-0.288649
0.0282731
-0.775739
-0.482821
-0.951397
-2.48148
0.383662
1.86426
-0.603879
-1.09276
0.06294
-2.02807
-0.432516
-1.65641
0.842479
-0.144167
-1.66004
-0.593829
1.15547
0.379652
1.68243
0.364071
-1.16731
0.522071
-0.625073
-0.589591
-0.123909
0.0731395
0.180005
-0.773288
-0.237399
1.5419
0.108656
-1.47185
0.810079
0.0698236
-0.847119
0.200632
0.690826
0.36777
-3.0676
-0.0463601
0.298021
0.546655
-0.882345
0.406062
0.513497
0.686405
1.45495
-0.131541
1.09093
-2.41037
0.292078
0.186598
-0.290953
-0.237383
-0.678099
-1.25183
-1.15894
0.291969
0.750823
-0.482613
-1.27608
1.66112
-1.34939
0.478758
-0.160041
-1.10484
0.618792
0.445362
0.382332
-0.189225
-0.934728
0.992043
2.72686
-0.248751
-0.574648
-0.312417
-0.00774505
-0.218485
0.0866174
0.473511
-0.798729
0.599603
-0.284299
2.28406
0.656809
-0.55286
-0.51365
0.400888
-1.43716
0.544299
-0.0463833
1.3249
0.928011
1.73787
2.03576
0.558681
0.370479
-1.44693
-0.151346
-0.998584
0.825289
-0.592132
-0.512597
-0.212384
0.910824
-0.737544
2.33178
-0.00602214
-0.990065
-0.292855
-0.19238
-0.153371
-1.16899
-0.0247733
0.908694
1.42586
3.08969
1.81011
-0.936069
-1.87764
0.306196
-0.391868
-0.802042
0.444451
0.275003
-0.198644
0.499263
0.474152
1.72865
0.540288
-0.710423
-0.908043
0.489907
0.325745
0.703331
0.615371
-0.00472444
-0.640334
1.38009
1.71911
-0.430772
-0.701682
0.575198
0.162802
1.1373
0.408176
0.506793
-0.530162
-0.904814
1.15037
0.727848
0.935368
-0.950259
-0.170563
0.242482
1.25343
-0.0714655
0.77825
0.542956
1.04974
0.631982
0.217337
0.258801
0.734746
1.04282
0.262243
0.123999
-0.523451
0.803115
-0.563747
-0.951997
0.102558
0.924107
0.674559
-0.633324
-0.442354
-0.107395
0.215569
-0.950326
0.97968
0.739778
-0.547927
0.742768
0.74514
0.07632
-0.0539855
-0.26195
0.542437
0.696995
0.841626
0.358569
-0.897155
0.0450786
0.230311
0.916566
-0.365239
-0.44603
-0.178518
0.543065
0.900392
0.10789
-0.841583
0.585507
0.361652
0.10041
-0.124041
0.234584
-0.763126
0.00177208
-0.418999
-0.0317895
0.661458
-0.266855
0.275876
0.20674
-0.164942
0.163142
0.442051
0.690134
0.888896
-0.731189
-0.859389
0.334133
-0.149953
-0.0774682
-0.912396
-0.535361
0.734728
0.847766
-0.257194
0.229591
-0.340722
0.839468
-0.54753
-0.726097
-0.350056
0.523544
-0.0404838
-0.934038
-0.797918
0.200954
-0.743889
0.874875
0.426035
0.63608
-1.21522
0.585785
-0.452048
-0.753097
1.5133
-0.347655
0.193419
-0.315301
-0.117025
0.499541
0.980265
-0.204719
-0.796808
-0.900812
0.278613
0.160825
-0.334781
2.17903
-0.696169
1.37284
0.752942
-0.948373
-0.0818338
-0.909424
0.228566
-0.391017
0.482148
0.200483
-0.630864
0.560112
0.907108
-0.868306
-0.10763
-0.387619
0.251924
-0.0879468
0.438983
0.334146
0.945173
-1.44921
0.219367
-1.38927
-0.65356
-2.13118
-1.33692
0.0730803
0.300858
0.260628
-0.167478
0.273076
-0.328905
-0.900338
-0.446473
0.55551
-1.69276
-2.02522
0.742331
0.295899
-0.460231
0.00593366
0.228825
0.691067
-1.91818
-0.937433
0.946649
0.666972
-0.813309
1.16095
0.495067
1.10206
-1.10373
-0.197185
-0.563324
0.26935
-1.14035
-0.344632
-1.5885
-2.39657
0.991056
0.381774
1.19916
0.194037
0.390823
0.689755
0.784242
-0.623605
0.975453
-0.240038
0.977483
-0.97384
-2.32721
-0.408862
-0.871408
0.65065
-0.0497368
-0.201832
-0.0470773
-0.366989
-0.634347
0.930242
-0.836073
-1.52195
-0.383049
-0.780084
-0.0194196
0.184397
-0.859059
0.0139612
0.153737
1.80978
1.07708
-0.626363
-1.7557
2.24425
-2.41557
-0.39511
-0.57807
-1.28145
0.532557
-1.26439
1.52883
1.26091
0.446633
0.715485
3.46
-1.88998
0.67621
-1.4193
-0.417253
1.49363
-0.532053
1.08458
0.0982835
-1.18252
0.402898
3.37908
-1.13117
-0.578701
0.458196
-2.20882
1.64834
-0.00483292
0.84653
-2.14094
-0.792676
0.039434
-0.255625
0.65359
-0.21891
0.500768
-0.526011
-0.68289
1.03119
0.649682
-0.455142
-0.144094
2.20354
1.05929
0.390035
-0.735201
0.419141
1.05606
-0.763113
1.3059
-0.629304
-2.18759
-0.10357
2.46754
1.25376
1.19022
-0.630185
-1.06068
0.767776
-1.39079
0.417281
-1.48691
-1.1198
0.108284
2.33682
0.772585
1.60914
0.879278
-2.07718
0.860171
0.63214
-0.988642
-1.06058
-0.350409
0.205709
0.895669
2.14148
0.814851
-0.902873
-0.0126082
-0.858827
0.56799
0.73407
0.338255
-1.23787
-1.03756
-0.341133
1.02256
-0.205627
-0.178021
-0.587851
-0.775157
0.669119
-0.307776
1.32381
1.31558
1.07225
0.807905
1.20531
-0.205595
-0.342209
-0.338042
-0.599116
0.103566
0.481702
-0.371527
-0.282941
-0.0966291
1.1398
0.585645
-0.124609
-0.202623
0.487692
0.587219
0.726702
-0.793013
0.277531
0.735579
0.509576
0.253403
-1.17552
0.19393
0.194804
0.423876
-0.542856
0.214641
-0.383385
-0.704985
-0.133537
0.126354
-0.502028
-0.282602
-0.823148
0.687454
0.20607
-0.961341
-0.576839
-0.736314
0.191833
-0.469298
0.924208
0.575403
-0.5643
-0.186656
-0.89576
-0.119397
-0.245512
0.849294
0.981544
0.735845
-0.866459
0.179109
0.383324
-0.211061
0.593939
-0.0774822
-0.620633
-0.154219
0.815778
-0.274195
0.920429
0.276574
-0.593472
0.608886
-0.858532
0.76633
-0.545559
-0.0844213
0.627639
0.479866
-0.596082
-0.679137
0.0916406
-0.567808
-0.144627
-0.860919
0.173001
-0.0480372
0.188494
0.0514387
0.923531
0.88967
0.832588
0.280013
-0.128094
-0.362367
0.510635
0.249201
-0.596435
0.840596
-1.0188
0.0875587
0.92505
0.234308
-0.249024
0.334887
0.438801
0.447389
0.325128
-0.545225
2.0811
-1.49044
0.69008
0.848496
-0.760355
-1.15969
0.123394
-1.10336
-1.30858
0.933921
0.178343
0.235416
0.712475
-0.482321
-0.646105
-1.07462
0.449357
0.361707
-1.09492
-1.16657
-0.649863
0.987816
-1.05617
0.443356
-0.485613
-0.434005
-0.107357
0.111269
1.23679
-0.561215
-0.907491
1.7401
-0.9728
-0.550731
-0.889815
-0.170932
-0.850114
-0.366643
-0.690983
0.206523
-0.918131
-0.471009
-0.739709
0.0648078
-1.17326
-1.06566
-2.02687
0.709573
-0.535317
-0.526642
0.797742
-0.508026
0.297229
0.418138
0.296804
-0.306136
-1.00831
-0.842275
-0.414513
0.840276
-0.764541
1.0926
-0.825126
0.527976
-0.73645
0.546085
0.126612
0.764528
0.0695413
-0.0767579
-0.505517
-0.925409
-0.0533084
-2.13555
-0.631508
-0.591114
0.867939
1.19883
0.13999
1.51062
1.2626
-0.548103
0.468147
1.09155
-1.29117
-0.662047
-1.08922
0.622235
1.34377
0.197974
-0.249501
-0.716965
1.10615
1.81353
-0.994707
-0.432486
1.46953
-1.08083
-0.574046
0.7245
-1.40037
1.13273
-0.799702
1.24794
0.75635
-1.09245
0.554411
2.42467
-2.91139
-0.883017
1.63033
-1.71128
2.77891
0.368388
1.33364
0.92952
-0.310248
1.32735
3.43884
-3.2852
-0.442838
-0.581087
-1.60823
1.17153
0.406315
2.94646
0.665234
-0.606853
0.764518
2.49071
-0.655114
-0.962801
-0.0919312
-1.3921
1.64148
-1.07143
-0.270066
-1.61248
-0.914962
1.31008
1.88496
0.957015
0.341335
0.35963
0.182905
1.33243
0.483198
-0.286169
-2.00808
-1.0905
2.03487
0.524058
0.511522
-0.314677
-0.20326
-0.769285
-0.854111
1.20166
-1.65197
-2.32186
-0.458772
1.59896
1.56849
2.23124
-0.80327
-0.861503
-0.0554883
-0.183223
-0.277743
1.05297
-0.942943
0.230143
2.71778
2.10747
0.224176
-0.188728
-0.437483
1.25617
1.13511
0.788156
-0.573899
-0.156739
-0.417492
1.13925
1.67068
-0.00622142
-0.384995
-0.0121451
0.697264
0.751008
0.439725
-1.08346
-0.807016
-1.09966
1.04164
-0.0358731
-0.439601
0.498925
0.140798
-0.507411
0.765313
0.443909
1.48315
0.586127
0.899352
-0.370403
-0.669339
-0.369336
-0.678469
-0.569578
-0.110468
0.729701
0.462779
0.177073
1.0352
0.0872284
0.51691
0.131459
-0.153883
0.842307
0.0229591
-0.365297
0.903028
-0.749987
-0.974532
-0.972808
-0.124877
0.203877
-0.174226
0.110748
-0.356035
0.689309
-0.607207
-0.493194
0.190484
0.0140047
-0.274886
0.737491
-0.238506
-0.54428
0.192536
-0.157
-0.10309
-0.482256
0.953578
0.848903
-0.885618
0.0328325
-0.167082
-0.708652
-0.174211
0.622129
0.0668536
-0.791468
-0.296281
-0.676695
0.629609
-0.083156
-0.0709272
-0.931336
0.480935
-0.443616
-0.320892
-0.272666
0.678412
0.160736
0.847002
0.931705
0.491898
0.259446
-0.907781
-0.8604
0.215782
-0.903458
-0.803927
0.916929
-0.202836
-0.539524
0.0794377
-0.840079
0.784845
-0.671942
0.498737
-0.538505
-0.966067
0.980278
-0.165414
-0.924265
-0.253202
-0.0870912
0.120909
0.0888393
-0.401952
-0.559506
-0.411485
0.420071
-0.948535
-0.446832
0.177598
-0.138478
-0.0756475
-0.668387
0.74373
-0.369025
-0.674905
0.182528
0.424043
-0.0578637
0.773694
-1.17333
1.11944
-0.2842
-0.538159
0.220929
0.25526
0.206303
-0.78679
0.762788
0.124769
1.12687
-0.578074
-0.645196
-0.0447486
1.14707
-0.176006
1.86453
0.0862581
-0.652182
1.80797
-0.859915
2.21394
-1.0098
-1.24151
-0.96511
-0.209332
-0.566606
1.29744
-0.705371
-0.965117
0.887874
-0.608975
1.20684
-0.0388282
0.329651
0.758201
0.439177
-0.104759
0.90006
-0.131724
-0.904814
-1.06416
0.463454
1.47522
-1.88451
-0.513334
0.731361
0.705395
0.755712
0.473635
-0.139114
-1.38171
-0.58029
0.676594
-1.48862
-1.17461
0.619549
0.343265
1.22726
-1.10552
-0.276125
1.49421
-0.897734
0.116412
0.451998
0.307762
-0.484059
-0.013857
0.00432912
-0.485987
-0.671578
0.238782
-0.915342
0.205681
-0.459035
0.599063
1.16687
0.419608
-0.785871
-1.28369
0.251184
1.22255
-0.830741
-2.91768
-0.122949
-1.19647
0.568262
-0.323418
0.0175153
0.0970357
-0.965077
1.3613
-1.04502
-0.402076
-1.40621
-0.693091
-2.0011
0.0893456
0.280064
-0.967778
0.915314
-0.167541
0.153315
1.07365
0.282597
-0.813787
0.93718
-2.29322
-0.0112558
-0.344521
-0.543275
0.17263
-0.564801
2.11814
-0.467008
0.420602
-0.391453
0.862739
-1.03711
0.651546
1.58622
-2.02014
2.01084
-0.309135
2.0711
1.5489
-1.91772
0.808492
1.89641
-0.785096
0.133846
1.03878
-1.71371
0.933415
-0.349072
0.651758
-0.0125731
-2.03928
1.45559
1.46321
0.88163
0.625433
0.37138
-1.02455
-0.631505
1.1175
0.59207
-1.39427
-1.62173
2.11443
1.49594
0.94905
0.833118
-1.16206
0.608348
-0.296209
0.129979
-0.993698
-1.40456
-1.62292
1.23833
-0.679632
2.84864
-0.683268
-0.895601
2.9222
0.871804
1.15019
1.45056
0.883926
-0.092102
1.75217
2.23775
1.19406
0.736045
-0.728684
1.13614
0.229844
0.28451
-0.406924
1.0759
-0.412562
1.90445
1.36077
0.978993
-0.605183
-1.02882
-0.403166
1.45995
-0.337507
0.516217
-0.207379
-0.035476
-0.299858
-0.546393
-0.998784
-0.17661
0.211426
-0.200557
1.04699
0.745089
0.197492
-0.853726
0.727364
-0.257054
0.349788
-0.0628931
0.440579
0.716566
0.784618
-1.04858
0.162333
-1.16003
-0.0606614
1.03305
0.45661
-0.821126
-0.18629
-0.687197
-0.634548
0.514094
-0.77134
-0.702761
-1.07101
0.863203
0.618621
-0.86145
-0.288886
0.570262
-0.361177
0.879662
-0.495447
-0.535833
-0.0505275
-0.812863
-0.556371
0.238187
0.887227
0.0376979
-0.849901
0.436847
-0.253338
-0.756972
0.39485
-0.191986
-0.467592
-0.754091
0.841709
0.935995
-0.0743455
0.0348733
-0.109397
-0.958312
-0.762861
-0.756382
0.479348
0.962982
0.984072
0.543155
0.226717
0.893617
0.888137
-0.900631
-0.3491
-0.644024
0.283315
0.870447
0.373849
-0.6394
0.241628
-0.966906
0.676911
-0.582047
0.368746
0.116433
0.824527
-0.681147
0.887587
0.859428
0.820438
-0.232967
0.604979
-0.575984
0.897673
-0.663366
-0.257554
-0.50114
0.919567
-0.238661
-0.365365
0.830032
-0.97096
-0.936893
-0.833332
0.828299
-0.316648
0.6407
-0.131358
-0.0188629
-0.94592
0.354993
-0.596133
-0.88856
-0.880698
0.2804
-0.15516
-0.789554
1.29978
0.286543
0.688793
0.680291
-0.47649
-0.0333876
-0.613329
-0.14628
0.644723
1.02324
-0.481286
1.16341
0.745176
-0.00914801
-0.52365
0.146826
-0.490359
1.15957
0.343048
0.570047
2.09406
0.219049
0.589016
0.394715
-0.28269
0.560631
0.332103
-1.07762
0.963101
0.0857127
-0.0328441
0.477084
-0.326907
1.58121
-1.92254
0.78843
-0.21051
1.36748
-2.13614
0.737264
1.0637
-0.115143
0.605513
0.808271
0.123564
-1.76402
-0.874688
0.447733
-0.0750394
-0.733415
0.513548
0.905231
-0.381457
-0.226801
-0.549358
1.65053
-1.75383
0.470098
0.30542
0.478732
-1.03885
-0.771959
-1.37506
-0.926819
-1.75062
-0.543468
0.767146
-0.536617
-1.50474
-0.612602
0.408708
0.763882
-0.241423
-1.3343
0.841666
-1.54148
0.0332068
-0.623818
-0.266544
-1.40001
0.197934
0.349908
1.09208
0.120537
-1.81727
-0.214046
-2.37745
0.622316
-2.21767
0.513263
0.405575
-0.591305
1.55277
-0.362341
0.551489
1.50987
0.991042
-0.687137
0.424367
0.149849
-0.1389
0.485626
-0.206342
-0.0226354
-1.36269
0.184914
0.423345
-2.02715
-2.18611
0.318705
0.502034
-0.272872
1.83042
-0.593284
-0.563546
-2.27199
-0.216219
-1.14605
1.28432
-0.107289
0.235099
1.37011
-0.572514
0.73551
0.449994
0.681701
-1.63217
-0.364634
-0.341331
1.12066
0.41895
0.610035
-1.59465
-1.44747
0.353493
-0.310541
-0.539398
-0.618818
-0.241674
0.94758
1.72717
1.71143
0.377536
-0.101547
-0.944693
-0.232017
0.107392
-0.216303
0.379484
-1.25499
2.68841
2.27175
1.89643
-0.157512
-1.81925
2.13174
-0.952788
0.500341
-0.778812
-0.0922102
-0.576919
0.00100176
0.767204
0.804349
0.636814
-0.0973831
1.34817
0.0124756
-1.04723
0.671762
1.48638
-1.14128
0.671938
1.7394
0.436427
-0.0166608
-1.63347
0.176823
1.25592
0.754769
-0.647445
-0.33823
0.284111
-0.219389
1.33446
-0.814991
-0.330487
-0.141185
0.910301
0.977775
-0.845189
1.5881
0.183313
1.04854
-0.382847
0.678604
0.0368944
-0.198586
0.401942
-0.521821
0.753379
0.648724
-0.578074
-0.702084
0.357199
-0.96602
-0.00779783
0.140006
0.578521
-0.479095
-0.589882
-0.133138
1.34441
0.934306
0.378466
0.0293506
0.514665
-0.302772
0.770114
-0.608099
-0.243435
1.00784
-0.223179
-0.935243
0.427598
-0.122301
0.5048
0.255093
0.198292
0.221852
-0.645526
0.340704
-0.777016
-0.743606
-0.0122592
-0.435555
0.905558
-0.828091
0.80465
0.048404
-1.15962
-0.917235
-0.819925
0.646827
0.0901589
-0.23702
0.60156
-0.553008
0.00614189
-0.580764
0.584679
-0.497328
-0.292236
-0.877186
-0.549994
-0.771171
-0.36802
0.996823
0.46338
-0.704948
-0.403231
-0.437841
0.18856
0.105518
-0.272878
0.808613
0.416035
0.364933
-0.581939
0.119488
-0.374157
0.451599
-0.538185
0.909863
0.326635
-0.971794
-0.369252
-0.2569
0.0828305
0.444251
0.56248
-0.705341
0.568291
-0.567684
0.865484
0.77636
0.250065
-0.993985
0.356222
0.906961
0.51832
-0.642151
-0.684034
-0.932033
0.324655
-0.786329
-0.229647
1.3751
-0.185724
0.859455
-0.877676
0.214613
-0.767613
0.904793
0.0812862
-0.648135
-0.340945
-0.0693027
-0.416038
0.328119
0.535641
-1.12214
-1.1696
-1.2167
0.569621
0.966809
1.48594
0.886597
0.550767
-0.0852252
-1.07873
0.272178
-0.954875
0.286653
-0.360516
0.622125
0.474523
0.106412
0.484606
-0.206464
1.44584
0.128905
-0.327025
0.177736
1.70907
-1.07014
0.691246
-0.361791
0.840017
0.430111
0.788681
0.389907
-2.82763
0.309044
0.138395
0.832032
-1.16911
1.03526
0.283419
-0.592757
0.578189
0.458748
2.34015
-2.84009
-0.39735
-0.759736
1.62393
1.5902
-0.568764
-1.54846
0.819242
-0.799886
-0.260173
2.1631
-2.41583
-1.13548
-1.21861
-0.549205
1.83009
-0.815183
-0.915579
-0.834039
-2.19288
0.0277633
1.1197
-0.0311441
-0.163483
-0.246526
-0.935231
0.779039
-0.911964
-0.944809
-1.01421
-2.57595
-0.527443
0.214597
0.965596
-0.667957
-1.14505
-0.302628
-0.147047
-1.811
-0.365546
-1.37001
-1.74874
-0.0745197
-0.0488635
0.704235
-0.863967
-0.866461
0.074995
-1.90795
-0.464221
-0.786034
-1.00361
-0.0172488
0.903891
-1.49688
-0.937889
1.23792
0.0832215
0.663532
-1.69942
-0.825013
1.52699
0.641248
0.933228
0.186322
0.32012
0.381005
0.517294
-0.318547
0.125737
-0.350448
-1.12038
-0.119056
1.12495
1.63951
0.766355
0.778849
0.140773
-0.379423
-1.18071
-2.30063
-0.384869
-0.650293
-0.648492
2.52794
-0.622641
-0.537519
-0.633665
0.378653
-0.04991
-1.23423
-1.69033
-2.21268
-0.871828
0.664398
2.01726
1.39394
-0.684002
-1.25082
0.987379
-0.427051
-0.97719
0.112278
-1.30756
-0.951041
0.888662
0.617562
0.467577
0.184799
0.234854
0.241168
-0.837481
-0.705196
-0.393488
-0.203179
-0.169003
0.782039
1.02215
0.54391
0.0366223
-1.05012
0.771406
0.481699
-1.15191
-0.274606
0.696787
-0.908924
-0.848009
0.907946
-1.32234
-0.73777
0.903124
1.14996
-0.603687
-1.01906
0.475766
0.559404
-0.0954268
0.328492
1.10429
0.206404
0.709729
0.513912
-1.0331
0.352299
0.735282
0.280915
1.2348
0.00885689
0.0653317
0.202782
-0.351841
-0.978556
0.5075
-0.152728
1.21799
1.16171
0.827157
-1.11357
-0.840597
0.225423
-0.566342
0.220395
-0.639584
0.527534
0.287162
-0.630584
-0.0400943
0.370482
-1.08062
0.530813
-0.863315
-1.38961
0.375278
0.89439
-0.186606
-0.680246
-0.207296
-0.0848273
-0.448729
-0.0738284
-0.682608
-0.572604
-0.392493
-0.641221
0.807845
-0.216781
-0.245156
-0.875499
0.599377
-0.41788
0.830554
0.492487
-0.910338
0.212689
-0.225556
-0.743768
-0.555956
0.146366
-0.364352
-0.934685
-0.773685
0.122258
0.157663
0.624399
0.456314
0.0546468
0.169192
0.259392
0.668641
-0.357065
-0.632665
-0.869821
0.748134
-0.212505
-0.883183
-0.943139
0.864158
0.734129
0.58033
-0.746232
-0.596861
0.704347
-0.231937
0.673697
0.955779
-0.388929
-0.246981
0.381232
0.960924
0.987266
-0.210187
-0.573555
-0.304782
0.721372
0.901854
-0.857601
0.450044
0.75978
-0.127949
0.0395976
-0.190351
-0.194987
0.675653
0.013881
0.764171
-0.334725
0.147876
-0.291487
0.04962
0.188153
0.231408
-0.0643551
-0.137194
-0.660657
-0.936215
0.552573
0.413124
0.945177
0.705538
0.411427
-0.2798
-0.873059
-0.870182
0.531694
-0.319068
-0.202989
-0.697872
-0.463428
0.105478
-0.534395
-0.135161
0.01348
-0.765608
-0.607417
0.18836
0.648172
-0.462229
0.695889
-0.384264
2.22568
0.0218076
1.65655
1.25469
0.491931
-0.341749
-2.84502
-1.10234
-0.589251
0.426992
-0.935244
0.833997
0.303887
-0.844432
1.16563
0.306059
0.260313
-2.89587
-0.157237
0.19331
1.61515
0.156172
0.168709
0.511327
1.87643
-0.30207
0.513017
0.0872934
-2.85155
-0.0721908
-0.388165
0.463287
1.80219
1.37882
-0.796847
-0.0882514
-0.425252
-0.882318
2.03121
-2.30329
0.89341
-1.49166
1.11151
2.44635
0.988323
-0.163477
0.301801
-0.973436
0.453659
2.48006
-1.76399
-0.682816
-1.08139
-1.13365
1.76133
-0.658587
-0.584593
-0.293347
-0.970982
0.395948
1.23704
0.516986
0.342666
-0.826829
-0.787179
0.45598
-0.332742
-0.106783
0.0514213
0.356169
-0.109164
-0.137041
1.05723
-1.03592
-1.39832
-1.63754
-0.931262
-0.963744
1.97168
0.0289999
0.175052
-0.819253
-1.18763
-0.0304263
0.835839
0.355013
-0.552116
-1.53996
-1.69404
0.985111
0.73106
1.23478
0.0285342
-0.205337
2.15863
-0.0634423
-1.00483
0.332337
-2.3495
-0.342148
2.05759
1.7765
-0.455759
-0.260461
0.874368
1.97304
-0.846895
0.404987
-0.848202
0.577643
-0.571821
0.367849
-0.110577
1.32228
-0.692596
0.0833932
1.09784
-0.779295
-0.869731
-1.54943
-0.711495
-1.18559
0.014525
1.76056
0.0563951
-0.730361
0.380707
-0.450747
-1.726
0.552307
0.871301
0.0271933
-0.303332
1.33371
0.410693
1.2081
-0.990623
-0.71128
0.53315
-0.256058
-0.383192
0.762761
0.733415
0.15892
0.957922
0.666878
0.137026
-0.956298
-0.381189
-0.285333
0.391301
0.0135214
-0.0354873
1.02575
0.570122
-0.126437
1.73677
-0.85364
0.941645
-0.2268
0.00960107
0.94178
0.334509
0.414518
0.676574
-0.433006
-0.829702
-0.0542212
-1.38476
0.0218692
0.92905
1.11308
0.951991
-0.666139
1.05896
0.791872
1.2302
-0.194665
-1.62995
-0.361534
-0.846193
0.490067
1.3398
1.47721
1.03057
0.42441
-1.35939
-0.154037
0.429622
0.0180272
0.748532
0.259769
-0.39233
-0.309656
-0.243097
-0.140193
-0.634076
-0.409709
0.651787
-0.973956
-0.807911
-0.464033
0.32657
0.28104
-0.185955
-0.803059
0.162999
-0.0841927
-0.368085
-0.385091
0.0416146
0.208749
0.213128
0.75783
-0.887695
-0.407711
0.0926089
-0.993186
0.134237
-0.298664
-0.924163
0.347789
-0.862844
-1.06854
0.644652
0.317791
0.0214874
0.565701
-0.331401
0.273092
-0.80795
0.424034
-0.938696
-0.889295
-0.300389
0.69499
0.736103
0.938687
-0.417893
0.919102
-0.770295
-0.424987
0.194178
0.63922
0.197349
-0.792251
0.431057
-0.670578
0.343143
0.153572
0.24694
0.924551
-0.0493624
0.324171
-0.426406
0.647601
0.792375
0.350046
-0.277844
-0.628645
0.572981
0.921586
0.781652
-0.402118
0.960492
0.988727
0.154614
-0.435681
-0.090523
-0.28297
0.278635
0.974829
-0.0229729
0.212522
0.79092
-0.0752043
-0.226012
-0.905926
-0.139557
0.704389
0.158202
-0.71192
-0.971123
-0.144714
0.568387
0.546284
0.353871
0.725818
0.359508
1.1188
-0.630997
-1.56682
0.846792
-0.325741
0.079264
-0.61552
-1.14926
2.0756
1.31404
1.12383
-0.456943
0.433638
-0.637885
-0.53189
-0.0321273
-0.647495
0.48349
0.0998778
0.762215
1.00226
0.115639
0.275116
-0.713723
0.011861
-1.01461
-0.999312
0.601682
0.116627
-2.23462
1.59823
1.16207
1.17662
1.30487
0.612979
-0.572303
-2.21022
0.209996
-0.0971236
1.17706
-0.634219
2.10116
-0.0734885
0.291596
1.45084
0.11162
-0.574363
-2.29459
0.428095
0.00907549
1.37137
2.34764
1.036
-0.301587
1.03231
-1.43146
-0.454189
0.0210629
-0.645103
-0.375512
-1.32647
-0.548539
0.0413646
0.612821
0.023327
-0.632193
0.56256
-0.91696
-0.143181
0.120451
-0.69571
-1.0442
-0.735146
0.488906
-1.01587
-0.883719
-1.28283
0.346732
0.105261
0.0858963
-0.902945
-1.27724
0.240168
-0.524193
-4.12896
0.0739712
-0.416709
-1.25365
2.53007
0.579002
1.8367
-0.169924
-0.122757
-0.50935
-1.1145
-1.60216
-0.260965
-1.7098
1.74995
1.43372
0.051947
-0.22749
-0.595391
-0.555121
-0.97962
0.0060194
-2.8254
-0.58203
-0.159908
1.37377
-0.0123793
0.231753
1.18301
0.739693
0.0249135
-0.356336
0.057377
1.03874
-1.45166
0.589569
2.76933
1.01843
0.946049
0.558195
-1.36893
-0.682607
-0.495834
0.996696
-0.650067
-1.45295
0.179715
0.451024
1.57151
0.583172
0.91078
-0.0373647
-1.17261
-1.53747
-1.39263
-0.585467
-1.2646
0.225061
1.37053
1.55378
-0.272898
0.51903
-1.51398
0.717854
-0.44663
1.35505
1.01001
0.60093
1.3184
1.68567
0.111976
-0.907829
-0.01769
0.650451
0.521767
0.317487
0.430066
0.0921516
-0.0775501
1.0449
3.07003
0.68788
0.148706
-1.12651
0.983633
-0.826751
-0.611134
0.784912
1.32859
0.828539
-0.59258
-0.405137
-0.619872
0.4145
-0.240846
-0.329707
-1.03449
0.407617
-0.385269
0.758644
-0.937982
-1.34131
-0.781073
-0.0214549
-0.853156
-0.610378
-0.427364
0.0594096
0.412791
0.134115
0.768606
0.0649038
0.284213
-0.11589
0.89449
-0.86745
-1.19627
1.6461
0.271098
-0.133942
-0.152777
-1.09647
-0.543793
0.193364
0.505415
-0.0503704
0.0433664
0.899578
0.500492
0.543367
-1.03088
0.418575
-0.0362347
0.713947
0.448146
-0.783458
-0.809365
0.585233
-0.381272
0.347423
-1.05098
-0.802727
0.749947
-0.245211
-0.858893
0.267567
0.257334
-1.03288
-0.603558
0.618992
0.437945
-1.17326
0.172032
0.794419
0.964851
-0.522485
0.402854
-0.0242706
-0.251386
-0.229432
-0.920986
-0.46705
-0.474004
-0.625942
0.301926
0.990967
-0.20515
-0.952506
-0.476185
0.101364
0.0160891
0.00716625
0.743095
-0.262394
-0.986752
-0.730398
-0.845753
0.363115
-0.533326
-0.594299
0.309709
0.623379
0.627141
0.390619
0.0745345
-0.826793
0.572739
-0.737057
-0.986472
-0.323905
-0.279847
-0.0856298
0.933527
-0.61232
-0.637372
-0.412246
0.83911
-0.603043
0.213316
0.457022
-0.933885
-0.814946
-0.643063
-0.641829
-0.647368
0.800617
0.214208
-0.480286
0.994094
-0.293923
0.281206
-0.279207
-0.394667
0.18998
0.975213
-0.87864
-0.762759
-0.159338
-0.0151159
-0.110033
-0.851264
0.316926
0.224002
0.844369
0.603433
0.472736
-0.352915
-0.164236
-0.174119
-0.474393
0.642202
-1.07222
1.49066
0.250287
0.81238
0.387174
0.698142
0.428487
-2.07687
-1.39692
-0.998909
0.387446
0.0678722
1.31926
1.2503
0.379782
1.38641
0.733927
0.887338
-0.56019
-1.0807
0.371791
1.37984
0.0612922
0.682268
0.572648
-0.274402
1.3622
-0.69731
-0.535509
-1.6166
-0.673877
-0.765935
-0.119157
-0.488546
1.33423
-0.0491018
-0.753007
1.26745
0.0158902
-0.897298
-1.18952
0.497555
-0.901318
0.689766
-1.47892
1.60344
0.950908
-0.344158
-0.242032
0.395707
-1.08466
1.10442
-0.488703
-0.645043
-0.221159
0.0632034
1.15921
0.0248206
0.945559
1.91289
-0.352823
-1.84145
-0.0732768
-0.974814
0.0448419
0.21505
-2.19253
0.820906
-0.896492
1.29706
2.33178
-0.62097
0.456021
-0.520215
-0.712767
0.433019
-1.67647
-2.69066
0.517127
-0.803736
1.23281
1.12024
0.168414
0.413886
0.0698021
0.858544
0.251647
-1.36189
-1.70338
-1.42776
0.399934
0.697872
1.51788
-0.418896
1.36396
-0.294399
0.721524
-0.862177
0.64792
-2.15785
-0.676488
-1.05594
1.02759
-0.0643619
-0.113106
-0.751312
0.970454
0.663802
-1.17552
-0.317106
-1.64592
-0.0626707
-0.643942
2.18109
-0.786536
-0.319761
0.203879
-1.54629
-0.776584
1.034
-1.01077
-1.38841
-0.808429
1.38374
1.70394
-0.355586
-0.368628
1.53737
-1.78019
0.119921
1.06109
-0.480793
-2.30663
0.154527
-1.95814
0.194743
-0.0819646
-0.919058
1.37448
-0.424019
-0.101798
-0.683601
-1.29741
0.0130683
-1.61799
0.561483
1.50533
0.877466
0.795682
0.464811
0.889532
1.13301
-0.878465
0.226088
-0.996365
-0.464351
1.83231
2.81449
-0.622172
-0.832557
-0.0738287
-0.591594
-1.10584
-0.541223
-0.410796
1.71654
0.499896
-0.828143
1.04701
0.418323
-0.231828
0.993443
0.824954
-0.412324
0.839625
-0.187723
0.294338
-0.247627
-1.43933
-0.460501
-0.472141
-0.523409
0.63198
-0.323351
-0.374932
-0.551953
1.32006
1.33282
0.122503
-2.33235
-0.0779608
0.358207
0.327446
-0.24707
1.18939
1.56537
0.35506
-0.0633509
-0.489097
1.27198
-0.040371
-0.43943
0.136255
0.0857628
-0.929394
0.865488
-0.365297
-0.325622
-0.8122
0.371736
-0.312559
-0.816737
-0.268637
0.044583
-0.283436
-0.0345547
-0.525619
0.685319
-0.210109
-0.293433
-0.225418
-0.139875
0.938906
0.161692
0.701616
-0.406573
0.205206
-0.132119
0.367446
0.399939
-0.298326
-0.443146
-0.632885
0.327973
0.42217
0.223237
0.598641
0.0841311
-0.82652
-0.024834
-0.157703
0.00346203
-0.304763
0.48699
-0.24959
-0.155898
0.909101
0.586506
-0.0542906
0.00249521
-0.263352
0.0800336
-0.207075
-0.143053
-0.276151
0.93139
-0.622789
0.577638
0.769941
0.419484
0.568043
0.319884
-0.569684
-0.522674
-0.194282
-0.281442
0.093003
0.743692
-0.616247
0.727079
-0.753082
0.180609
-0.177627
-0.0775525
0.157227
0.743749
-0.933869
-0.848908
0.04504
0.077224
0.17269
-0.132198
1.5664
-0.602323
-0.0692321
-0.0698271
-1.2219
0.0426014
0.201396
-1.86827
0.847373
-0.299438
-1.89374
-0.341368
-0.954091
0.0788592
0.46693
0.587049
0.518734
0.295054
0.0647875
0.283159
-0.0867576
-0.333513
0.6658
-1.35044
-0.962556
-0.32324
0.0630028
-0.2145
1.28262
1.56451
1.80504
-0.0745981
-0.738007
-0.933033
-0.655174
-1.11912
0.864947
-0.107083
0.89765
-0.241927
-0.40875
1.31633
0.0119099
-0.771725
-0.0378542
0.0616395
-0.00543268
0.604948
0.320318
0.584704
-0.432929
0.0897555
-0.195065
-0.151356
-0.925565
1.08372
-0.188868
-0.890107
0.978336
-0.152288
1.42263
-1.51277
0.185239
-0.119886
-0.414096
-0.26278
1.66808
-1.12558
-0.524883
-0.704158
-1.42377
0.982993
-1.35237
0.934104
-0.288802
-0.16065
-0.822464
1.43138
0.425786
-0.717714
0.166017
-1.81503
0.482177
-1.15956
0.395526
-0.367466
-0.656923
-0.853983
0.616192
-0.30571
0.294158
-0.570418
-1.45462
0.452819
-0.38914
0.9309
1.84267
0.540532
-1.40149
1.3021
-0.414015
-0.219898
-0.172598
-2.55261
-0.123375
-1.40905
-1.85628
1.90489
-0.549465
-0.00697923
1.45107
0.807138
0.23172
-1.29422
-1.64306
-0.784075
1.63558
0.0806744
0.285244
-0.883171
-0.178634
0.215464
1.13309
-0.620204
-1.50755
-0.100753
0.0663005
0.594058
-0.977593
-0.202723
-0.277737
0.286645
-1.51357
1.51094
1.42035
0.0949347
-0.762817
-0.661008
1.15858
2.04988
-0.0887161
-0.644824
-2.98123
0.509882
-0.463922
-0.385564
-0.482354
-1.29673
0.67731
0.700789
-0.613268
-0.109664
0.862063
-0.0725665
-2.04573
0.990766
-0.652116
-0.305393
0.554065
-0.56468
-1.17996
-0.273908
-1.67106
0.591475
1.23608
-1.21481
-0.709335
-0.320995
-0.902338
-0.46257
-1.06115
0.277281
1.45731
-1.10448
-0.499162
-0.86205
3.51938
0.364236
-0.62549
-0.0936693
1.8083
-0.206633
0.569599
2.39534
-0.829323
-0.424381
-0.705808
2.02948
-1.34471
-1.14018
-0.228409
0.129604
1.01494
-0.0620286
2.44019
-1.02566
-0.510876
-0.909714
0.37828
-0.401458
-0.50699
1.08855
1.74603
-0.107447
-0.343611
-1.63888
1.27292
-0.313667
-0.825857
1.44827
-0.368698
-0.637891
-0.951603
-0.265402
-1.14713
-0.175049
-0.214545
-1.51203
0.254042
0.816638
0.507939
0.353102
-1.18885
0.861478
-0.023946
0.574773
0.460076
0.277957
0.801312
0.836246
0.556409
0.53081
-0.945271
0.747552
0.872328
-0.460352
0.370408
-0.0769532
-0.646762
0.853686
0.334918
0.00895705
-0.111352
-0.521125
-0.700603
-1.08698
-0.484116
0.276096
-0.256161
-0.115282
0.536262
-0.0905036
0.896815
-0.542891
-0.968307
0.657473
-0.722023
0.963197
-0.941287
0.0876956
0.234681
0.00768307
-0.860036
-0.702913
0.791181
0.906871
-0.817262
0.851978
0.145638
-0.577618
-0.797348
-0.773478
0.70182
0.81976
0.53205
-0.255348
-0.696944
0.0203458
0.588726
-0.631895
-0.117413
-0.657695
0.668549
-0.0391721
-0.0130037
0.419836
-0.828727
0.856809
0.298637
0.414925
0.0634132
0.557364
-0.0569067
-0.736561
0.741454
0.321233
0.114658
0.580118
0.43453
-0.611107
-0.20287
-1.03404
-1.23154
-0.238582
-0.539974
0.16599
0.313646
-0.222684
0.936588
-0.639086
-1.03848
0.341327
-0.871412
-0.599231
0.508522
-0.705984
-0.220445
0.961924
-1.03067
-0.386256
-1.19837
0.397717
0.508933
0.277779
0.650743
0.85242
0.453476
0.0199687
-0.167533
-1.07475
-0.397871
0.0423982
0.335261
1.13577
0.527143
1.52482
1.41882
0.94937
0.391269
-0.143219
-0.59843
-1.10074
-0.709474
-1.14795
1.0401
0.693708
0.459952
0.175036
0.332568
1.49187
0.347948
-0.72246
-0.196625
0.283419
-0.0332524
0.0518367
-1.13492
1.58638
-0.388826
0.548849
-0.29217
-0.874005
-2.19401
1.04657
-1.49431
-0.310605
-0.359967
-0.987053
1.6449
-0.347586
-0.215342
1.94179
0.991698
-2.29449
1.24322
-0.831495
0.0884643
-1.40297
-0.568675
0.886823
-1.14365
-0.504691
-0.0198668
-0.942569
-1.52312
2.37257
-1.07171
-0.522864
-0.927535
-2.27599
0.261755
-1.08029
-0.533381
0.641786
-0.581565
-0.862394
3.03809
-0.387003
-0.615432
-0.962289
-2.24497
-0.552041
-1.48799
-0.936994
1.03859
-0.104045
-0.995061
2.6617
0.815462
0.361327
-1.51073
-1.56861
0.551556
0.267695
0.0923044
2.47385
0.247111
-0.51027
2.19273
-0.795904
-0.712121
-1.60148
-1.12996
-0.0531718
-0.765448
-0.551464
0.658367
-0.850623
0.0277541
0.0389056
0.0985304
-0.248302
0.383906
-1.02341
0.497176
1.37683
1.13993
0.773155
0.238003
-3.40872
0.846174
-0.613043
1.30505
-0.139771
-2.40518
-0.308643
0.349012
0.817225
1.72926
-0.755034
-1.91946
-1.14021
-0.228057
0.960527
-0.0160609
-2.20132
-0.800265
-0.701051
-0.412987
-0.358198
0.780963
0.0929835
0.22185
-0.0992354
0.293455
-3.42265
-2.12527
-1.1514
0.689515
-2.05609
0.835668
-0.747291
0.436554
1.48516
-0.475462
-0.94007
-1.55775
-0.826572
-1.30942
1.60237
0.749693
-0.354269
-0.465564
-0.510022
1.94972
-1.01352
-0.389809
-2.29936
0.0466585
-0.39957
1.39115
3.13334
-2.07491
0.731909
0.147903
0.703489
0.581767
-0.109624
-1.15761
0.476367
0.137872
-1.0272
0.0757658
-0.675802
0.895977
0.978292
0.320666
0.870099
0.885672
-0.539737
-0.420477
0.6243
-0.464244
-0.989247
-1.27041
0.802795
-0.241365
0.299093
0.198848
-0.777178
-0.687322
-1.12371
0.288326
-0.480379
-0.96405
-0.812928
-0.815756
-0.518857
1.88556
1.25294
-0.6676
-0.437206
0.252392
-0.398408
-1.13363
-1.21999
-0.912844
-0.249135
-0.500827
0.972689
0.506407
0.393676
-0.27412
-0.182751
0.937783
0.807467
0.989296
-1.12383
0.424461
-1.229
1.56548
-0.370121
-0.58962
-0.110601
0.179489
0.199626
0.44611
0.786922
0.0953264
0.862611
0.175873
0.00313462
-0.206759
0.644199
-0.65481
0.997419
-0.64333
-0.243132
0.4643
-0.172573
0.989859
0.161889
-0.490713
0.346681
-0.417841
0.64511
-0.851421
0.926568
0.341179
0.28198
-0.818234
0.266026
-0.203339
0.984238
0.791704
0.544482
-0.925828
-0.469909
-0.370966
0.981294
0.958582
0.99096
0.3808
-0.443109
-0.228674
0.875054
-0.45149
0.387544
-0.236262
0.976562
-0.825689
-0.97446
-0.211005
0.401304
0.460997
-0.919496
0.896979
0.113075
-0.253971
-0.502269
-0.916241
0.309832
0.409144
1.00889
0.939803
0.130884
0.460666
-0.672005
0.212717
0.464597
-1.08993
1.00007
-0.969206
-1.28366
1.78584
0.629314
-1.1462
-0.185175
-1.34303
0.622068
0.947655
-0.758788
-1.28871
0.90329
-0.607347
-0.453234
-0.92214
-1.25253
-0.474315
-0.424609
0.0774735
0.491348
-0.544075
0.777607
-0.0423045
-1.34669
2.0755
-0.319344
-1.54206
-1.18984
-0.609666
0.402391
0.699041
-0.593808
0.0995479
0.802821
0.99416
0.540083
-0.598444
-0.812533
-0.848134
-0.300284
0.567031
-0.111519
-1.06029
-0.182266
-0.74738
-1.83806
1.00132
-0.577936
-1.22217
0.724482
-0.681451
0.686007
1.0123
-1.61459
1.01376
-0.819384
-1.57165
1.89402
-0.555806
-2.02668
2.18075
-0.365631
0.337592
0.0960444
-2.53171
1.29792
-2.02957
-2.98523
1.05025
-0.780572
-1.06264
0.392721
0.282608
-0.82896
-0.846235
-2.20923
-0.521393
-2.55671
-2.14485
0.343844
-0.224359
-0.850715
2.55161
-0.677763
-0.223921
-0.401911
-2.23522
-0.824752
-1.19922
1.48849
1.14208
-0.593545
-0.887381
2.04998
0.522862
0.507604
0.4603
-2.27162
-0.772576
-0.613485
-1.2734
0.62508
0.64931
-1.11728
1.4361
0.157124
0.279615
1.15218
-1.24272
-0.151984
1.35345
1.77213
0.695553
-0.21977
-1.15609
-0.0148825
0.285275
1.6014
0.515654
-0.789321
-1.06929
-0.291638
0.389955
0.0933179
-0.0262901
-1.48919
0.0791451
1.14799
0.169503
-0.0296166
-1.96389
-1.15386
-0.86606
1.29062
0.673631
0.859931
-0.654631
0.913171
0.913702
0.655249
0.00917478
-2.61315
0.604663
0.147155
-0.630654
1.45807
0.768356
2.15397
-1.82416
0.479665
-1.21702
0.121772
-1.07285
0.64415
-0.335165
0.352869
-0.757816
0.36611
0.712187
0.675206
-0.580836
-0.982181
-1.18672
-0.11471
-0.430242
0.2143
-1.50087
-1.49333
0.828238
0.434815
1.84651
0.123128
-1.34965
-0.491616
-0.0661539
-0.382063
0.828023
2.35209
-0.402932
-0.338631
-0.638989
0.76812
-0.168902
0.76857
0.281543
0.271453
0.630239
-0.199746
0.994642
-0.950192
0.481798
0.103655
0.559738
1.1416
-0.429752
0.550531
-0.373579
0.957364
-0.873332
-0.161587
-0.0990475
-0.925295
-0.894197
1.60504
0.9658
0.042733
-0.718456
-0.633356
0.0323438
0.256194
0.00308995
-0.989156
0.706941
-1.09582
1.12465
1.32121
-0.290894
-0.799183
-0.658876
-0.00934634
0.497932
0.514766
0.463284
0.594873
-0.811604
1.82689
-0.453945
-0.941802
0.405979
0.225077
0.280238
-1.28564
0.850566
-0.91781
0.545244
0.495061
-0.244297
-0.887917
0.909064
-0.310738
-0.0257222
-0.522219
-0.156314
0.174968
-1.08011
0.180789
-0.985786
1.0173
0.018182
-0.0209628
-0.763608
0.559307
-0.95439
0.376262
0.261295
-0.0143871
0.936878
0.882806
0.5615
-0.0275651
0.0688543
0.471512
0.966717
0.23199
-0.620845
-0.959487
0.253993
-0.235351
0.893684
0.387075
0.845898
0.990371
0.00469255
-0.341628
-0.383627
-0.670121
-0.761088
-0.0799323
-0.150457
0.542732
-0.395388
0.309041
0.75905
0.0279132
0.764329
0.813305
0.623039
0.485008
0.389508
-0.97732
-0.361116
-1.25824
0.383262
-0.610643
0.194772
0.277587
0.394572
-1.1407
0.446148
0.520917
0.807855
0.742839
-0.00850499
-0.924109
-0.307438
1.30879
-1.101
0.269717
0.243273
-1.40529
0.954247
-0.33017
0.369614
-0.242304
0.0226711
-0.836642
0.462949
0.297762
-0.0366451
0.00572215
-0.698134
0.571034
0.854041
-0.383685
-0.63878
0.108107
-1.0502
1.81542
-0.894524
-0.235237
0.537028
-1.78083
1.32998
0.075182
-0.696735
-1.40606
-0.88462
0.838439
1.95973
-1.08502
0.927688
0.702792
-1.48907
1.0848
-0.0424858
-1.07691
0.588729
-0.132847
-0.733781
0.133755
-0.0848126
0.960859
-0.868601
-3.55565
2.07271
-0.0553305
-0.67422
-0.87226
-0.178659
1.39538
0.478717
-1.01471
-0.0957782
1.51879
-2.77722
2.08594
-0.204929
-2.67959
2.6996
-1.56283
-0.589546
0.865564
-1.61553
1.83874
-0.15382
-3.08469
1.66845
0.0470224
-2.17069
1.91041
-1.32614
0.0119251
-0.834201
-2.86036
-0.0546703
-0.722592
-0.983546
0.797688
0.873616
-1.67324
2.03821
-1.75826
1.04645
-1.41088
-1.78625
-0.279789
-1.53149
-1.57282
0.50797
-0.60253
-1.89449
2.1513
0.28687
-0.132503
1.59472
-2.0529
0.521815
-1.22398
1.34868
1.192
-0.923798
-2.15613
1.67104
-0.344066
0.948507
0.877058
-1.82027
-0.490192
-1.20326
0.628824
0.516652
0.472836
-0.324324
0.81759
-0.444356
0.720186
1.09234
-1.39628
-0.111003
-0.666204
-0.805379
0.246323
-0.396916
-1.27371
0.962377
2.04397
-0.608991
-0.124556
-0.254772
-0.222989
0.328466
0.92947
-1.05068
0.687302
1.64732
-0.706684
-0.238381
0.162454
0.293953
-2.28208
-0.304059
-1.21454
-0.135318
0.0590347
-0.544627
1.43653
-0.0879957
1.05011
-0.673287
-2.60358
-1.9015
-0.346086
-0.503227
-0.526595
-0.599337
-0.0355921
-0.171719
0.843906
-1.64814
-1.32267
0.299473
0.0316247
-0.890767
0.991792
-0.0290966
0.817559
0.878096
-1.22107
1.53031
1.10246
-0.74834
-1.43825
-1.44413
0.532227
0.167709
1.29865
1.52338
0.832909
-0.64476
1.47688
-0.475412
0.250106
-0.127046
-1.53722
0.918865
-0.779949
0.38481
2.7264
0.416406
-0.223756
0.0393367
0.00237829
-1.4087
0.769579
1.22613
0.46892
-0.59185
0.763116
1.45363
0.111498
-1.88134
1.09309
0.2733
-1.12167
-0.0222533
-0.076861
0.150026
-1.44216
0.488315
-0.461582
-0.0596632
-1.24971
1.56502
-0.18238
0.59064
0.763453
0.627808
-0.00691491
-0.835776
-0.747656
0.301541
0.566238
-1.24718
0.926255
0.102425
0.660785
-0.300951
-0.383833
-0.964667
-0.881979
0.305746
-1.17086
-0.825443
0.2494
-0.329595
-1.06819
-0.678351
0.0131808
-0.0956138
0.816925
0.0676367
-0.159094
-0.0934136
0.0438721
-0.412665
0.0501775
0.375293
0.632766
-0.0178942
-0.358093
-0.793636
0.175281
-0.932054
0.207397
0.879743
0.82725
0.858979
-0.754864
0.00847582
0.381249
0.941937
0.513789
0.0588209
0.573559
-0.56959
-0.289056
-0.807552
-0.523869
0.385471
-0.73725
0.666431
0.0425285
-0.175822
0.223782
-0.79169
0.887341
0.0659092
-0.0483653
0.402453
0.0403089
-0.166174
-0.76493
0.284292
0.879695
0.373337
0.532142
-0.598782
0.863542
-0.838049
0.271904
0.208481
0.408447
0.138735
-0.689299
-0.395856
0.487423
-0.179031
1.0429
0.899194
0.0356561
0.154751
-1.14682
-0.479647
0.735221
0.164695
0.341449
0.747996
-1.17289
0.275825
0.758099
-0.747905
-0.089896
-0.609916
0.16587
2.59042
0.414945
-0.122294
-1.52314
-2.86003
1.28293
0.787186
-0.790854
-0.171504
-1.34423
-0.993734
1.11375
-0.121274
0.797261
-1.75614
-2.3583
0.210241
0.610772
0.11374
-2.53154
-0.46996
-0.0540435
1.51124
0.630022
-1.50665
-0.148639
-2.33335
0.762368
0.210902
0.193327
-1.11866
-1.71711
1.05572
-0.465956
0.0500739
0.35269
0.492623
-1.83771
0.0910727
0.245096
-0.923497
0.340583
-1.63934
-0.131153
0.889453
-1.20907
0.548049
-0.76636
-4.0135
1.65923
0.19334
-2.04671
-0.321021
0.0910778
1.42782
0.414137
-2.34112
1.03135
0.0408936
-3.57398
0.484215
0.091275
-2.10501
-0.0887832
-0.778571
0.682316
1.47762
-1.29294
-0.61594
0.467503
-0.635404
-0.11238
-0.223879
-1.15282
-0.463768
-1.61747
1.239
1.17675
-1.46671
-1.13516
0.155143
0.168054
-0.0194187
0.666873
-1.32974
-0.532515
0.161527
1.44786
1.46693
-2.20814
0.458822
-1.33395
-1.47404
-0.251044
0.557089
-1.08151
-0.928804
-1.3683
-0.779441
1.54819
-1.51219
-0.37244
-0.188596
-0.110926
-0.0288108
-0.797917
-0.132433
-0.68708
0.0524193
1.03535
0.784273
-0.363966
-0.204004
-0.769421
-0.134404
0.554159
-0.0032137
0.948454
-1.42489
0.524049
0.979462
1.54625
-0.010101
-0.628691
-0.998342
0.0519811
0.476706
0.0319664
0.997605
-0.128153
0.800438
0.405171
0.919615
-0.236123
0.47814
-1.15415
0.2023
0.912732
0.572482
1.01963
-2.02194
-1.24115
-0.855807
0.662957
-0.0885813
0.141013
-1.45314
-0.440126
0.650634
0.323314
1.20144
1.26041
-0.277019
-0.606706
-1.24803
-0.142918
-1.48063
-1.03937
-0.528822
0.645201
-0.92891
0.14349
0.271547
0.0133529
-0.363817
0.936685
1.4967
0.47694
-1.73538
-0.53305
0.732763
0.0620935
1.43065
-0.673103
0.543451
-0.793612
0.0757353
1.40791
-0.734027
-0.369335
-1.02612
1.52292
0.92243
0.34093
0.564939
-0.34065
0.728403
0.154059
0.581575
0.422391
-2.2051
0.582019
-0.157095
0.0203736
0.14466
0.13017
0.759534
0.608708
0.815131
-0.602984
0.452056
-0.447234
0.297059
0.822173
0.9734
0.725892
-0.605601
-0.510644
-0.413815
-0.808935
-0.161121
0.183637
-0.0477327
-0.436801
1.18988
-0.333355
-0.708089
0.852559
-0.932027
-1.04072
0.245429
0.539875
0.616069
-0.613748
0.873304
-0.312069
0.505624
0.740582
-0.536585
-0.829229
0.1331
-0.909925
0.585331
0.265826
-0.178648
-0.775119
-0.255061
0.908346
0.505452
-0.0447616
-0.332873
0.957321
-0.674575
-0.723617
0.774387
0.743261
0.844535
0.636225
0.839216
-0.295696
0.160754
0.373296
0.289568
0.0444669
0.952675
0.536717
0.918092
0.153784
0.0760358
-0.0162531
0.644478
-0.548983
0.292666
0.230712
0.35226
0.0606221
-0.333178
-0.565043
-0.22354
0.480697
-0.533601
0.948911
0.909496
-0.254076
-0.71955
0.452616
0.251498
0.04672
0.346616
-0.816361
0.755883
-0.66474
0.291438
0.439287
0.101947
0.465842
-0.509408
-0.566469
-0.580623
0.322553
-0.62782
-0.87739
-0.477339
-0.933502
0.65233
0.710365
-0.182099
0.843106
0.102667
0.270682
0.149615
0.472323
-0.316099
0.537929
-0.723554
0.376406
-1.03252
-0.906683
0.999714
-1.16961
0.409926
-1.19727
-0.607522
1.00555
-0.0366311
-0.987371
0.00130604
-0.504946
-1.31895
1.4519
-0.163751
-0.766581
0.352363
-1.11282
0.30429
-0.821101
-0.153038
-2.42692
-1.43497
-0.0504218
0.936033
0.819473
0.842493
-1.19809
0.0851225
-0.00285324
0.146272
-1.03683
-1.57579
-0.578978
1.0836
0.807479
0.145585
-1.88073
-1.43405
-2.303
0.311143
0.114636
-1.10259
-1.42617
-0.558427
0.742191
0.342983
-0.526611
0.234196
-0.578688
-2.64999
0.00195895
-0.928628
0.377906
-0.861223
-1.50433
0.367586
1.71145
0.317785
-0.442049
-0.406458
-3.91766
0.000918061
0.347712
-0.316698
-1.85121
-1.57937
1.67242
0.667608
-0.629686
0.585043
-0.271033
-2.33468
-0.0137592
-0.825294
0.540398
-2.53386
-0.181324
-0.049518
3.49403
-1.72221
-0.641998
0.189117
-2.67776
-0.299406
-0.0231533
-0.746057
-0.508158
-0.632215
1.29087
3.4032
-1.60127
0.199438
-0.98025
0.0294311
0.976553
0.767384
1.40465
-0.650665
-0.760591
0.389274
1.84223
-1.5674
-0.481243
-0.598005
-3.44066
0.306161
0.464838
1.4536
0.271028
-0.489779
-0.45548
1.73038
-0.379428
0.0244132
-1.34807
-2.31714
1.72366
-0.528324
1.49354
0.228757
0.917859
0.108928
0.503345
-0.411256
0.310866
-1.30166
-0.110636
0.0613801
-0.565676
-0.133236
-0.651085
-0.602203
-0.302062
-1.25278
-1.17248
-0.402433
-2.93021
-4.04129
2.70879
0.470019
-0.747552
-0.56313
-0.679682
-0.0549041
0.305202
-0.475524
-0.23896
-2.4163
-1.04442
0.39523
0.557735
-0.698296
0.348621
-1.37611
-0.545011
0.638163
0.684479
0.45733
-2.44616
-0.359594
1.19458
0.126564
-0.293149
-0.347408
-1.68808
0.00916557
0.605159
0.369591
-0.154567
-1.17443
-0.974933
2.89509
-0.396306
0.783419
-1.42357
-0.301312
1.32357
1.80051
1.46933
0.220924
-1.48349
-1.53176
0.573065
0.1458
0.145039
-0.478659
-1.56338
-0.387274
1.28457
1.18685
0.726019
-1.0673
-0.683262
-0.720855
0.40928
-1.03668
-1.22655
0.752858
1.05811
1.51819
0.195917
0.169743
0.339907
-0.356681
0.502748
-0.294892
-1.1693
-0.944124
0.0229936
0.914802
0.99272
-1.63389
-0.793697
0.329562
-1.07809
0.987554
-0.878855
0.846238
0.714394
-1.01438
0.160256
0.812504
0.370948
-0.407268
-0.444862
0.794529
0.165269
-0.754282
-0.552048
0.868434
-0.428231
0.787869
-0.675872
0.675754
-0.386336
0.730352
-0.719661
-0.463404
-0.840948
-0.230477
-0.26268
0.554033
-0.768378
-0.13266
0.325519
-0.306006
-0.389976
-0.57241
-0.836091
0.825433
-0.823607
0.0725475
0.106233
0.747343
-0.0605578
0.264472
0.331917
-0.082535
0.868691
-0.660241
-0.511429
0.404172
-0.87891
0.197594
0.531159
-0.197231
0.441932
0.0970602
0.613223
-0.707168
0.705087
-0.405283
-0.974724
-0.132945
0.4316
0.759968
0.312085
0.12105
-0.787666
0.0563089
-0.921214
-0.869236
0.452921
-0.0484621
-0.486649
0.120172
0.363108
-0.0550302
-0.470318
0.087522
-0.250244
-0.364381
-0.137432
-0.703339
-0.25217
0.927244
-0.770806
0.944542
-0.659333
-0.925391
0.119266
0.0355806
-0.666654
0.842456
-0.955158
-0.288324
1.23057
-1.19161
-0.844604
0.33319
-1.11215
0.526039
0.31793
1.3591
0.0751809
-0.846742
-0.353658
-0.556628
0.174639
-1.28203
0.800169
0.391774
0.37501
-0.123303
0.365833
1.79402
0.499586
-1.10733
-1.21518
0.0758325
-0.728683
1.30052
0.578005
0.242612
0.675236
-1.12925
-0.558596
0.997664
-0.585168
-2.49111
-1.64486
-0.317173
0.864435
-0.121347
0.15913
-1.94092
-0.733489
-0.251459
0.0670158
-0.282804
-2.51729
-1.79135
0.769445
0.998002
-1.40264
-0.952762
-0.953718
-0.591755
0.781507
-0.941886
0.545212
-1.70173
-1.21678
0.825446
1.50267
-0.853725
-0.130825
-1.72027
-2.18415
0.302845
-0.358212
-0.504216
-1.55347
-0.487576
0.581792
1.84751
-0.221548
-1.01056
0.775129
-1.57633
-1.50474
0.595593
-0.118503
-1.66671
-0.444505
0.591141
3.21827
-0.326079
1.2919
0.0662585
1.04113
0.125154
0.756147
-0.633604
0.222627
-0.670356
0.86309
2.69846
-0.0823762
-0.666662
-0.340678
-1.54342
0.839012
0.120728
-1.3052
-0.993425
-0.631891
0.143835
2.28388
0.398901
-0.82324
-1.02282
1.88689
0.943101
0.315498
0.993437
0.36991
0.608772
0.13703
1.10653
-0.353356
-0.161035
-0.908999
-0.0253478
0.0287847
-0.230031
0.630977
-0.898549
0.44262
1.16103
0.376028
0.391882
0.311297
-2.07777
-0.425621
-0.243533
0.627222
-0.108157
0.491837
0.366212
-0.318872
-1.12424
0.0759872
-0.0472229
-1.2052
0.435192
-0.591234
-0.388128
1.16672
0.20173
-0.184422
0.793934
0.400171
2.57611
-1.07003
-1.48359
-2.12984
0.339989
0.124684
0.821426
0.0115755
-0.451202
-0.76905
0.0417937
-0.649235
0.143859
-1.3523
-1.99289
2.30929
0.631367
1.24306
-0.981482
-0.787738
-0.0720869
0.947893
-0.461317
-0.363978
-2.91278
-2.15926
1.52864
0.291849
0.480388
-1.00622
1.02412
0.454839
0.711054
0.644394
0.816778
-1.29885
-1.65914
0.368685
0.734464
0.626
-0.729256
0.651782
0.625819
-0.382005
-0.79465
0.450942
0.0415515
-0.673836
0.119364
0.645637
-0.362659
-1.04646
0.0494955
0.331034
0.8462
0.742862
-0.960046
1.19721
-0.973534
-0.19883
0.97147
-0.280851
0.20977
0.141347
0.220318
-0.491964
-1.34738
-1.23749
0.702316
-0.291231
-0.861418
-0.589857
-0.24422
-0.319321
-0.711556
0.84984
-0.90153
-0.800623
0.992548
-0.210619
0.47671
0.86752
-0.902528
0.940857
-0.786281
-0.731243
-0.0636826
0.512021
0.429673
-0.656199
-0.495487
0.137664
0.330402
-0.336255
-0.860666
-0.770912
0.350815
0.0970547
-0.151173
0.763131
-0.843126
0.576881
0.762129
0.607227
-0.279788
-0.982773
-0.950482
-0.0475892
0.900593
-0.549702
-0.558654
-0.374281
-0.96662
0.127177
-0.943553
-0.241297
-0.890527
-0.161286
0.438474
-0.493651
0.349
0.239014
0.933196
-0.40931
-0.304123
-0.862869
0.36349
0.2847
0.966762
-0.6325
-0.264159
-0.887757
0.342861
-0.0346241
-0.667972
0.23501
-0.703493
0.785619
0.444777
-0.499953
-0.105934
0.248567
0.176249
-0.923147
-0.486559
-0.733738
-0.279354
-0.339209
0.92181
-0.345258
0.670868
0.781218
0.154088
0.052933
0.771035
-0.381966
0.166974
0.836943
-0.750637
0.792276
-0.0333099
-0.290798
0.417276
1.00204
-0.225399
0.791568
-0.192028
-0.709344
0.613187
-0.710455
0.460613
-0.787553
0.466809
-0.309004
0.513258
0.648494
0.628698
0.775427
0.882452
-0.0155588
-0.736994
0.223827
0.814792
-0.419349
-0.0216852
-0.575904
1.32712
-0.440754
0.0240926
0.44295
1.01725
-0.718384
-0.950763
-1.42215
-1.01809
-0.845684
0.402559
0.383963
0.483514
0.649991
-0.808355
-0.0253951
1.3646
0.791661
-2.06566
-1.08588
-0.659731
0.882192
0.769716
-0.330503
-0.225534
-0.935651
-0.667309
-0.10263
-0.605465
-0.778916
-1.13608
-0.814738
0.818562
0.51385
-1.41873
0.308596
-2.35214
-1.19007
-0.408967
-0.761601
1.22718
-0.165801
-0.0194366
-0.980701
0.601747
-1.166
-0.523596
-1.16239
-0.0709545
-0.87629
-0.911649
0.559691
0.697076
-0.239315
-0.0116596
0.992466
-1.76817
0.0434646
-1.39752
-1.19552
1.28674
0.0646892
-0.337668
0.939046
0.497328
-0.189336
0.432253
-1.55538
-0.0334516
-1.16037
1.63068
1.0239
0.721487
0.471855
1.0096
0.290544
0.663035
1.27845
-2.1386
-0.0983348
-1.72865
-2.52088
1.03722
-0.748453
0.0986175
-0.599446
-0.527557
-0.130009
-0.221562
-0.827621
0.51891
-1.37255
0.139096
0.0152566
-0.749997
1.60058
0.840124
0.75932
-0.218246
-0.500258
-0.171237
-1.31659
-0.855129
0.883643
-1.42261
-0.713625
1.70964
-0.349126
0.0929484
-0.92055
-0.259739
0.561794
-0.678659
-1.61401
-1.83192
-1.62796
0.183157
0.339969
0.335105
1.22115
-0.365465
-0.4811
-2.6285
-0.158244
-0.124416
-2.44779
1.15385
0.483162
1.28738
0.895125
-1.17704
0.20657
-0.263043
-0.876867
-0.621877
0.0228985
-2.39842
1.12063
-0.593498
-0.21068
-1.79523
-0.312803
0.371866
0.593083
1.0959
-0.357648
-1.27413
-2.14801
0.759608
-0.945749
1.00802
-0.428016
-0.660259
0.687948
0.0578197
-0.044901
0.250469
-1.49796
-2.18044
1.74702
-0.768576
0.397114
-1.3836
0.884724
1.58068
-0.564458
-0.785727
-0.770068
0.820762
-0.928017
1.61544
0.182334
-1.2342
1.10843
-0.266455
0.0912926
-1.38902
0.291894
0.131669
0.350332
-0.557796
0.35642
-0.801959
0.564163
-0.597471
0.76315
0.972073
-0.981797
-0.891316
-0.213824
0.155639
0.801217
0.150325
-0.607855
0.888987
-0.22599
-0.264714
0.574464
0.857084
0.622134
0.459929
0.766586
0.717336
-0.349452
-0.669343
0.377492
0.321928
0.750165
-0.561941
0.0137227
-0.982881
0.599419
0.279318
-0.569743
-0.883174
-0.467966
-0.190717
0.0236047
-0.369485
-0.300742
0.323356
0.753371
-0.554365
-0.84926
0.527308
0.69484
-0.821446
0.11468
-0.666876
-0.385553
-0.669681
0.879462
0.357992
-0.0180933
0.386062
0.148862
-0.465638
-0.411806
0.855244
-0.207195
0.655133
-0.618373
-0.602272
0.0313238
-0.529408
0.271295
0.940871
-0.44174
0.595228
0.046568
0.930202
-0.524691
0.1539
-0.94205
-0.689974
-0.149526
0.579593
0.589686
0.680268
-0.595117
-0.385213
-0.24728
-0.0570744
-0.288676
0.0510519
0.125652
-0.464665
0.240382
0.778911
-0.546018
-0.899523
0.232127
0.748642
0.0578154
-0.728507
1.01932
0.0738868
-0.254188
0.301272
-0.365411
0.313237
0.325635
-0.0748652
-0.575643
0.00718073
-0.988432
-0.421563
0.537805
-0.0605712
0.779929
0.20697
0.667532
-0.249386
-0.33679
1.43947
-0.954406
-0.952271
0.353864
1.27481
0.644062
-0.968598
0.630213
-1.12736
0.170583
-0.115653
2.14646
-1.07544
-0.515688
0.0160192
0.849644
-0.262535
-0.623774
-0.212411
0.619818
0.73798
-1.21097
1.61632
-0.657654
0.980951
0.568902
-0.793031
-0.34522
-0.0823104
0.40373
-1.01459
-0.286281
0.303243
1.41421
-1.07594
0.299547
0.828275
0.237818
-0.866874
-0.71973
-0.384014
-0.0427032
-0.209859
-0.838462
-0.029728
-0.60424
0.511813
0.363253
0.508691
0.682901
-2.01425
0.623287
-1.13573
-0.420207
-0.661527
0.13619
-0.832824
0.634344
-0.341864
-1.18291
-0.387977
-1.38549
0.227183
0.496469
-0.599163
-0.683981
0.866411
-0.321766
0.323574
0.411399
-2.04723
0.418494
-2.44858
1.15759
-0.150966
0.337346
-1.49753
1.95406
-0.648325
-0.170695
-1.75591
-2.4573
0.479735
-1.08023
-1.27951
0.432674
-0.489548
0.118492
1.47028
0.302135
-0.208697
-1.04729
1.11645
-0.986272
-0.625529
-1.07592
0.395998
0.661932
0.460555
-1.05158
-0.895232
0.463721
-1.56104
-1.57682
0.216005
-0.91891
0.758175
-0.0711873
-0.760874
-1.29039
1.23219
1.18492
-0.211375
-3.11226
-1.51164
0.487449
-0.15247
-0.0647315
-0.909905
-0.649376
0.0497698
-1.09654
-0.350249
0.968236
-2.5827
-0.610891
-1.1393
0.291938
-1.19962
0.0682766
-0.9008
-0.419379
0.370662
-0.587552
-0.259146
-1.80859
-3.18433
-1.0215
0.11181
-1.92552
0.386159
0.694723
-0.0713642
0.378227
-0.464489
0.938351
-0.0767715
-0.857774
0.0670886
-1.23951
-1.34072
0.745339
-0.215919
-1.16214
-1.26179
0.399028
1.23577
0.800162
-1.56375
-1.4193
-0.995382
-1.56827
2.0017
0.202585
0.53987
-0.315435
-0.514491
0.189535
1.00302
-0.78389
-1.51639
0.883978
-0.424251
1.0983
-0.340591
-0.947078
0.829748
0.325944
1.54221
0.443111
0.119546
-0.815215
-0.614733
-0.143755
0.775333
-0.0188
-0.359558
1.29852
-0.803798
0.211335
0.0272132
-1.61378
0.0106111
-1.48713
-0.485465
0.782448
-0.383945
0.906398
0.0890667
0.955598
-0.0312716
-0.631878
0.540436
-0.801386
-0.221779
0.0558918
0.0568154
-0.0857597
-0.541945
-0.0998733
0.38792
-0.763497
0.420401
0.924364
-0.544108
-0.164875
-0.76426
-0.433966
0.872885
0.713678
-0.906499
0.473298
-0.80845
-0.0513969
0.0648686
0.878617
0.703874
0.760933
-0.78133
0.0108913
0.849312
-0.197351
-0.43855
-0.231581
0.0189847
-0.363261
0.750506
0.352062
-0.762329
-0.452405
0.18899
0.0236232
0.698194
0.475259
-0.354529
-0.184122
-0.845176
0.846437
-0.902908
0.844374
0.372588
0.301594
-0.0250709
-0.0914864
0.161937
-0.207754
0.368648
0.254283
0.511437
0.611961
-0.494734
-0.67739
-0.316182
-0.568643
0.410523
0.219081
-0.420462
0.206519
-0.717519
-0.0533255
0.247917
0.0995207
-0.385145
0.990851
0.244049
0.15015
-0.891827
-0.688106
-0.418417
0.0624959
0.623516
-0.222839
-0.872659
0.983593
0.0715657
0.234449
-0.373374
-0.653887
0.716597
0.930614
0.074286
0.421435
0.581352
0.826777
0.283741
-0.359871
-0.915276
-0.55355
0.455725
-0.926998
0.529631
-0.524809
0.752937
0.631516
-0.675255
0.188415
0.0776636
-0.207932
-0.232589
0.780367
-0.893929
0.73214
0.861982
-0.605102
-0.916367
0.0259425
0.356618
0.887001
-0.569045
-0.169882
-0.00899384
0.801789
1.16506
0.365854
0.00245698
0.113491
-1.11187
-0.207255
-0.554984
0.337904
0.987907
-1.01198
-0.402656
0.702546
1.45806
0.233786
-0.334436
-0.674362
-1.06629
0.966709
-0.100721
1.42456
-0.0963642
-0.25018
-0.878407
1.30364
0.489461
-0.0603866
-0.902912
0.51752
-0.800633
0.198422
0.532135
-0.429977
1.0906
-0.945682
0.913371
-0.114817
-0.195211
0.331052
0.0728027
0.0568489
0.721487
0.492326
0.15392
0.764731
-0.364782
0.12229
0.308947
-1.19668
0.241695
-1.33603
0.276525
-0.511071
2.06553
0.344163
-0.298338
-0.0444422
0.898878
-0.798708
-0.188185
0.382327
0.427039
-0.511381
0.132708
0.326032
0.141726
-0.711225
0.614398
-0.0256143
-0.643491
-1.00922
0.684472
-0.866655
0.451835
0.679808
0.0655467
0.181038
1.13486
-1.32532
-0.300241
0.150432
-0.956139
-1.95517
-0.106346
0.476038
0.558286
0.430451
-1.62269
0.538914
-0.886645
0.689801
-0.938227
-0.864433
-0.2297
-1.1006
0.136298
-1.1633
1.46493
-0.496007
-0.916162
-1.91298
-1.74716
-1.60318
-0.104097
-0.842917
0.718952
-0.867294
-0.27849
-0.17446
-0.112769
-1.17127
-2.78144
-0.977888
0.250927
1.14019
-0.462859
-0.0730301
-0.131843
0.154537
0.00143842
-0.246153
-0.191892
-0.258069
-1.52601
-1.18913
-0.758784
-1.38919
1.60274
0.427334
-0.800443
0.64618
-1.03751
-0.045733
-2.02888
-2.0635
0.549398
0.603392
0.118302
0.0145595
0.662156
-0.0229855
0.501958
0.336563
0.223717
-0.00245545
-1.55639
-0.730588
-0.453323
-1.11447
0.956548
-0.953768
0.107262
-0.451303
-0.547321
1.20402
-0.259276
-0.698559
-0.411784
0.116719
-0.586818
1.69018
0.0610547
0.27794
0.131389
0.580476
0.726178
-0.817814
-2.54567
-1.20297
-0.235318
-1.72817
0.844048
-0.826878
-0.550381
0.0202562
-0.162107
0.0573676
0.256469
0.337755
0.65183
-0.570454
-0.0558212
0.4712
-0.171364
0.299992
0.980987
0.950837
-0.347278
-0.206769
-0.753691
-0.103837
-0.618115
-0.585759
-0.763383
-0.0143524
-0.426719
0.681364
0.580964
-0.198318
-0.734182
-0.354051
0.0446986
-0.0379129
-0.32197
-0.658504
0.127079
-0.836967
-0.070292
-0.120287
0.0604379
0.737741
-0.89664
-0.257424
0.119941
-0.590344
0.148561
0.615291
-0.817851
-0.332097
0.525756
-0.512218
-0.643165
0.95257
-0.811623
-0.127017
-0.614044
0.942097
0.145272
0.771448
-0.841133
0.105358
0.121412
0.0583053
0.0978593
0.408679
0.36889
0.88605
0.0749897
-0.37305
-0.342349
-0.809914
0.295429
-0.923008
0.0918092
0.119657
-0.488131
0.0831771
-0.426009
-0.503151
0.0507014
-0.750727
0.376177
-0.0221002
-0.313983
-0.609005
-0.840037
-0.946364
0.754809
0.558811
-0.109438
-0.294478
0.678767
0.0399901
-0.192093
0.868719
0.734056
-0.354862
0.57458
0.261294
0.287317
0.53463
-0.855516
0.177969
0.313021
0.105619
-0.73576
-0.953274
0.749872
0.507015
0.435713
-0.223349
-0.426886
0.364853
-0.148687
0.0683148
0.844877
0.320543
-0.858884
-0.563184
0.162096
0.623915
-0.0999148
-0.979237
0.711205
-0.662642
-0.86626
0.612987
-0.825983
0.710847
-0.0166584
-0.0353595
-1.20004
0.0610931
0.0657555
-0.48105
0.174958
1.02285
0.556143
-0.434009
-0.128835
1.44668
-0.990238
-0.372381
0.357117
-1.074
-0.779006
0.186072
-0.986276
-0.838348
-0.244035
0.13167
0.740382
0.491711
0.324065
-0.618098
-1.00858
-0.046368
-0.455609
0.127679
-0.915452
-0.0629148
0.0807428
0.37033
0.367725
0.152433
-0.561445
-0.321374
-0.219923
1.40715
0.416369
-0.050635
0.337955
0.312803
1.70736
-0.759937
0.231865
-1.48986
-0.715261
0.484503
-0.667061
0.404258
0.593453
-0.0816729
-1.04032
0.586364
-0.616001
0.510127
-0.114551
0.647146
0.00438147
1.45863
-0.591782
-0.301205
0.619473
0.65999
0.0408062
0.519528
-0.511975
1.60739
-2.10359
0.722766
-0.555473
0.698007
-0.895484
-0.573767
0.41025
0.548859
-0.127176
0.184408
0.335389
-1.24013
0.421473
-0.186686
0.810456
-0.941992
0.35165
0.145461
1.00057
-0.0192166
-0.625071
-0.299826
-1.69834
0.984109
-0.914894
0.0875005
0.0390862
0.326558
-0.542114
0.661987
-0.235101
-0.351225
-1.31064
-0.58801
0.109066
-1.86098
0.210562
-0.751543
-0.545977
-0.399388
-1.64903
-0.19709
-0.0972641
0.586184
0.887174
-0.50301
-0.37564
0.58315
0.178132
-0.425761
0.325709
0.494391
-0.982395
-0.264795
-0.0787379
-0.772136
-0.797925
0.550976
-0.258741
-0.755559
-0.691271
-0.198223
-1.7962
-0.187133
0.4249
-0.340686
0.123489
-0.699937
-0.448509
-1.01484
0.964546
-0.816318
-0.771393
-0.177283
0.0711807
0.790625
1.14109
-0.531535
0.179933
0.720528
0.699875
-0.685007
0.3187
-0.273065
-1.70299
0.477376
-0.206796
-0.849493
0.0894553
-0.764997
0.0351271
-0.954453
-0.100551
-0.587425
0.17249
-1.09686
0.207538
0.598452
-0.731805
-0.503659
0.555216
-0.0107616
0.38681
0.238717
-0.342998
-0.561831
-0.419281
0.422524
0.26062
0.175819
0.345648
0.557589
0.00529918
0.596554
-0.20022
0.705983
0.238112
0.346451
-0.166992
0.588552
0.145532
-0.638914
-0.988766
0.752499
0.589022
-0.285568
0.676247
-0.993378
0.94675
0.119543
-0.638614
-0.866874
-0.808837
0.00605453
0.733332
0.916184
-0.374961
-0.516246
0.708563
-0.885827
-0.329366
-0.54174
0.293713
-0.557761
0.597751
0.100806
0.886272
0.739601
-0.674775
0.418163
-0.241221
-0.855459
0.585385
0.104454
-0.273041
-0.98782
-0.146857
-0.203451
0.240015
0.132185
0.949931
0.410742
0.368034
0.574091
0.811234
-0.827864
0.671708
0.850072
0.660383
-0.0459215
-0.889841
-0.002823
-0.761015
0.718967
-0.481864
-0.305283
-0.559245
-0.3937
-0.765182
0.944894
-0.547017
0.495356
-0.581765
0.859364
-0.369577
0.136828
0.974144
0.140147
-0.401662
0.649835
0.336163
-0.86564
-0.727695
0.302198
-0.963374
0.684561
-0.105926
0.611005
0.092188
0.382755
-0.531455
-0.383474
-0.746035
0.961978
-0.165701
-0.686242
-0.0354759
0.110868
-0.154164
-0.840588
-0.390483
-0.692814
-0.828905
0.146411
0.332564
0.819634
0.175011
0.617862
0.153391
-0.938569
-0.251363
-0.741123
0.00130858
0.23634
0.229473
-0.9554
-0.531997
0.940106
0.1443
0.918058
-0.968839
0.935607
-0.10408
0.967211
0.93755
-0.432827
-0.563192
0.476304
-0.355053
0.534154
0.600496
0.698933
0.928225
0.25699
0.937597
0.784989
-1.03086
0.941079
0.620708
-0.374664
-0.0239395
-0.460366
0.322004
0.0100286
0.966661
-0.727578
-0.986636
-0.713839
-0.881364
-0.573321
0.420436
-0.299438
0.608084
-0.612008
0.901522
-0.180606
0.648562
-1.1318
-0.82034
0.072163
-0.0568539
0.307871
-0.544769
-0.538791
-0.915223
0.639241
0.289439
-0.60669
-1.12366
0.471292
-0.728737
-0.357077
1.14267
-0.742695
-1.13469
-0.481392
0.896227
0.29241
-0.106142
-0.634646
0.485798
0.730975
0.0864986
0.756853
0.576809
-1.2815
-0.124621
-0.838703
-0.00532585
0.239559
0.726014
0.309899
-0.491462
-0.971637
0.341505
-0.326519
-0.295265
-0.653709
-0.0768514
0.752013
1.01973
0.356653
0.552026
-0.0611501
-0.227166
0.537741
0.0571791
-0.129669
0.296322
-0.404404
0.997747
-0.294341
-0.0589155
-0.68188
0.587652
0.881256
0.445119
-0.704724
-0.826474
-1.04197
-0.416942
-0.667861
0.704802
-0.279749
0.281607
-0.0881198
-0.422682
-0.144011
-0.930857
0.227189
-0.699033
0.796486
-0.86858
-0.156568
0.514811
0.692275
0.539925
0.640057
-0.847771
-0.635441
0.843398
-0.240666
-0.331056
0.174211
0.743448
-0.975089
-0.595173
-0.651181
0.98329
0.208724
0.245975
-0.862604
0.0309354
0.34873
0.551353
0.92416
0.980691
-0.763569
0.660156
0.238406
0.695162
-0.668278
0.934682
-0.373532
0.339164
0.996726
-0.846219
-0.112212
-0.706771
-0.56424
0.788331
-0.626355
-0.716954
-0.0639996
-0.617991
0.362301
0.667909
0.433152
0.573143
-0.065764
0.231403
0.184924
-0.753048
-0.185165
0.77808
-0.532073
-0.407444
0.180322
-0.0117912
0.694322
-0.00712814
-0.546436
0.683311
-0.567017
-0.991155
-0.114902
-0.00727019
-0.498912
0.201091
-0.529039
-0.300644
0.466302
0.685559
0.209216
0.862097
0.950777
0.457213
-0.477124
0.210789
0.924555
-0.38015
0.141501
-0.169596
-0.077142
0.981092
-0.778421
-0.412056
0.88813
-0.564351
-0.810285
0.592398
0.680772
-0.175996
-0.257326
0.00776085
0.73703
0.619266
-0.792065
-0.560643
0.446393
-0.0718698
-0.759892
0.235236
-0.54113
-0.699581
-0.757345
-0.256322
0.866177
0.632506
-0.800872
-0.650249
0.349201
-0.743163
-0.295187
-0.820837
-0.418656
-0.329392
-0.437374
-0.163763
-0.00905342
0.33429
-0.640694
0.516494
-0.772726
0.566376
0.624561
0.461924
0.358171
-0.296418
-0.557556
0.786536
-0.0417251
-0.215873
-0.740728
0.514401
0.096783
0.664368
-0.966977
-0.995587
0.616458
-0.446176
0.199167
-0.688874
0.172867
0.500127
-0.447687
-0.821421
-0.0947801
-0.609896
-0.702892
-0.527903
0.481438
-0.758551
0.409348
0.16615
0.618747
0.985011
-0.856294
0.83386
-0.388561
0.0814504
-0.671344
-0.781268
0.396775
-0.383765
-0.138109
0.219921
0.131393
0.712038
0.553422
0.48235
-0.164924
-0.856739
-0.00887144
-0.484117
0.584572
-0.700776
-0.363485
-0.465913
0.583019
0.309368
-0.682985
-0.432512
0.586952
0.597374
0.824848
-0.88456
0.515664
0.865205
-0.143831
-0.1928
0.73612
0.124274
0.376666
-0.0653998
-0.1613
-0.919581
0.915443
-0.464435
0.532592
0.509786
0.0620065
0.715574
0.662643
-0.0856638
-0.840674
0.529219
-0.457996
-0.149367
-0.619856
0.571756
-0.648799
0.534789
0.51335
0.848791
-0.0811588
-0.916576
-0.678
-0.0467227
0.698266
-0.476344
0.237413
0.675479
-0.0625167
-0.0875919
-0.326177
0.924878
0.719676
1.07708
0.515301
-0.516002
-0.293945
0.229142
0.984543
-0.874258
-0.276369
0.493328
-0.631213
0.391587
1.05691
0.282032
0.372944
-0.369761
0.91739
-0.588801
0.213613
-0.0690949
-0.565348
0.37922
-0.768972
0.376185
-0.119817
-1.0683
-1.07757
-0.675056
0.69212
-0.59479
-0.778288
-0.913886
0.33718
0.175925
-0.230421
0.185269
0.103813
-1.16678
0.394423
-0.141149
0.726216
-0.568802
-0.0491793
0.454641
0.341146
0.899964
-0.662924
0.125778
-0.896296
0.38692
0.784269
-0.0522879
-0.977899
-0.248673
-0.106378
0.192064
-0.137523
0.139461
-0.305297
0.0719043
0.718293
0.323032
0.386746
-0.22535
-0.714356
-0.419514
-0.529756
0.91905
0.629653
-0.712118
0.457185
0.995749
0.734657
0.906949
-0.473075
-0.979949
-0.601513
-0.0349784
-0.0491485
0.00809031
-0.402171
-0.932687
-0.945048
0.33604
0.0509947
-0.619664
0.649292
-0.879803
-0.990607
-0.639944
-0.140725
0.796149
0.83786
0.0911898
-0.383955
0.361674
-0.154513
-0.869981
-0.795761
-0.634872
-0.448436
-0.267118
0.144651
-0.663902
-0.788123
-0.530043
-0.772113
-0.800632
0.258413
-0.243703
-0.1599
-0.438001
0.762032
0.208018
0.536462
-0.081947
-0.918312
-0.349642
-0.916689
0.229483
-0.057928
-0.391388
-0.785964
0.918585
0.927448
-0.594689
0.877477
0.946404
0.247829
-0.88163
-0.619676
-0.697953
0.984112
0.909905
-0.357544
0.315291
-0.118187
0.0106851
-0.865233
0.0369663
-0.428945
-0.779123
-0.154376
0.234298
-0.876705
-0.46524
-0.76356
0.406694
-0.487217
0.0816279
-0.936097
-0.152652
0.0964783
0.118157
0.398925
0.616406
0.311686
-0.888091
-0.285164
-0.359594
0.998828
0.243314
-0.908659
-0.300144
0.460496
-0.223368
0.908911
-0.972699
0.603794
-0.550361
-0.903051
0.0734347
-0.109528
0.786013
0.133757
0.652348
0.458845
-0.281407
0.160089
-0.607109
0.566613
0.264941
-0.216035
-0.188779
-0.607702
-0.407481
0.0479723
0.754039
0.683063
0.781327
0.337253
-0.701363
-0.701545
-0.94521
0.493731
-0.947782
-0.0135743
-0.602882
0.0181056
0.177595
0.851394
0.901398
-0.606596
0.774168
-0.729971
0.227782
0.87072
-0.76574
0.480587
-0.341738
-0.434331
-0.110292
-0.414155
0.594649
0.472103
0.176458
0.935776
-0.288633
-0.102516
-0.131826
0.674735
0.858596
-0.46704
-0.810581
-0.205623
-0.233501
-0.557636
1.09131
-1.43769
0.831706
0.2785
2.83496
1.13601
0.560958
-0.420848
2.08019
-0.563968
-0.728543
-2.92358
-3.69584
-3.63349
-6.02471
1.73357
5.17962
4.89074
0.957634
-1.8458
2.00862
-0.275265
0.498829
2.00371
-4.1515
7.01849
-1.08844
2.70935
-1.6648
-1.13193
-0.356501
-0.175605
-0.130278
-2.89079
2.49756
-5.08341
-1.25575
-4.39612
-3.85667
0.372256
4.38507
-3.50542
2.06237
-0.184097
1.54273
5.79851
-2.33204
-4.767
-1.96154
-3.36589
4.90546
-0.651128
0.0686042
2.56316
0.996606
-3.27864
1.66316
0.942998
-0.27134
-1.09184
-3.38522
4.81541
-2.37864
1.36102
-5.41404
0.89288
-3.91181
-4.78828
-2.08345
-1.27638
-0.722008
0.311312
2.30594
3.18293
1.59509
-6.20236
-0.64512
-2.78701
-3.04018
6.55089
-0.702989
-3.65043
-3.49587
0.877838
-4.32094
0.117008
0.706652
-0.0359627
-4.22023
-2.5628
0.751216
1.28352
3.68051
-4.69907
-2.10664
4.11505
-1.1295
1.44158
0.623053
-3.25471
-3.19446
1.36616
2.21607
1.39019
-3.63127
-5.16609
6.59596
1.5388
-0.143591
0.801723
3.25207
-1.33818
2.43214
-3.56412
2.44078
-1.94327
-0.277782
-4.19489
-6.48714
5.41024
0.710725
1.17703
1.10998
-3.41606
1.96184
-1.24343
3.19415
-2.14626
-5.08513
0.476415
-2.14053
0.632003
-2.32885
-1.03997
3.54173
-1.4
-3.05212
-3.35438
0.232273
-3.04393
5.35513
-2.38198
-2.83172
-2.30823
6.24536
0.337494
-3.53105
-3.13374
-2.81728
2.05623
0.243239
-3.53612
5.20962
-1.68327
-3.39371
-4.05442
-3.28745
-4.16627
6.19722
-3.43934
-1.7269
-3.38969
1.23068
-5.66349
-4.37127
4.66732
-4.91133
-1.50142
-6.5599
3.01884
0.439547
2.3282
1.50156
-1.92446
-1.60278
1.95921
2.73383
1.22672
-4.19836
-4.09294
0.335177
1.26311
-2.85376
-1.90853
-3.57808
-6.64983
-2.65885
6.89906
-1.83011
-1.92972
3.58423
-2.30116
-3.84167
2.75167
3.98622
0.431526
-1.83216
2.55969
0.421461
-3.82492
-5.47332
-3.55224
-1.95591
6.21284
-4.1651
-5.95794
0.338611
-3.82808
-4.47715
2.99406
-3.58322
3.61813
-2.14704
-0.78003
0.338524
-3.46209
-4.49858
0.95899
-1.36408
-5.13797
-1.76286
2.60726
0.857458
-5.39091
0.815106
-4.33818
4.27415
-1.62743
-1.53422
1.499
1.1456
-5.24295
-4.23337
-2.98936
-5.05317
-1.45132
-3.06104
-3.68852
-1.83629
-4.11306
-4.43194
-4.13792
